svm_type svorim
kernel_type rbf
gamma 0.0909091
nr_class 10
total_sv 2716
rho 0 -2.60547 -0.557173 1.44717 3.33374 3.61964 3.80728 4.13365 4.44078 4.53576
SV
-1 2:0 3:0 4:1 5:0.13 6:0.1 7:0.03 8:0.013 9:0.0045 10:0.003 11:0.004 
-1 2:0 3:0 4:1 5:0.11 6:0.09 7:0.03 8:0.008 9:0.0025 10:0.002 11:0.003 
-1 2:0 3:0 4:1 5:0.165 6:0.12 7:0.03 8:0.0215 9:0.007 10:0.005 11:0.005 
-2 2:1 3:0 4:0 5:0.21 6:0.15 7:0.05 8:0.0385 9:0.0155 10:0.0085 11:0.01 
-2 2:1 3:0 4:0 5:0.155 6:0.11 7:0.04 8:0.0155 9:0.0065 10:0.003 11:0.005 
-1 2:0 3:0 4:1 5:0.15 6:0.1 7:0.025 8:0.015 9:0.0045 10:0.004 11:0.005 
-1 2:0 3:0 4:1 5:0.16 6:0.11 7:0.025 8:0.018 9:0.0065 10:0.0055 11:0.005 
-2 2:0 3:0 4:1 5:0.195 6:0.15 7:0.045 8:0.0375 9:0.018 10:0.006 11:0.011 
-1 2:0 3:0 4:1 5:0.14 6:0.105 7:0.035 8:0.014 9:0.0055 10:0.0025 11:0.004 
-1 2:0 3:0 4:1 5:0.18 6:0.13 7:0.045 8:0.0275 9:0.0125 10:0.01 11:0.009 
-2 2:1 3:0 4:0 5:0.18 6:0.125 7:0.05 8:0.023 9:0.0085 10:0.0055 11:0.01 
-1 2:0 3:0 4:1 5:0.19 6:0.14 7:0.03 8:0.0315 9:0.0125 10:0.005 11:0.0105 
-1 2:0 3:0 4:1 5:0.165 6:0.12 7:0.05 8:0.021 9:0.0075 10:0.0045 11:0.014 
-2 2:0 3:0 4:1 5:0.215 6:0.15 7:0.055 8:0.041 9:0.015 10:0.009 11:0.0125 
-2 2:0 3:0 4:1 5:0.205 6:0.155 7:0.045 8:0.0495 9:0.0235 10:0.011 11:0.014 
-1 2:0 3:0 4:1 5:0.205 6:0.15 7:0.055 8:0.042 9:0.0255 10:0.015 11:0.012 
-1 2:0 3:0 4:1 5:0.21 6:0.15 7:0.05 8:0.042 9:0.0175 10:0.0125 11:0.015 
-2 2:1 3:0 4:0 5:0.37 6:0.265 7:0.075 8:0.214 9:0.09 10:0.051 11:0.07 
-1 2:0 3:0 4:1 5:0.36 6:0.28 7:0.08 8:0.1755 9:0.081 10:0.0505 11:0.07 
-1 2:0 3:0 4:1 5:0.27 6:0.195 7:0.06 8:0.073 9:0.0285 10:0.0235 11:0.03 
-1 2:0 3:0 4:1 5:0.375 6:0.275 7:0.09 8:0.238 9:0.1075 10:0.0545 11:0.07 
-1 2:0 3:0 4:1 5:0.235 6:0.16 7:0.04 8:0.048 9:0.0185 10:0.018 11:0.015 
-1 2:0 3:0 4:1 5:0.225 6:0.16 7:0.045 8:0.0465 9:0.025 10:0.015 11:0.015 
-1 2:0 3:0 4:1 5:0.27 6:0.2 7:0.07 8:0.1 9:0.034 10:0.0245 11:0.035 
-1 2:0 3:0 4:1 5:0.23 6:0.175 7:0.065 8:0.0645 9:0.026 10:0.0105 11:0.02 
-1 2:0 3:0 4:1 5:0.245 6:0.195 7:0.06 8:0.095 9:0.0445 10:0.0245 11:0.026 
-1 2:0 3:0 4:1 5:0.295 6:0.215 7:0.085 8:0.128 9:0.049 10:0.034 11:0.04 
-1 2:0 3:0 4:1 5:0.275 6:0.205 7:0.075 8:0.1105 9:0.045 10:0.0285 11:0.035 
-1 2:0 3:0 4:1 5:0.28 6:0.21 7:0.085 8:0.1065 9:0.039 10:0.0295 11:0.03 
-2 2:1 3:0 4:0 5:0.36 6:0.27 7:0.1 8:0.217 9:0.0885 10:0.0495 11:0.0715 
-1 2:0 3:0 4:1 5:0.33 6:0.255 7:0.095 8:0.172 9:0.066 10:0.0255 11:0.06 
-1 2:0 3:0 4:1 5:0.265 6:0.21 7:0.06 8:0.0965 9:0.0425 10:0.022 11:0.03 
-1 2:0 3:0 4:1 5:0.19 6:0.145 7:0.04 8:0.038 9:0.0165 10:0.0065 11:0.015 
-1 2:0 3:0 4:1 5:0.3 6:0.22 7:0.08 8:0.121 9:0.0475 10:0.042 11:0.035 
-1 2:0 3:0 4:1 5:0.235 6:0.175 7:0.04 8:0.0705 9:0.0335 10:0.015 11:0.02 
-1 2:0 3:0 4:1 5:0.34 6:0.26 7:0.08 8:0.2 9:0.08 10:0.0555 11:0.055 
-1 2:0 3:0 4:1 5:0.26 6:0.2 7:0.07 8:0.092 9:0.037 10:0.02 11:0.03 
-1 2:0 3:0 4:1 5:0.24 6:0.185 7:0.07 8:0.0715 9:0.026 10:0.018 11:0.025 
-1 2:0 3:0 4:1 5:0.22 6:0.165 7:0.055 8:0.0545 9:0.0215 10:0.012 11:0.02 
-1 2:0 3:0 4:1 5:0.255 6:0.195 7:0.07 8:0.0735 9:0.0255 10:0.02 11:0.025 
1 2:0 3:0 4:1 5:0.175 6:0.125 7:0.05 8:0.0235 9:0.008 10:0.0035 11:0.008 
-1 2:1 3:0 4:0 5:0.31 6:0.22 7:0.085 8:0.146 9:0.061 10:0.0365 11:0.045 
-1 2:1 3:0 4:0 5:0.27 6:0.195 7:0.08 8:0.1 9:0.0385 10:0.0195 11:0.03 
-1 2:1 3:0 4:0 5:0.325 6:0.23 7:0.09 8:0.147 9:0.06 10:0.034 11:0.045 
-2 2:0 3:1 4:0 5:0.36 6:0.27 7:0.09 8:0.1885 9:0.0845 10:0.0385 11:0.055 
-1 2:1 3:0 4:0 5:0.2 6:0.14 7:0.055 8:0.035 9:0.0145 10:0.008 11:0.01 
-1 2:1 3:0 4:0 5:0.235 6:0.16 7:0.06 8:0.0545 9:0.0265 10:0.0095 11:0.015 
-1 2:1 3:0 4:0 5:0.175 6:0.125 7:0.04 8:0.024 9:0.0095 10:0.006 11:0.005 
-1 2:1 3:0 4:0 5:0.275 6:0.205 7:0.07 8:0.094 9:0.0335 10:0.02 11:0.0325 
-1 2:1 3:0 4:0 5:0.195 6:0.145 7:0.05 8:0.032 9:0.01 10:0.008 11:0.012 
-2 2:1 3:0 4:0 5:0.355 6:0.26 7:0.085 8:0.1905 9:0.081 10:0.0485 11:0.055 
-1 2:1 3:0 4:0 5:0.255 6:0.18 7:0.065 8:0.079 9:0.034 10:0.014 11:0.025 
-1 2:0 3:0 4:1 5:0.255 6:0.19 7:0.075 8:0.0865 9:0.0345 10:0.0205 11:0.025 
1 2:0 3:0 4:1 5:0.165 6:0.11 7:0.02 8:0.019 9:0.0065 10:0.0025 11:0.005 
1 2:0 3:0 4:1 5:0.155 6:0.105 7:0.05 8:0.0175 9:0.005 10:0.0035 11:0.005 
-1 2:0 3:0 4:1 5:0.25 6:0.19 7:0.06 8:0.0765 9:0.036 10:0.0115 11:0.0245 
-1 2:0 3:0 4:1 5:0.385 6:0.28 7:0.125 8:0.244 9:0.102 10:0.038 11:0.085 
-1 2:0 3:0 4:1 5:0.215 6:0.155 7:0.06 8:0.0525 9:0.021 10:0.0165 11:0.015 
-1 2:0 3:0 4:1 5:0.28 6:0.205 7:0.07 8:0.1015 9:0.041 10:0.03 11:0.03 
-1 2:0 3:0 4:1 5:0.235 6:0.175 7:0.055 8:0.067 9:0.027 10:0.0125 11:0.018 
-1 2:0 3:0 4:1 5:0.255 6:0.185 7:0.06 8:0.088 9:0.0365 10:0.021 11:0.023 
-1 2:0 3:0 4:1 5:0.335 6:0.25 7:0.08 8:0.183 9:0.0735 10:0.04 11:0.0575 
-1 2:0 3:0 4:1 5:0.35 6:0.27 7:0.09 8:0.2055 9:0.075 10:0.0575 11:0.062 
-1 2:0 3:0 4:1 5:0.37 6:0.275 7:0.14 8:0.2215 9:0.097 10:0.0455 11:0.0615 
-1 2:0 3:0 4:1 5:0.385 6:0.29 7:0.095 8:0.312 9:0.143 10:0.0635 11:0.086 
-1 2:0 3:0 4:1 5:0.395 6:0.29 7:0.095 8:0.304 9:0.127 10:0.084 11:0.077 
-1 2:0 3:0 4:1 5:0.4 6:0.31 7:0.1 8:0.306 9:0.13 10:0.06 11:0.094 
-2 2:1 3:0 4:0 5:0.415 6:0.305 7:0.1 8:0.325 9:0.156 10:0.0505 11:0.091 
-1 2:0 3:0 4:1 5:0.425 6:0.325 7:0.1 8:0.398 9:0.1185 10:0.0645 11:0.0945 
-2 2:0 3:1 4:0 5:0.595 6:0.475 7:0.16 8:1.1405 9:0.547 10:0.231 11:0.271 
-1 2:0 3:0 4:1 5:0.255 6:0.19 7:0.05 8:0.083 9:0.0295 10:0.0215 11:0.027 
-1 2:0 3:0 4:1 5:0.255 6:0.18 7:0.055 8:0.083 9:0.031 10:0.0215 11:0.02 
-1 2:0 3:0 4:1 5:0.265 6:0.195 7:0.06 8:0.092 9:0.0345 10:0.025 11:0.0245 
-1 2:0 3:0 4:1 5:0.28 6:0.12 7:0.075 8:0.117 9:0.0455 10:0.029 11:0.0345 
-1 2:0 3:0 4:1 5:0.295 6:0.23 7:0.08 8:0.1625 9:0.065 10:0.05 11:0.0385 
-1 2:0 3:0 4:1 5:0.3 6:0.23 7:0.095 8:0.1385 9:0.056 10:0.0365 11:0.037 
-1 2:0 3:0 4:1 5:0.305 6:0.22 7:0.07 8:0.141 9:0.062 10:0.031 11:0.037 
-1 2:0 3:0 4:1 5:0.33 6:0.265 7:0.085 8:0.196 9:0.0775 10:0.0305 11:0.0445 
-1 2:0 3:0 4:1 5:0.34 6:0.25 7:0.075 8:0.1785 9:0.0665 10:0.0455 11:0.045 
-1 2:0 3:0 4:1 5:0.375 6:0.28 7:0.09 8:0.215 9:0.084 10:0.06 11:0.055 
-1 2:0 3:0 4:1 5:0.385 6:0.265 7:0.08 8:0.251 9:0.124 10:0.037 11:0.07 
-1 2:0 3:0 4:1 5:0.41 6:0.31 7:0.09 8:0.3335 9:0.1635 10:0.061 11:0.091 
-1 2:0 3:0 4:1 5:0.415 6:0.33 7:0.09 8:0.3595 9:0.17 10:0.081 11:0.09 
-1 2:0 3:0 4:1 5:0.42 6:0.315 7:0.1 8:0.3435 9:0.157 10:0.0795 11:0.09 
-1 2:0 3:0 4:1 5:0.425 6:0.34 7:0.1 8:0.382 9:0.164 10:0.096 11:0.1 
-1 2:0 3:0 4:1 5:0.435 6:0.34 7:0.115 8:0.3925 9:0.1825 10:0.078 11:0.1145 
-1 2:0 3:0 4:1 5:0.44 6:0.345 7:0.13 8:0.4495 9:0.209 10:0.0835 11:0.134 
-2 2:0 3:1 4:0 5:0.445 6:0.335 7:0.11 8:0.4355 9:0.2025 10:0.1095 11:0.1195 
-2 2:0 3:1 4:0 5:0.465 6:0.35 7:0.125 8:0.482 9:0.23 10:0.106 11:0.1095 
-2 2:0 3:1 4:0 5:0.475 6:0.36 7:0.12 8:0.5915 9:0.3245 10:0.11 11:0.127 
-2 2:1 3:0 4:0 5:0.48 6:0.375 7:0.115 8:0.6765 9:0.3205 10:0.1065 11:0.17 
-2 2:0 3:1 4:0 5:0.66 6:0.475 7:0.18 8:1.3695 9:0.641 10:0.294 11:0.335 
-1 2:0 3:0 4:1 5:0.225 6:0.165 7:0.055 8:0.059 9:0.027 10:0.0125 11:0.015 
-1 2:0 3:0 4:1 5:0.245 6:0.18 7:0.065 8:0.071 9:0.03 10:0.013 11:0.0215 
-1 2:0 3:0 4:1 5:0.25 6:0.18 7:0.065 8:0.0685 9:0.0245 10:0.0155 11:0.0225 
-1 2:0 3:0 4:1 5:0.275 6:0.195 7:0.065 8:0.106 9:0.054 10:0.02 11:0.028 
-1 2:0 3:0 4:1 5:0.28 6:0.21 7:0.085 8:0.1075 9:0.0415 10:0.024 11:0.034 
-1 2:0 3:0 4:1 5:0.3 6:0.22 7:0.08 8:0.1255 9:0.055 10:0.0265 11:0.039 
-1 2:0 3:0 4:1 5:0.315 6:0.235 7:0.055 8:0.151 9:0.065 10:0.027 11:0.039 
-1 2:0 3:0 4:1 5:0.32 6:0.225 7:0.085 8:0.1415 9:0.0675 10:0.0295 11:0.0405 
-1 2:0 3:0 4:1 5:0.34 6:0.265 7:0.08 8:0.2015 9:0.09 10:0.0475 11:0.055 
-1 2:0 3:0 4:1 5:0.37 6:0.28 7:0.1 8:0.221 9:0.1165 10:0.0265 11:0.0635 
-1 2:0 3:0 4:1 5:0.375 6:0.28 7:0.08 8:0.2345 9:0.1125 10:0.0455 11:0.067 
-1 2:0 3:0 4:1 5:0.41 6:0.325 7:0.1 8:0.3245 9:0.132 10:0.072 11:0.106 
-1 2:0 3:0 4:1 5:0.435 6:0.33 7:0.11 8:0.413 9:0.2055 10:0.096 11:0.096 
-1 2:0 3:0 4:1 5:0.45 6:0.34 7:0.12 8:0.4925 9:0.241 10:0.1075 11:0.12 
-1 2:0 3:0 4:1 5:0.45 6:0.33 7:0.1 8:0.411 9:0.1945 10:0.1 11:0.098 
-1 2:0 3:0 4:1 5:0.45 6:0.33 7:0.11 8:0.3685 9:0.16 10:0.0885 11:0.102 
-2 2:0 3:0 4:1 5:0.47 6:0.38 7:0.125 8:0.4845 9:0.211 10:0.1075 11:0.142 
-2 2:0 3:0 4:1 5:0.475 6:0.35 7:0.11 8:0.4565 9:0.206 10:0.099 11:0.13 
-2 2:1 3:0 4:0 5:0.5 6:0.39 7:0.125 8:0.5215 9:0.2485 10:0.117 11:0.131 
-2 2:0 3:1 4:0 5:0.51 6:0.4 7:0.125 8:0.545 9:0.261 10:0.115 11:0.1385 
-1 2:0 3:0 4:1 5:0.185 6:0.375 7:0.12 8:0.4645 9:0.196 10:0.1045 11:0.15 
-1 2:0 3:0 4:1 5:0.245 6:0.205 7:0.06 8:0.0765 9:0.034 10:0.014 11:0.0215 
-1 2:0 3:0 4:1 5:0.25 6:0.185 7:0.065 8:0.0685 9:0.0295 10:0.014 11:0.0225 
-1 2:0 3:0 4:1 5:0.25 6:0.19 7:0.065 8:0.0835 9:0.039 10:0.015 11:0.025 
-1 2:0 3:0 4:1 5:0.275 6:0.195 7:0.09 8:0.1125 9:0.0545 10:0.0295 11:0.0355 
-1 2:0 3:0 4:1 5:0.305 6:0.215 7:0.065 8:0.1075 9:0.044 10:0.0205 11:0.038 
-1 2:0 3:0 4:1 5:0.315 6:0.23 7:0.07 8:0.1145 9:0.046 10:0.0235 11:0.0385 
-1 2:0 3:0 4:1 5:0.325 6:0.225 7:0.075 8:0.139 9:0.0565 10:0.032 11:0.09 
-1 2:0 3:0 4:1 5:0.33 6:0.205 7:0.095 8:0.1595 9:0.077 10:0.032 11:0.0435 
-1 2:0 3:0 4:1 5:0.34 6:0.25 7:0.09 8:0.179 9:0.0775 10:0.033 11:0.055 
-1 2:0 3:0 4:1 5:0.345 6:0.255 7:0.095 8:0.1945 9:0.0925 10:0.037 11:0.055 
-1 2:0 3:0 4:1 5:0.345 6:0.255 7:0.085 8:0.2005 9:0.105 10:0.037 11:0.05 
-1 2:0 3:0 4:1 5:0.36 6:0.27 7:0.085 8:0.196 9:0.0875 10:0.035 11:0.064 
-1 2:0 3:0 4:1 5:0.365 6:0.27 7:0.085 8:0.1875 9:0.081 10:0.042 11:0.058 
-1 2:0 3:0 4:1 5:0.37 6:0.28 7:0.085 8:0.217 9:0.1095 10:0.035 11:0.062 
-1 2:0 3:0 4:1 5:0.375 6:0.29 7:0.095 8:0.213 9:0.096 10:0.041 11:0.061 
-1 2:0 3:0 4:1 5:0.375 6:0.275 7:0.09 8:0.218 9:0.093 10:0.0405 11:0.0755 
-1 2:0 3:0 4:1 5:0.38 6:0.275 7:0.11 8:0.256 9:0.11 10:0.0535 11:0.0755 
-1 2:0 3:0 4:1 5:0.385 6:0.28 7:0.09 8:0.228 9:0.1025 10:0.042 11:0.0655 
-1 2:0 3:0 4:1 5:0.395 6:0.27 7:0.1 8:0.2985 9:0.1445 10:0.061 11:0.082 
-1 2:0 3:0 4:1 5:0.42 6:0.305 7:0.09 8:0.328 9:0.168 10:0.0615 11:0.082 
-1 2:0 3:0 4:1 5:0.365 6:0.255 7:0.08 8:0.1985 9:0.0785 10:0.0345 11:0.053 
-1 2:0 3:0 4:1 5:0.37 6:0.27 7:0.095 8:0.232 9:0.1325 10:0.041 11:0.0615 
-1 2:0 3:0 4:1 5:0.395 6:0.295 7:0.09 8:0.3025 9:0.143 10:0.0665 11:0.0765 
-1 2:0 3:0 4:1 5:0.405 6:0.3 7:0.105 8:0.304 9:0.1455 10:0.061 11:0.0805 
-1 2:0 3:0 4:1 5:0.41 6:0.32 7:0.095 8:0.2905 9:0.141 10:0.063 11:0.073 
-2 2:0 3:0 4:1 5:0.485 6:0.38 7:0.12 8:0.4725 9:0.2075 10:0.1075 11:0.147 
-2 2:1 3:0 4:0 5:0.485 6:0.37 7:0.13 8:0.526 9:0.2485 10:0.105 11:0.1555 
-1 2:0 3:0 4:1 5:0.21 6:0.17 7:0.045 8:0.0475 9:0.019 10:0.011 11:0.013 
-1 2:0 3:0 4:1 5:0.295 6:0.215 7:0.07 8:0.121 9:0.047 10:0.0155 11:0.0405 
-1 2:0 3:0 4:1 5:0.35 6:0.26 7:0.075 8:0.18 9:0.09 10:0.0245 11:0.055 
-1 2:0 3:0 4:1 5:0.355 6:0.27 7:0.075 8:0.1775 9:0.079 10:0.0315 11:0.054 
-1 2:0 3:0 4:1 5:0.37 6:0.27 7:0.095 8:0.2175 9:0.097 10:0.046 11:0.065 
-1 2:0 3:0 4:1 5:0.435 6:0.325 7:0.11 8:0.367 9:0.1595 10:0.08 11:0.105 
-2 2:0 3:1 4:0 5:0.515 6:0.375 7:0.11 8:0.6065 9:0.3005 10:0.131 11:0.15 
-1 2:0 3:0 4:1 5:0.275 6:0.175 7:0.09 8:0.2315 9:0.096 10:0.057 11:0.0705 
-1 2:0 3:0 4:1 5:0.455 6:0.335 7:0.105 8:0.422 9:0.229 10:0.0865 11:0.1 
1 2:0 3:0 4:1 5:0.185 6:0.135 7:0.04 8:0.027 9:0.0105 10:0.0055 11:0.009 
-1 2:0 3:0 4:1 5:0.365 6:0.27 7:0.075 8:0.2215 9:0.095 10:0.0445 11:0.07 
-1 2:0 3:0 4:1 5:0.405 6:0.3 7:0.09 8:0.269 9:0.103 10:0.067 11:0.11 
-1 2:0 3:0 4:1 5:0.415 6:0.31 7:0.09 8:0.2815 9:0.1245 10:0.0615 11:0.085 
-1 2:0 3:0 4:1 5:0.415 6:0.31 7:0.1 8:0.2805 9:0.114 10:0.0565 11:0.0975 
-2 2:0 3:0 4:1 5:0.55 6:0.45 7:0.13 8:0.804 9:0.3375 10:0.1405 11:0.23 
1 2:0 3:0 4:1 5:0.16 6:0.11 7:0.025 8:0.0195 9:0.0075 10:0.005 11:0.006 
-1 2:0 3:0 4:1 5:0.28 6:0.21 7:0.075 8:0.1195 9:0.053 10:0.0265 11:0.03 
-1 2:0 3:0 4:1 5:0.285 6:0.215 7:0.06 8:0.0935 9:0.031 10:0.023 11:0.03 
-1 2:0 3:0 4:1 5:0.29 6:0.21 7:0.07 8:0.1115 9:0.048 10:0.0205 11:0.03 
-1 2:0 3:0 4:1 5:0.29 6:0.21 7:0.06 8:0.1195 9:0.056 10:0.0235 11:0.03 
-1 2:0 3:0 4:1 5:0.32 6:0.24 7:0.07 8:0.133 9:0.0585 10:0.0255 11:0.041 
-1 2:0 3:0 4:1 5:0.335 6:0.25 7:0.08 8:0.1695 9:0.0695 10:0.044 11:0.0495 
-1 2:0 3:0 4:1 5:0.35 6:0.25 7:0.07 8:0.1605 9:0.0715 10:0.0335 11:0.046 
-1 2:0 3:0 4:1 5:0.36 6:0.27 7:0.085 8:0.2185 9:0.1065 10:0.038 11:0.062 
-1 2:0 3:0 4:1 5:0.375 6:0.28 7:0.08 8:0.226 9:0.105 10:0.047 11:0.065 
-1 2:0 3:0 4:1 5:0.28 6:0.215 7:0.08 8:0.132 9:0.072 10:0.022 11:0.033 
-1 2:0 3:0 4:1 5:0.285 6:0.215 7:0.07 8:0.1075 9:0.051 10:0.0225 11:0.027 
-1 2:0 3:0 4:1 5:0.42 6:0.315 7:0.115 8:0.355 9:0.1895 10:0.065 11:0.087 
1 2:0 3:0 4:1 5:0.13 6:0.095 7:0.035 8:0.0105 9:0.005 10:0.0065 11:0.0035 
-1 2:1 3:0 4:0 5:0.32 6:0.24 7:0.08 8:0.18 9:0.08 10:0.0385 11:0.055 
-1 2:0 3:0 4:1 5:0.28 6:0.2 7:0.075 8:0.1225 9:0.0545 10:0.0115 11:0.035 
-2 2:1 3:0 4:0 5:0.375 6:0.305 7:0.09 8:0.3245 9:0.1395 10:0.0565 11:0.095 
-2 2:0 3:1 4:0 5:0.37 6:0.275 7:0.085 8:0.2405 9:0.104 10:0.0535 11:0.07 
-1 2:1 3:0 4:0 5:0.335 6:0.235 7:0.085 8:0.1545 9:0.066 10:0.0345 11:0.045 
1 2:0 3:0 4:1 5:0.165 6:0.115 7:0.015 8:0.0145 9:0.0055 10:0.003 11:0.005 
1 2:0 3:0 4:1 5:0.19 6:0.13 7:0.03 8:0.0295 9:0.0155 10:0.015 11:0.01 
-1 2:0 3:0 4:1 5:0.215 6:0.15 7:0.03 8:0.0385 9:0.0115 10:0.005 11:0.01 
-1 2:0 3:0 4:1 5:0.32 6:0.235 7:0.08 8:0.1485 9:0.064 10:0.031 11:0.045 
-1 2:0 3:0 4:1 5:0.26 6:0.215 7:0.08 8:0.099 9:0.037 10:0.0255 11:0.045 
-1 2:0 3:0 4:1 5:0.27 6:0.19 7:0.08 8:0.081 9:0.0265 10:0.0195 11:0.03 
-1 2:0 3:0 4:1 5:0.275 6:0.22 7:0.08 8:0.1365 9:0.0565 10:0.0285 11:0.042 
-2 2:0 3:1 4:0 5:0.29 6:0.225 7:0.075 8:0.14 9:0.0515 10:0.0235 11:0.04 
-1 2:0 3:0 4:1 5:0.33 6:0.265 7:0.09 8:0.18 9:0.068 10:0.036 11:0.06 
-1 2:0 3:0 4:1 5:0.34 6:0.26 7:0.09 8:0.179 9:0.076 10:0.0525 11:0.055 
-1 2:0 3:0 4:1 5:0.255 6:0.185 7:0.07 8:0.075 9:0.028 10:0.018 11:0.025 
1 2:0 3:0 4:1 5:0.17 6:0.125 7:0.055 8:0.0235 9:0.009 10:0.0055 11:0.008 
-1 2:1 3:0 4:0 5:0.175 6:0.135 7:0.04 8:0.0305 9:0.011 10:0.0075 11:0.01 
-1 2:1 3:0 4:0 5:0.155 6:0.115 7:0.025 8:0.024 9:0.009 10:0.005 11:0.0075 
-1 2:1 3:0 4:0 5:0.26 6:0.19 7:0.075 8:0.0945 9:0.0445 10:0.02 11:0.03 
-1 2:0 3:0 4:1 5:0.275 6:0.205 7:0.08 8:0.096 9:0.036 10:0.0185 11:0.03 
-1 2:0 3:0 4:1 5:0.275 6:0.2 7:0.065 8:0.092 9:0.0385 10:0.0235 11:0.027 
-1 2:0 3:0 4:1 5:0.2 6:0.145 7:0.05 8:0.036 9:0.0125 10:0.008 11:0.011 
-1 2:0 3:0 4:1 5:0.285 6:0.21 7:0.07 8:0.109 9:0.044 10:0.0265 11:0.033 
-1 2:0 3:0 4:1 5:0.3 6:0.23 7:0.075 8:0.127 9:0.052 10:0.03 11:0.0345 
-1 2:0 3:0 4:1 5:0.31 6:0.24 7:0.105 8:0.2885 9:0.118 10:0.065 11:0.083 
-1 2:0 3:0 4:1 5:0.34 6:0.255 7:0.075 8:0.18 9:0.0745 10:0.04 11:0.0525 
-1 2:0 3:0 4:1 5:0.415 6:0.315 7:0.105 8:0.33 9:0.1405 10:0.0705 11:0.095 
-1 2:0 3:0 4:1 5:0.425 6:0.31 7:0.105 8:0.365 9:0.159 10:0.0825 11:0.105 
-1 2:0 3:0 4:1 5:0.205 6:0.15 7:0.065 8:0.04 9:0.02 10:0.011 11:0.013 
-1 2:0 3:0 4:1 5:0.23 6:0.18 7:0.05 8:0.064 9:0.0215 10:0.0135 11:0.02 
-1 2:0 3:0 4:1 5:0.28 6:0.21 7:0.055 8:0.106 9:0.0415 10:0.0265 11:0.031 
-1 2:0 3:0 4:1 5:0.28 6:0.22 7:0.08 8:0.1315 9:0.066 10:0.024 11:0.03 
-1 2:0 3:0 4:1 5:0.295 6:0.22 7:0.07 8:0.126 9:0.0515 10:0.0275 11:0.035 
-1 2:0 3:0 4:1 5:0.31 6:0.225 7:0.075 8:0.155 9:0.065 10:0.037 11:0.0365 
-1 2:0 3:0 4:1 5:0.37 6:0.29 7:0.08 8:0.2545 9:0.108 10:0.0565 11:0.07 
-1 2:0 3:0 4:1 5:0.38 6:0.285 7:0.085 8:0.237 9:0.115 10:0.0405 11:0.07 
-1 2:0 3:0 4:1 5:0.405 6:0.31 7:0.065 8:0.3205 9:0.1575 10:0.066 11:0.088 
-2 2:0 3:0 4:1 5:0.44 6:0.345 7:0.115 8:0.545 9:0.269 10:0.111 11:0.1305 
-2 2:0 3:0 4:1 5:0.45 6:0.35 7:0.125 8:0.4775 9:0.2235 10:0.089 11:0.118 
-2 2:0 3:1 4:0 5:0.46 6:0.35 7:0.115 8:0.46 9:0.2025 10:0.1115 11:0.1165 
-1 2:0 3:0 4:1 5:0.46 6:0.345 7:0.115 8:0.4215 9:0.1895 10:0.102 11:0.111 
-2 2:0 3:1 4:0 5:0.53 6:0.42 7:0.17 8:0.828 9:0.41 10:0.208 11:0.1505 
-2 2:1 3:0 4:0 5:0.53 6:0.41 7:0.14 8:0.681 9:0.3095 10:0.1415 11:0.1835 
-1 2:0 3:0 4:1 5:0.22 6:0.16 7:0.05 8:0.049 9:0.0215 10:0.01 11:0.015 
1 2:0 3:0 4:1 5:0.275 6:0.205 7:0.07 8:0.1055 9:0.495 10:0.019 11:0.0315 
-1 2:0 3:0 4:1 5:0.29 6:0.21 7:0.06 8:0.1045 9:0.0415 10:0.022 11:0.035 
-1 2:0 3:0 4:1 5:0.33 6:0.24 7:0.075 8:0.163 9:0.0745 10:0.033 11:0.048 
-1 2:0 3:0 4:1 5:0.355 6:0.285 7:0.095 8:0.2275 9:0.0955 10:0.0475 11:0.0715 
-1 2:0 3:0 4:1 5:0.375 6:0.29 7:0.1 8:0.219 9:0.0925 10:0.038 11:0.075 
-2 2:0 3:0 4:1 5:0.46 6:0.37 7:0.12 8:0.5335 9:0.2645 10:0.108 11:0.1345 
-1 2:0 3:0 4:1 5:0.21 6:0.15 7:0.045 8:0.04 9:0.0135 10:0.008 11:0.0105 
-1 2:0 3:0 4:1 5:0.29 6:0.215 7:0.065 8:0.0985 9:0.0425 10:0.021 11:0.031 
-1 2:0 3:0 4:1 5:0.335 6:0.25 7:0.08 8:0.167 9:0.0675 10:0.0325 11:0.0575 
-1 2:0 3:0 4:1 5:0.34 6:0.245 7:0.085 8:0.2015 9:0.1005 10:0.038 11:0.053 
-1 2:0 3:0 4:1 5:0.405 6:0.3 7:0.09 8:0.2885 9:0.138 10:0.0635 11:0.0765 
-1 2:0 3:0 4:1 5:0.255 6:0.195 7:0.055 8:0.0725 9:0.0285 10:0.017 11:0.021 
-1 2:0 3:0 4:1 5:0.275 6:0.2 7:0.055 8:0.0925 9:0.038 10:0.021 11:0.026 
-1 2:0 3:0 4:1 5:0.375 6:0.285 7:0.09 8:0.2545 9:0.119 10:0.0595 11:0.0675 
-1 2:0 3:0 4:1 5:0.315 6:0.235 7:0.075 8:0.1285 9:0.051 10:0.028 11:0.0405 
-1 2:0 3:0 4:1 5:0.32 6:0.205 7:0.08 8:0.181 9:0.088 10:0.034 11:0.0495 
-1 2:0 3:0 4:1 5:0.325 6:0.25 7:0.075 8:0.1585 9:0.075 10:0.0305 11:0.0455 
-1 2:0 3:0 4:1 5:0.41 6:0.305 7:0.095 8:0.2625 9:0.1 10:0.0515 11:0.09 
-1 2:0 3:0 4:1 5:0.32 6:0.215 7:0.095 8:0.305 9:0.14 10:0.067 11:0.0885 
-1 2:0 3:0 4:1 5:0.43 6:0.33 7:0.1 8:0.449 9:0.254 10:0.0825 11:0.097 
-1 2:0 3:0 4:1 5:0.255 6:0.185 7:0.065 8:0.074 9:0.0305 10:0.0165 11:0.02 
-1 2:0 3:0 4:1 5:0.375 6:0.26 7:0.08 8:0.2075 9:0.09 10:0.0415 11:0.07 
-1 2:0 3:0 4:1 5:0.225 6:0.17 7:0.05 8:0.0515 9:0.019 10:0.012 11:0.017 
-1 2:0 3:0 4:1 5:0.23 6:0.17 7:0.05 8:0.057 9:0.026 10:0.013 11:0.016 
-1 2:0 3:0 4:1 5:0.29 6:0.215 7:0.06 8:0.1115 9:0.053 10:0.0185 11:0.032 
-1 2:0 3:0 4:1 5:0.3 6:0.22 7:0.065 8:0.1235 9:0.059 10:0.026 11:0.0315 
-1 2:0 3:0 4:1 5:0.37 6:0.275 7:0.1 8:0.2815 9:0.1505 10:0.0505 11:0.068 
-1 2:0 3:0 4:1 5:0.44 6:0.34 7:0.12 8:0.4995 9:0.2965 10:0.0945 11:0.1185 
-1 2:0 3:0 4:1 5:0.215 6:0.165 7:0.055 8:0.059 9:0.0265 10:0.0125 11:0.0185 
-2 2:0 3:1 4:0 5:0.34 6:0.255 7:0.085 8:0.204 9:0.097 10:0.021 11:0.05 
-2 2:0 3:1 4:0 5:0.335 6:0.22 7:0.07 8:0.17 9:0.076 10:0.0365 11:0.05 
-2 2:0 3:1 4:0 5:0.385 6:0.3 7:0.1 8:0.2725 9:0.1115 10:0.057 11:0.08 
-1 2:1 3:0 4:0 5:0.3 6:0.24 7:0.09 8:0.161 9:0.0725 10:0.039 11:0.05 
-1 2:0 3:0 4:1 5:0.3 6:0.23 7:0.075 8:0.15 9:0.0605 10:0.042 11:0.045 
-1 2:1 3:0 4:0 5:0.275 6:0.2 7:0.08 8:0.099 9:0.037 10:0.024 11:0.03 
-1 2:1 3:0 4:0 5:0.285 6:0.215 7:0.075 8:0.106 9:0.0415 10:0.023 11:0.035 
-1 2:1 3:0 4:0 5:0.28 6:0.21 7:0.065 8:0.0905 9:0.035 10:0.02 11:0.03 
-1 2:0 3:0 4:1 5:0.255 6:0.19 7:0.07 8:0.0815 9:0.028 10:0.016 11:0.031 
1 2:0 3:0 4:1 5:0.19 6:0.13 7:0.045 8:0.0265 9:0.009 10:0.005 11:0.009 
-1 2:0 3:0 4:1 5:0.35 6:0.265 7:0.08 8:0.192 9:0.081 10:0.0465 11:0.053 
-1 2:0 3:0 4:1 5:0.415 6:0.31 7:0.105 8:0.3595 9:0.167 10:0.083 11:0.0915 
-1 2:0 3:0 4:1 5:0.25 6:0.18 7:0.065 8:0.0805 9:0.0345 10:0.0185 11:0.0215 
-1 2:0 3:0 4:1 5:0.28 6:0.21 7:0.065 8:0.111 9:0.0425 10:0.0285 11:0.03 
-1 2:0 3:0 4:1 5:0.325 6:0.24 7:0.075 8:0.152 9:0.065 10:0.0305 11:0.045 
-1 2:0 3:0 4:1 5:0.35 6:0.265 7:0.095 8:0.199 9:0.073 10:0.049 11:0.06 
-1 2:0 3:0 4:1 5:0.38 6:0.275 7:0.095 8:0.2505 9:0.0945 10:0.0655 11:0.075 
-1 2:0 3:0 4:1 5:0.43 6:0.335 7:0.105 8:0.378 9:0.188 10:0.0785 11:0.09 
-1 2:0 3:0 4:1 5:0.21 6:0.15 7:0.055 8:0.0455 9:0.02 10:0.0065 11:0.013 
-1 2:0 3:0 4:1 5:0.355 6:0.265 7:0.085 8:0.2435 9:0.122 10:0.0525 11:0.06 
-1 2:0 3:0 4:1 5:0.4 6:0.315 7:0.085 8:0.2675 9:0.116 10:0.0585 11:0.0765 
-1 2:0 3:0 4:1 5:0.4 6:0.3 7:0.11 8:0.2985 9:0.1375 10:0.071 11:0.075 
-1 2:0 3:0 4:1 5:0.465 6:0.345 7:0.105 8:0.4015 9:0.242 10:0.0345 11:0.109 
-1 2:0 3:0 4:1 5:0.24 6:0.185 7:0.06 8:0.0655 9:0.0295 10:0.0005 11:0.02 
-1 2:0 3:0 4:1 5:0.26 6:0.205 7:0.07 8:0.097 9:0.0415 10:0.019 11:0.0305 
-1 2:0 3:0 4:1 5:0.335 6:0.26 7:0.085 8:0.192 9:0.097 10:0.03 11:0.054 
-1 2:0 3:0 4:1 5:0.4 6:0.31 7:0.115 8:0.314 9:0.1545 10:0.0595 11:0.087 
-1 2:0 3:0 4:1 5:0.4 6:0.315 7:0.09 8:0.33 9:0.151 10:0.068 11:0.08 
1 2:0 3:0 4:1 5:0.175 6:0.125 7:0.04 8:0.028 9:0.0095 10:0.008 11:0.009 
-1 2:0 3:0 4:1 5:0.395 6:0.3 7:0.09 8:0.2855 9:0.1385 10:0.0625 11:0.077 
-1 2:0 3:0 4:1 5:0.27 6:0.205 7:0.05 8:0.084 9:0.03 10:0.0185 11:0.029 
-1 2:0 3:0 4:1 5:0.295 6:0.22 7:0.085 8:0.1285 9:0.0585 10:0.027 11:0.0365 
-1 2:0 3:0 4:1 5:0.3 6:0.225 7:0.075 8:0.1345 9:0.057 10:0.028 11:0.044 
-1 2:0 3:0 4:1 5:0.3 6:0.22 7:0.065 8:0.1195 9:0.052 10:0.0155 11:0.035 
-1 2:0 3:0 4:1 5:0.36 6:0.265 7:0.085 8:0.1895 9:0.0725 10:0.0515 11:0.055 
-1 2:0 3:0 4:1 5:0.37 6:0.275 7:0.095 8:0.257 9:0.1015 10:0.055 11:0.0825 
-1 2:0 3:0 4:1 5:0.435 6:0.325 7:0.1 8:0.342 9:0.1335 10:0.0835 11:0.105 
-1 2:0 3:0 4:1 5:0.285 6:0.205 7:0.07 8:0.106 9:0.039 10:0.0285 11:0.034 
-1 2:0 3:0 4:1 5:0.385 6:0.29 7:0.1 8:0.2575 9:0.1 10:0.061 11:0.086 
-1 2:0 3:0 4:1 5:0.305 6:0.23 7:0.075 8:0.1455 9:0.0595 10:0.0305 11:0.05 
1 2:0 3:0 4:1 5:0.17 6:0.105 7:0.035 8:0.034 9:0.012 10:0.0085 11:0.005 
-1 2:0 3:0 4:1 5:0.32 6:0.235 7:0.065 8:0.1385 9:0.058 10:0.0225 11:0.05 
1 2:0 3:0 4:1 5:0.14 6:0.105 7:0.035 8:0.0145 9:0.005 10:0.0035 11:0.005 
1 2:0 3:0 4:1 5:0.16 6:0.12 7:0.02 8:0.018 9:0.0075 10:0.0045 11:0.005 
-2 2:1 3:0 4:0 5:0.38 6:0.27 7:0.095 8:0.219 9:0.0835 10:0.0515 11:0.07 
-1 2:1 3:0 4:0 5:0.245 6:0.18 7:0.065 8:0.0635 9:0.0245 10:0.0135 11:0.02 
-1 2:0 3:0 4:1 5:0.235 6:0.18 7:0.06 8:0.058 9:0.022 10:0.0145 11:0.018 
-1 2:0 3:0 4:1 5:0.235 6:0.175 7:0.08 8:0.0645 9:0.0215 10:0.0175 11:0.0215 
-1 2:0 3:0 4:1 5:0.235 6:0.175 7:0.065 8:0.0615 9:0.0205 10:0.02 11:0.019 
-1 2:0 3:0 4:1 5:0.27 6:0.19 7:0.06 8:0.099 9:0.0445 10:0.017 11:0.03 
-1 2:0 3:0 4:1 5:0.295 6:0.22 7:0.065 8:0.1295 9:0.052 10:0.028 11:0.035 
-1 2:0 3:0 4:1 5:0.375 6:0.29 7:0.095 8:0.2875 9:0.123 10:0.0605 11:0.08 
-1 2:0 3:0 4:1 5:0.38 6:0.3 7:0.09 8:0.277 9:0.1655 10:0.0625 11:0.082 
-1 2:0 3:0 4:1 5:0.44 6:0.33 7:0.135 8:0.4095 9:0.163 10:0.1005 11:0.119 
-2 2:0 3:1 4:0 5:0.585 6:0.45 7:0.125 8:0.874 9:0.3545 10:0.2075 11:0.225 
-1 2:0 3:0 4:1 5:0.315 6:0.23 7:0 8:0.134 9:0.0575 10:0.0285 11:0.3505 
-1 2:0 3:0 4:1 5:0.36 6:0.27 7:0.09 8:0.2075 9:0.098 10:0.039 11:0.062 
-1 2:0 3:0 4:1 5:0.375 6:0.28 7:0.08 8:0.2235 9:0.115 10:0.043 11:0.055 
-1 2:0 3:0 4:1 5:0.415 6:0.31 7:0.095 8:0.34 9:0.181 10:0.057 11:0.083 
-2 2:0 3:0 4:1 5:0.48 6:0.35 7:0.105 8:0.635 9:0.352 10:0.127 11:0.135 
-1 2:0 3:0 4:1 5:0.275 6:0.2 7:0.07 8:0.096 9:0.037 10:0.0225 11:0.03 
-1 2:0 3:0 4:1 5:0.365 6:0.27 7:0.09 8:0.2155 9:0.1005 10:0.049 11:0.0655 
-1 2:0 3:0 4:1 5:0.37 6:0.275 7:0.08 8:0.2325 9:0.093 10:0.056 11:0.072 
-1 2:0 3:0 4:1 5:0.4 6:0.3 7:0.115 8:0.318 9:0.1335 10:0.0725 11:0.0935 
-1 2:0 3:0 4:1 5:0.3 6:0.215 7:0.05 8:0.1185 9:0.048 10:0.0225 11:0.042 
-1 2:0 3:0 4:1 5:0.28 6:0.215 7:0.07 8:0.124 9:0.063 10:0.0215 11:0.03 
-1 2:0 3:0 4:1 5:0.35 6:0.25 7:0.075 8:0.1695 9:0.0835 10:0.0355 11:0.041 
-1 2:0 3:0 4:1 5:0.435 6:0.33 7:0.095 8:0.393 9:0.219 10:0.075 11:0.0885 
-1 2:0 3:0 4:1 5:0.44 6:0.35 7:0.11 8:0.3805 9:0.1575 10:0.0895 11:0.115 
-1 2:1 3:0 4:0 5:0.35 6:0.265 7:0.09 8:0.2255 9:0.0995 10:0.0485 11:0.07 
-1 2:0 3:1 4:0 5:0.53 6:0.42 7:0.135 8:0.677 9:0.2565 10:0.1415 11:0.21 
1 2:0 3:0 4:1 5:0.33 6:0.255 7:0.08 8:0.205 9:0.0895 10:0.0395 11:0.055 
-1 2:1 3:0 4:0 5:0.475 6:0.37 7:0.125 8:0.5095 9:0.2165 10:0.1125 11:0.165 
1 2:0 3:0 4:1 5:0.355 6:0.28 7:0.085 8:0.2905 9:0.095 10:0.0395 11:0.115 
-1 2:1 3:0 4:0 5:0.45 6:0.32 7:0.1 8:0.381 9:0.1705 10:0.075 11:0.115 
-1 2:1 3:0 4:0 5:0.465 6:0.355 7:0.105 8:0.4795 9:0.227 10:0.124 11:0.125 
-1 2:1 3:0 4:0 5:0.355 6:0.29 7:0.09 8:0.3275 9:0.134 10:0.086 11:0.09 
-1 2:0 3:1 4:0 5:0.45 6:0.335 7:0.105 8:0.425 9:0.1865 10:0.091 11:0.115 
1 2:0 3:0 4:1 5:0.39 6:0.295 7:0.095 8:0.203 9:0.0875 10:0.045 11:0.075 
-1 2:1 3:0 4:0 5:0.47 6:0.37 7:0.12 8:0.5795 9:0.293 10:0.227 11:0.14 
-1 2:0 3:1 4:0 5:0.46 6:0.375 7:0.12 8:0.4605 9:0.1775 10:0.11 11:0.15 
-1 2:0 3:1 4:0 5:0.525 6:0.425 7:0.16 8:0.8355 9:0.3545 10:0.2135 11:0.245 
-1 2:0 3:0 4:1 5:0.52 6:0.41 7:0.12 8:0.595 9:0.2385 10:0.111 11:0.19 
-1 2:1 3:0 4:0 5:0.405 6:0.31 7:0.1 8:0.385 9:0.173 10:0.0915 11:0.11 
-1 2:0 3:1 4:0 5:0.505 6:0.4 7:0.125 8:0.583 9:0.246 10:0.13 11:0.175 
-1 2:1 3:0 4:0 5:0.425 6:0.325 7:0.095 8:0.3785 9:0.1705 10:0.08 11:0.1 
-1 2:1 3:0 4:0 5:0.52 6:0.4 7:0.12 8:0.58 9:0.234 10:0.1315 11:0.185 
-2 2:0 3:1 4:0 5:0.575 6:0.445 7:0.14 8:0.941 9:0.3845 10:0.252 11:0.285 
-1 2:0 3:1 4:0 5:0.46 6:0.355 7:0.13 8:0.517 9:0.2205 10:0.114 11:0.165 
-1 2:1 3:0 4:0 5:0.535 6:0.435 7:0.15 8:0.725 9:0.269 10:0.1385 11:0.25 
-1 2:1 3:0 4:0 5:0.47 6:0.37 7:0.13 8:0.5225 9:0.201 10:0.133 11:0.165 
-1 2:0 3:1 4:0 5:0.435 6:0.395 7:0.105 8:0.3635 9:0.136 10:0.098 11:0.13 
-1 2:1 3:0 4:0 5:0.495 6:0.395 7:0.125 8:0.5415 9:0.2375 10:0.1345 11:0.155 
1 2:0 3:0 4:1 5:0.435 6:0.32 7:0.08 8:0.3325 9:0.1485 10:0.0635 11:0.105 
-1 2:1 3:0 4:0 5:0.425 6:0.35 7:0.105 8:0.393 9:0.13 10:0.063 11:0.165 
-2 2:0 3:1 4:0 5:0.56 6:0.43 7:0.15 8:0.8825 9:0.3465 10:0.172 11:0.31 
-1 2:1 3:0 4:0 5:0.405 6:0.305 7:0.085 8:0.2605 9:0.1145 10:0.0595 11:0.085 
1 2:0 3:0 4:1 5:0.385 6:0.295 7:0.085 8:0.2535 9:0.103 10:0.0575 11:0.085 
-1 2:0 3:1 4:0 5:0.325 6:0.26 7:0.09 8:0.1915 9:0.085 10:0.036 11:0.062 
1 2:0 3:0 4:1 5:0.35 6:0.26 7:0.095 8:0.211 9:0.086 10:0.056 11:0.068 
1 2:0 3:0 4:1 5:0.265 6:0.2 7:0.065 8:0.0975 9:0.04 10:0.0205 11:0.028 
-1 2:0 3:1 4:0 5:0.425 6:0.33 7:0.115 8:0.406 9:0.1635 10:0.081 11:0.1355 
-1 2:0 3:1 4:0 5:0.305 6:0.23 7:0.08 8:0.156 9:0.0675 10:0.0345 11:0.048 
-1 2:1 3:0 4:0 5:0.345 6:0.255 7:0.09 8:0.2005 9:0.094 10:0.0295 11:0.063 
-1 2:0 3:1 4:0 5:0.405 6:0.325 7:0.11 8:0.3555 9:0.151 10:0.063 11:0.117 
-1 2:1 3:0 4:0 5:0.375 6:0.285 7:0.095 8:0.253 9:0.096 10:0.0575 11:0.0925 
1 2:0 3:0 4:1 5:0.28 6:0.205 7:0.08 8:0.127 9:0.052 10:0.039 11:0.042 
-2 2:0 3:1 4:0 5:0.605 6:0.5 7:0.185 8:1.1185 9:0.469 10:0.2585 11:0.335 
-1 2:1 3:0 4:0 5:0.525 6:0.435 7:0.155 8:1.065 9:0.486 10:0.233 11:0.285 
-1 2:0 3:1 4:0 5:0.52 6:0.405 7:0.115 8:0.776 9:0.32 10:0.1845 11:0.22 
1 2:0 3:0 4:1 5:0.36 6:0.26 7:0.09 8:0.1785 9:0.0645 10:0.037 11:0.075 
1 2:0 3:0 4:1 5:0.315 6:0.245 7:0.085 8:0.1435 9:0.053 10:0.0475 11:0.05 
1 2:0 3:0 4:1 5:0.355 6:0.275 7:0.085 8:0.22 9:0.092 10:0.06 11:0.15 
-1 2:0 3:1 4:0 5:0.45 6:0.345 7:0.12 8:0.4165 9:0.1655 10:0.095 11:0.135 
-1 2:1 3:0 4:0 5:0.42 6:0.335 7:0.115 8:0.369 9:0.171 10:0.071 11:0.12 
-1 2:0 3:1 4:0 5:0.44 6:0.34 7:0.14 8:0.482 9:0.186 10:0.1085 11:0.16 
1 2:0 3:0 4:1 5:0.4 6:0.3 7:0.11 8:0.315 9:0.109 10:0.067 11:0.12 
1 2:0 3:0 4:1 5:0.435 6:0.34 7:0.11 8:0.3795 9:0.1495 10:0.085 11:0.12 
-1 2:1 3:0 4:0 5:0.335 6:0.25 7:0.09 8:0.181 9:0.0755 10:0.0415 11:0.06 
-1 2:1 3:0 4:0 5:0.5 6:0.405 7:0.14 8:0.6155 9:0.241 10:0.1355 11:0.205 
-1 2:1 3:0 4:0 5:0.45 6:0.35 7:0.13 8:0.46 9:0.174 10:0.111 11:0.135 
-1 2:0 3:1 4:0 5:0.415 6:0.305 7:0.13 8:0.32 9:0.1305 10:0.0755 11:0.105 
-1 2:0 3:1 4:0 5:0.49 6:0.375 7:0.15 8:0.5755 9:0.22 10:0.144 11:0.19 
-1 2:0 3:1 4:0 5:0.5 6:0.37 7:0.135 8:0.45 9:0.1715 10:0.1055 11:0.155 
-1 2:0 3:1 4:0 5:0.39 6:0.29 7:0.125 8:0.3055 9:0.121 10:0.082 11:0.09 
1 2:0 3:0 4:1 5:0.365 6:0.27 7:0.085 8:0.205 9:0.078 10:0.0485 11:0.07 
1 2:0 3:0 4:1 5:0.275 6:0.215 7:0.075 8:0.1155 9:0.0485 10:0.029 11:0.035 
1 2:0 3:0 4:1 5:0.33 6:0.255 7:0.085 8:0.1655 9:0.063 10:0.039 11:0.06 
1 2:0 3:0 4:1 5:0.305 6:0.245 7:0.075 8:0.156 9:0.0675 10:0.038 11:0.045 
1 2:0 3:0 4:1 5:0.345 6:0.27 7:0.11 8:0.2135 9:0.082 10:0.0545 11:0.07 
1 2:0 3:0 4:1 5:0.33 6:0.25 7:0.105 8:0.1715 9:0.0655 10:0.035 11:0.06 
-1 2:1 3:0 4:0 5:0.35 6:0.275 7:0.11 8:0.2925 9:0.1225 10:0.0635 11:0.0905 
-1 2:1 3:0 4:0 5:0.47 6:0.39 7:0.15 8:0.6355 9:0.2185 10:0.0885 11:0.255 
1 2:0 3:0 4:1 5:0.36 6:0.285 7:0.105 8:0.2415 9:0.0915 10:0.057 11:0.075 
-1 2:1 3:0 4:0 5:0.44 6:0.355 7:0.125 8:0.4775 9:0.132 10:0.0815 11:0.19 
-1 2:1 3:0 4:0 5:0.37 6:0.28 7:0.105 8:0.234 9:0.0905 10:0.0585 11:0.075 
-1 2:0 3:1 4:0 5:0.405 6:0.305 7:0.095 8:0.3485 9:0.1455 10:0.0895 11:0.1 
-1 2:1 3:0 4:0 5:0.37 6:0.28 7:0.1 8:0.252 9:0.1065 10:0.0595 11:0.074 
-1 2:1 3:0 4:0 5:0.335 6:0.265 7:0.105 8:0.222 9:0.0935 10:0.056 11:0.075 
1 2:0 3:0 4:1 5:0.355 6:0.275 7:0.09 8:0.251 9:0.097 10:0.053 11:0.08 
1 2:0 3:0 4:1 5:0.32 6:0.255 7:0.1 8:0.1755 9:0.073 10:0.0415 11:0.065 
-1 2:1 3:0 4:0 5:0.36 6:0.295 7:0.105 8:0.241 9:0.0865 10:0.053 11:0.095 
-1 2:0 3:1 4:0 5:0.4 6:0.325 7:0.12 8:0.3185 9:0.134 10:0.0565 11:0.095 
-1 2:0 3:1 4:0 5:0.61 6:0.495 7:0.185 8:1.153 9:0.536 10:0.2905 11:0.245 
-1 2:0 3:1 4:0 5:0.455 6:0.37 7:0.105 8:0.4925 9:0.216 10:0.1245 11:0.135 
-1 2:0 3:0 4:1 5:0.465 6:0.375 7:0.12 8:0.471 9:0.222 10:0.119 11:0.14 
1 2:0 3:0 4:1 5:0.365 6:0.295 7:0.095 8:0.25 9:0.1075 10:0.0545 11:0.08 
-1 2:0 3:1 4:0 5:0.485 6:0.365 7:0.12 8:0.5885 9:0.27 10:0.131 11:0.175 
-1 2:1 3:0 4:0 5:0.515 6:0.455 7:0.135 8:0.7225 9:0.295 10:0.1625 11:0.235 
-1 2:0 3:1 4:0 5:0.435 6:0.325 7:0.11 8:0.4335 9:0.178 10:0.0985 11:0.155 
-1 2:1 3:0 4:0 5:0.57 6:0.44 7:0.095 8:0.827 9:0.3395 10:0.2215 11:0.235 
1 2:0 3:0 4:1 5:0.335 6:0.26 7:0.1 8:0.192 9:0.0785 10:0.0585 11:0.07 
-2 2:0 3:1 4:0 5:0.56 6:0.455 7:0.19 8:0.714 9:0.283 10:0.129 11:0.275 
1 2:0 3:0 4:1 5:0.43 6:0.34 7:0.12 8:0.3575 9:0.151 10:0.0645 11:0.1045 
-1 2:1 3:0 4:0 5:0.4 6:0.29 7:0.115 8:0.2795 9:0.1115 10:0.0575 11:0.075 
1 2:0 3:0 4:1 5:0.365 6:0.26 7:0.115 8:0.218 9:0.0935 10:0.0445 11:0.07 
-1 2:0 3:1 4:0 5:0.435 6:0.335 7:0.11 8:0.38 9:0.1695 10:0.086 11:0.11 
1 2:1 3:0 4:0 5:0.29 6:0.23 7:0.075 8:0.1165 9:0.043 10:0.0255 11:0.04 
-1 2:1 3:0 4:0 5:0.445 6:0.35 7:0.115 8:0.3615 9:0.1565 10:0.0695 11:0.117 
1 2:1 3:0 4:0 5:0.255 6:0.195 7:0.065 8:0.08 9:0.0315 10:0.018 11:0.027 
1 2:1 3:0 4:0 5:0.205 6:0.155 7:0.045 8:0.0425 9:0.017 10:0.0055 11:0.0155 
1 2:1 3:0 4:0 5:0.28 6:0.21 7:0.08 8:0.1085 9:0.041 10:0.0265 11:0.0345 
-1 2:0 3:1 4:0 5:0.37 6:0.29 7:0.115 8:0.25 9:0.111 10:0.057 11:0.075 
-1 2:0 3:1 4:0 5:0.55 6:0.43 7:0.14 8:0.7135 9:0.2565 10:0.186 11:0.225 
-1 2:1 3:0 4:0 5:0.345 6:0.27 7:0.09 8:0.195 9:0.078 10:0.0455 11:0.059 
-0.7107513351209733 2:1 3:0 4:0 5:0.325 6:0.24 7:0.075 8:0.155 9:0.0475 10:0.0355 11:0.06 
1 2:1 3:0 4:0 5:0.31 6:0.225 7:0.075 8:0.1295 9:0.0455 10:0.0335 11:0.044 
1 2:1 3:0 4:0 5:0.235 6:0.17 7:0.055 8:0.0515 9:0.018 10:0.0105 11:0.0195 
-1 2:0 3:1 4:0 5:0.38 6:0.305 7:0.095 8:0.2815 9:0.1255 10:0.0525 11:0.09 
-1 2:0 3:0 4:1 5:0.475 6:0.365 7:0.115 8:0.49 9:0.223 10:0.1235 11:0.1335 
-1 2:1 3:0 4:0 5:0.38 6:0.235 7:0.1 8:0.258 9:0.1055 10:0.054 11:0.08 
-1 2:1 3:0 4:0 5:0.33 6:0.255 7:0.095 8:0.1875 9:0.0735 10:0.045 11:0.06 
-1 2:1 3:0 4:0 5:0.45 6:0.34 7:0.13 8:0.3715 9:0.1605 10:0.0795 11:0.105 
1 2:1 3:0 4:0 5:0.295 6:0.215 7:0.075 8:0.129 9:0.05 10:0.0295 11:0.04 
-1 2:0 3:1 4:0 5:0.37 6:0.275 7:0.1 8:0.2225 9:0.093 10:0.026 11:0.08 
-1 2:0 3:1 4:0 5:0.435 6:0.325 7:0.115 8:0.3915 9:0.154 10:0.094 11:0.12 
1 2:0 3:0 4:1 5:0.315 6:0.23 7:0.09 8:0.1285 9:0.043 10:0.04 11:0.04 
-1 2:1 3:0 4:0 5:0.4 6:0.3 7:0.125 8:0.417 9:0.191 10:0.09 11:0.1175 
1 2:0 3:0 4:1 5:0.28 6:0.205 7:0.055 8:0.1135 9:0.045 10:0.0275 11:0.0335 
-1 2:1 3:0 4:0 5:0.355 6:0.265 7:0.085 8:0.201 9:0.069 10:0.053 11:0.0695 
-1 2:1 3:0 4:0 5:0.35 6:0.255 7:0.08 8:0.1915 9:0.08 10:0.0385 11:0.063 
-1 2:0 3:1 4:0 5:0.36 6:0.265 7:0.09 8:0.2065 9:0.078 10:0.057 11:0.06 
-1 2:1 3:0 4:0 5:0.52 6:0.385 7:0.14 8:0.6595 9:0.2485 10:0.2035 11:0.16 
-1 2:1 3:0 4:0 5:0.345 6:0.27 7:0.095 8:0.197 9:0.0665 10:0.05 11:0.07 
-1 2:0 3:0 4:1 5:0.485 6:0.375 7:0.14 8:0.521 9:0.2 10:0.123 11:0.17 
-1 2:0 3:1 4:0 5:0.505 6:0.39 7:0.16 8:0.644 9:0.2475 10:0.2025 11:0.1635 
-1 2:1 3:0 4:0 5:0.47 6:0.37 7:0.18 8:0.51 9:0.1915 10:0.1285 11:0.1625 
-1 2:1 3:0 4:0 5:0.44 6:0.335 7:0.11 8:0.394 9:0.157 10:0.096 11:0.122 
-1 2:1 3:0 4:0 5:0.425 6:0.33 7:0.13 8:0.4405 9:0.152 10:0.0935 11:0.155 
-1 2:1 3:0 4:0 5:0.405 6:0.305 7:0.12 8:0.3185 9:0.1235 10:0.0905 11:0.095 
1 2:0 3:0 4:1 5:0.325 6:0.25 7:0.08 8:0.1735 9:0.0765 10:0.0345 11:0.049 
1 2:0 3:0 4:1 5:0.36 6:0.3 7:0.085 8:0.27 9:0.1185 10:0.064 11:0.0745 
1 2:0 3:0 4:1 5:0.365 6:0.275 7:0.135 8:0.24 9:0.108 10:0.0445 11:0.0735 
1 2:0 3:0 4:1 5:0.385 6:0.3 7:0.1 8:0.2895 9:0.1215 10:0.063 11:0.09 
1 2:0 3:0 4:1 5:0.415 6:0.32 7:0.11 8:0.3735 9:0.175 10:0.0755 11:0.109 
-1 2:0 3:0 4:1 5:0.44 6:0.365 7:0.115 8:0.501 9:0.2435 10:0.084 11:0.1465 
1 2:0 3:0 4:1 5:0.445 6:0.335 7:0.1 8:0.4895 9:0.2745 10:0.086 11:0.1105 
1 2:0 3:0 4:1 5:0.445 6:0.325 7:0.1 8:0.378 9:0.1795 10:0.1 11:0.089 
-1 2:0 3:0 4:1 5:0.45 6:0.35 7:0.13 8:0.547 9:0.245 10:0.1405 11:0.1405 
-1 2:1 3:0 4:0 5:0.47 6:0.375 7:0.12 8:0.5805 9:0.266 10:0.0935 11:0.169 
-1 2:0 3:0 4:1 5:0.475 6:0.365 7:0.125 8:0.5465 9:0.229 10:0.1185 11:0.172 
-1 2:0 3:1 4:0 5:0.48 6:0.365 7:0.135 8:0.6395 9:0.2945 10:0.113 11:0.175 
-1 2:1 3:0 4:0 5:0.49 6:0.385 7:0.125 8:0.609 9:0.3065 10:0.096 11:0.1775 
-1 2:0 3:1 4:0 5:0.495 6:0.41 7:0.125 8:0.7555 9:0.3355 10:0.129 11:0.214 
-1 2:1 3:0 4:0 5:0.5 6:0.4 7:0.125 8:0.5975 9:0.27 10:0.1275 11:0.166 
-1 2:1 3:0 4:0 5:0.505 6:0.44 7:0.14 8:0.8275 9:0.3415 10:0.1855 11:0.239 
-1 2:1 3:0 4:0 5:0.525 6:0.395 7:0.13 8:0.7635 9:0.3375 10:0.1425 11:0.225 
-1 2:1 3:0 4:0 5:0.54 6:0.405 7:0.125 8:0.891 9:0.4815 10:0.1915 11:0.202 
-1 2:0 3:1 4:0 5:0.55 6:0.43 7:0.125 8:0.923 9:0.4035 10:0.175 11:0.283 
-1 2:1 3:0 4:0 5:0.57 6:0.455 7:0.15 8:0.952 9:0.3895 10:0.2155 11:0.2745 
-1 2:0 3:1 4:0 5:0.575 6:0.465 7:0.14 8:0.958 9:0.442 10:0.1815 11:0.2705 
-2 2:0 3:1 4:0 5:0.595 6:0.48 7:0.16 8:1.2095 9:0.5225 10:0.296 11:0.32 
-2 2:1 3:0 4:0 5:0.605 6:0.455 7:0.16 8:1.1035 9:0.421 10:0.3015 11:0.325 
-1 2:1 3:0 4:0 5:0.62 6:0.5 7:0.165 8:1.307 9:0.6355 10:0.2545 11:0.315 
-2 2:1 3:0 4:0 5:0.635 6:0.51 7:0.17 8:1.3555 9:0.619 10:0.305 11:0.39 
-1 2:0 3:1 4:0 5:0.635 6:0.485 7:0.165 8:1.2945 9:0.668 10:0.2605 11:0.2715 
-1 2:0 3:1 4:0 5:0.64 6:0.51 7:0.165 8:1.486 9:0.7595 10:0.332 11:0.321 
-2 2:0 3:1 4:0 5:0.675 6:0.525 7:0.155 8:1.4785 9:0.628 10:0.3405 11:0.42 
1 2:0 3:0 4:1 5:0.315 6:0.23 7:0.07 8:0.144 9:0.053 10:0.0305 11:0.04 
1 2:0 3:0 4:1 5:0.335 6:0.25 7:0.075 8:0.1825 9:0.0705 10:0.044 11:0.055 
1 2:0 3:0 4:1 5:0.335 6:0.25 7:0.075 8:0.186 9:0.0945 10:0.038 11:0.0445 
1 2:0 3:0 4:1 5:0.37 6:0.28 7:0.095 8:0.2865 9:0.1505 10:0.069 11:0.0795 
1 2:0 3:0 4:1 5:0.41 6:0.31 7:0.09 8:0.339 9:0.155 10:0.0695 11:0.09 
1 2:0 3:0 4:1 5:0.41 6:0.305 7:0.09 8:0.3535 9:0.157 10:0.0745 11:0.1 
1 2:0 3:0 4:1 5:0.43 6:0.325 7:0.1 8:0.3645 9:0.1575 10:0.0825 11:0.105 
1 2:0 3:0 4:1 5:0.43 6:0.325 7:0.09 8:0.425 9:0.217 10:0.087 11:0.095 
-1 2:0 3:0 4:1 5:0.45 6:0.36 7:0.13 8:0.478 9:0.191 10:0.127 11:0.137 
1 2:0 3:0 4:1 5:0.45 6:0.345 7:0.11 8:0.47 9:0.2355 10:0.0855 11:0.1135 
-1 2:0 3:0 4:1 5:0.455 6:0.355 7:0.125 8:0.5325 9:0.225 10:0.126 11:0.1465 
1 2:0 3:0 4:1 5:0.46 6:0.345 7:0.105 8:0.449 9:0.196 10:0.0945 11:0.1265 
-1 2:0 3:0 4:1 5:0.465 6:0.37 7:0.115 8:0.534 9:0.261 10:0.098 11:0.143 
-1 2:0 3:0 4:1 5:0.465 6:0.345 7:0.11 8:0.4415 9:0.1755 10:0.0905 11:0.12 
-1 2:1 3:0 4:0 5:0.47 6:0.365 7:0.12 8:0.612 9:0.327 10:0.15 11:0.14 
-1 2:0 3:1 4:0 5:0.47 6:0.365 7:0.12 8:0.582 9:0.29 10:0.092 11:0.146 
-1 2:1 3:0 4:0 5:0.475 6:0.37 7:0.125 8:0.537 9:0.222 10:0.1215 11:0.15 
-1 2:1 3:0 4:0 5:0.48 6:0.365 7:0.12 8:0.6015 9:0.312 10:0.117 11:0.14 
-1 2:0 3:1 4:0 5:0.485 6:0.37 7:0.115 8:0.4785 9:0.1995 10:0.0955 11:0.129 
-1 2:1 3:0 4:0 5:0.49 6:0.385 7:0.125 8:0.649 9:0.32 10:0.124 11:0.1695 
-1 2:1 3:0 4:0 5:0.495 6:0.395 7:0.135 8:0.6335 9:0.3035 10:0.1295 11:0.1495 
-1 2:1 3:0 4:0 5:0.495 6:0.4 7:0.135 8:0.61 9:0.272 10:0.1435 11:0.144 
-1 2:0 3:0 4:1 5:0.5 6:0.385 7:0.12 8:0.56 9:0.2835 10:0.103 11:0.135 
-1 2:1 3:0 4:0 5:0.5 6:0.385 7:0.135 8:0.6425 9:0.3195 10:0.129 11:0.1535 
-1 2:1 3:0 4:0 5:0.5 6:0.4 7:0.125 8:0.6725 9:0.336 10:0.12 11:0.1825 
-1 2:1 3:0 4:0 5:0.505 6:0.41 7:0.125 8:0.642 9:0.289 10:0.133 11:0.155 
-1 2:0 3:0 4:1 5:0.505 6:0.355 7:0.125 8:0.601 9:0.25 10:0.1205 11:0.185 
-1 2:1 3:0 4:0 5:0.51 6:0.39 7:0.135 8:0.769 9:0.3935 10:0.1455 11:0.19 
-1 2:0 3:0 4:1 5:0.51 6:0.405 7:0.135 8:0.769 9:0.3655 10:0.1585 11:0.18 
-1 2:1 3:0 4:0 5:0.51 6:0.41 7:0.145 8:0.796 9:0.3865 10:0.1815 11:0.1955 
-1 2:1 3:0 4:0 5:0.515 6:0.39 7:0.155 8:0.7125 9:0.3695 10:0.137 11:0.155 
-1 2:0 3:1 4:0 5:0.525 6:0.415 7:0.14 8:0.724 9:0.3475 10:0.173 11:0.175 
-1 2:0 3:1 4:0 5:0.53 6:0.425 7:0.13 8:0.7585 9:0.325 10:0.197 11:0.205 
-1 2:0 3:1 4:0 5:0.53 6:0.425 7:0.15 8:0.8495 9:0.328 10:0.232 11:0.202 
-1 2:1 3:0 4:0 5:0.53 6:0.405 7:0.125 8:0.6515 9:0.2715 10:0.1605 11:0.186 
-1 2:0 3:1 4:0 5:0.535 6:0.4 7:0.135 8:0.8215 9:0.3935 10:0.196 11:0.205 
-1 2:1 3:0 4:0 5:0.535 6:0.43 7:0.14 8:0.7165 9:0.2855 10:0.1595 11:0.2155 
-1 2:0 3:1 4:0 5:0.55 6:0.43 7:0.14 8:0.8105 9:0.368 10:0.161 11:0.275 
-1 2:0 3:1 4:0 5:0.56 6:0.455 7:0.16 8:0.967 9:0.4525 10:0.207 11:0.274 
-1 2:0 3:1 4:0 5:0.565 6:0.4 7:0.13 8:0.6975 9:0.3075 10:0.1665 11:0.18 
-1 2:0 3:1 4:0 5:0.57 6:0.455 7:0.15 8:1.107 9:0.54 10:0.255 11:0.27 
-1 2:1 3:0 4:0 5:0.57 6:0.445 7:0.14 8:1.0635 9:0.5265 10:0.2195 11:0.24 
-1 2:1 3:0 4:0 5:0.57 6:0.46 7:0.17 8:0.9035 9:0.4075 10:0.1935 11:0.214 
-1 2:0 3:1 4:0 5:0.58 6:0.46 7:0.15 8:1.1155 9:0.5575 10:0.2255 11:0.29 
-2 2:0 3:1 4:0 5:0.58 6:0.46 7:0.18 8:1.0515 9:0.4095 10:0.2595 11:0.276 
-1 2:0 3:1 4:0 5:0.58 6:0.45 7:0.145 8:1.137 9:0.5585 10:0.22 11:0.29 
-1 2:1 3:0 4:0 5:0.58 6:0.49 7:0.13 8:1.1335 9:0.586 10:0.2565 11:0.237 
-2 2:1 3:0 4:0 5:0.59 6:0.47 7:0.16 8:1.206 9:0.479 10:0.2425 11:0.309 
-1 2:0 3:1 4:0 5:0.59 6:0.455 7:0.145 8:1.063 9:0.5155 10:0.2445 11:0.25 
-1 2:1 3:0 4:0 5:0.595 6:0.475 7:0.165 8:1.213 9:0.621 10:0.2435 11:0.274 
-1 2:0 3:1 4:0 5:0.595 6:0.46 7:0.14 8:1.0045 9:0.4655 10:0.2095 11:0.2515 
-1 2:1 3:0 4:0 5:0.595 6:0.455 7:0.15 8:1.044 9:0.518 10:0.2205 11:0.27 
-1 2:1 3:0 4:0 5:0.605 6:0.475 7:0.155 8:1.161 9:0.572 10:0.2455 11:0.275 
-1 2:0 3:1 4:0 5:0.625 6:0.5 7:0.165 8:1.288 9:0.573 10:0.3035 11:0.315 
-2 2:0 3:1 4:0 5:0.625 6:0.485 7:0.2 8:1.38 9:0.5845 10:0.302 11:0.401 
-1 2:1 3:0 4:0 5:0.63 6:0.485 7:0.155 8:1.278 9:0.637 10:0.275 11:0.31 
-2 2:1 3:0 4:0 5:0.63 6:0.48 7:0.15 8:1.1785 9:0.5185 10:0.248 11:0.3235 
-2 2:1 3:0 4:0 5:0.65 6:0.495 7:0.16 8:1.304 9:0.57 10:0.312 11:0.3725 
-1 2:0 3:1 4:0 5:0.655 6:0.46 7:0.16 8:1.494 9:0.6895 10:0.331 11:0.1825 
1 2:0 3:0 4:1 5:0.265 6:0.195 7:0.055 8:0.084 9:0.0365 10:0.0175 11:0.025 
1 2:0 3:0 4:1 5:0.405 6:0.3 7:0.11 8:0.32 9:0.172 10:0.044 11:0.093 
1 2:0 3:0 4:1 5:0.42 6:0.3 7:0.105 8:0.316 9:0.1255 10:0.07 11:0.1035 
1 2:0 3:0 4:1 5:0.42 6:0.32 7:0.11 8:0.3625 9:0.174 10:0.0635 11:0.105 
1 2:0 3:0 4:1 5:0.425 6:0.325 7:0.115 8:0.3685 9:0.162 10:0.0865 11:0.1045 
-1 2:1 3:0 4:0 5:0.43 6:0.335 7:0.12 8:0.397 9:0.1985 10:0.0865 11:0.1035 
1 2:0 3:0 4:1 5:0.445 6:0.345 7:0.105 8:0.409 9:0.1675 10:0.1015 11:0.117 
1 2:0 3:0 4:1 5:0.445 6:0.34 7:0.145 8:0.434 9:0.1945 10:0.0905 11:0.13 
1 2:0 3:0 4:1 5:0.445 6:0.335 7:0.11 8:0.411 9:0.1985 10:0.0935 11:0.109 
-1 2:0 3:0 4:1 5:0.45 6:0.365 7:0.125 8:0.462 9:0.2135 10:0.0985 11:0.1315 
1 2:0 3:0 4:1 5:0.45 6:0.33 7:0.105 8:0.3715 9:0.1865 10:0.0785 11:0.0975 
1 2:0 3:0 4:1 5:0.46 6:0.35 7:0.115 8:0.4155 9:0.18 10:0.098 11:0.1175 
-1 2:1 3:0 4:0 5:0.47 6:0.36 7:0.105 8:0.544 9:0.27 10:0.1395 11:0.129 
1 2:0 3:0 4:1 5:0.475 6:0.35 7:0.1 8:0.4545 9:0.2165 10:0.111 11:0.115 
-1 2:0 3:0 4:1 5:0.48 6:0.38 7:0.125 8:0.6245 9:0.3395 10:0.1085 11:0.1665 
-1 2:1 3:0 4:0 5:0.49 6:0.465 7:0.125 8:0.5225 9:0.235 10:0.13 11:0.141 
-1 2:0 3:0 4:1 5:0.5 6:0.375 7:0.14 8:0.5495 9:0.248 10:0.112 11:0.1585 
-1 2:0 3:0 4:1 5:0.5 6:0.375 7:0.12 8:0.542 9:0.215 10:0.116 11:0.17 
-1 2:0 3:0 4:1 5:0.5 6:0.38 7:0.125 8:0.519 9:0.2485 10:0.1135 11:0.134 
-1 2:0 3:0 4:1 5:0.51 6:0.405 7:0.125 8:0.6795 9:0.3465 10:0.1395 11:0.182 
-1 2:0 3:0 4:1 5:0.51 6:0.4 7:0.125 8:0.5575 9:0.2615 10:0.1195 11:0.1525 
-1 2:0 3:0 4:1 5:0.515 6:0.385 7:0.125 8:0.6115 9:0.3175 10:0.1265 11:0.15 
-1 2:1 3:0 4:0 5:0.52 6:0.4 7:0.145 8:0.7765 9:0.3525 10:0.1845 11:0.185 
-1 2:0 3:0 4:1 5:0.52 6:0.38 7:0.125 8:0.5545 9:0.288 10:0.1295 11:0.167 
-1 2:0 3:1 4:0 5:0.52 6:0.46 7:0.15 8:1.019 9:0.523 10:0.1985 11:0.254 
-1 2:0 3:0 4:1 5:0.525 6:0.4 7:0.13 8:0.6455 9:0.325 10:0.1245 11:0.17 
-1 2:0 3:0 4:1 5:0.525 6:0.4 7:0.14 8:0.601 9:0.2625 10:0.1285 11:0.1835 
-1 2:1 3:0 4:0 5:0.525 6:0.405 7:0.12 8:0.7555 9:0.3755 10:0.1555 11:0.201 
-1 2:0 3:0 4:1 5:0.53 6:0.4 7:0.125 8:0.617 9:0.279 10:0.127 11:0.19 
-1 2:0 3:0 4:1 5:0.535 6:0.39 7:0.125 8:0.599 9:0.2595 10:0.149 11:0.169 
-1 2:1 3:0 4:0 5:0.545 6:0.39 7:0.135 8:0.7835 9:0.4225 10:0.1815 11:0.156 
-1 2:1 3:0 4:0 5:0.545 6:0.415 7:0.14 8:0.82 9:0.4615 10:0.127 11:0.218 
-1 2:0 3:1 4:0 5:0.55 6:0.415 7:0.135 8:0.8145 9:0.427 10:0.1855 11:0.175 
-1 2:0 3:1 4:0 5:0.55 6:0.43 7:0.15 8:0.84 9:0.395 10:0.195 11:0.223 
-1 2:1 3:0 4:0 5:0.56 6:0.445 7:0.16 8:0.8965 9:0.42 10:0.2175 11:0.2215 
-1 2:0 3:1 4:0 5:0.56 6:0.44 7:0.155 8:0.6405 9:0.336 10:0.1765 11:0.245 
-1 2:1 3:0 4:0 5:0.565 6:0.455 7:0.15 8:0.9595 9:0.4565 10:0.2395 11:0.23 
-1 2:1 3:0 4:0 5:0.565 6:0.435 7:0.15 8:0.99 9:0.5795 10:0.1825 11:0.206 
-1 2:0 3:1 4:0 5:0.565 6:0.45 7:0.175 8:1.0095 9:0.447 10:0.2375 11:0.2645 
-1 2:1 3:0 4:0 5:0.57 6:0.46 7:0.15 8:1.0375 9:0.5415 10:0.2035 11:0.25 
-1 2:0 3:1 4:0 5:0.57 6:0.445 7:0.145 8:0.8775 9:0.412 10:0.217 11:0.22 
-1 2:0 3:0 4:1 5:0.57 6:0.44 7:0.15 8:0.755 9:0.3425 10:0.16 11:0.224 
-1 2:0 3:1 4:0 5:0.575 6:0.46 7:0.145 8:0.9945 9:0.466 10:0.229 11:0.265 
-1 2:1 3:0 4:0 5:0.575 6:0.435 7:0.14 8:0.8455 9:0.401 10:0.191 11:0.222 
-1 2:0 3:1 4:0 5:0.575 6:0.47 7:0.165 8:0.869 9:0.435 10:0.197 11:0.238 
-1 2:1 3:0 4:0 5:0.575 6:0.445 7:0.145 8:0.847 9:0.415 10:0.1945 11:0.22 
-1 2:1 3:0 4:0 5:0.58 6:0.455 7:0.195 8:1.859 9:0.945 10:0.426 11:0.441 
-1 2:1 3:0 4:0 5:0.58 6:0.445 7:0.135 8:0.814 9:0.3775 10:0.1915 11:0.22 
-1 2:1 3:0 4:0 5:0.58 6:0.45 7:0.14 8:0.9615 9:0.486 10:0.1815 11:0.253 
-1 2:1 3:0 4:0 5:0.58 6:0.45 7:0.145 8:1.0025 9:0.547 10:0.1975 11:0.2295 
-1 2:1 3:0 4:0 5:0.585 6:0.465 7:0.16 8:0.9555 9:0.4595 10:0.236 11:0.265 
-1 2:1 3:0 4:0 5:0.6 6:0.455 7:0.17 8:1.1915 9:0.696 10:0.2395 11:0.24 
-1 2:0 3:1 4:0 5:0.6 6:0.465 7:0.15 8:1.1025 9:0.5455 10:0.262 11:0.25 
-1 2:1 3:0 4:0 5:0.605 6:0.475 7:0.14 8:1.1175 9:0.555 10:0.257 11:0.274 
-2 2:0 3:1 4:0 5:0.605 6:0.475 7:0.165 8:1.056 9:0.433 10:0.2195 11:0.357 
-1 2:1 3:0 4:0 5:0.61 6:0.485 7:0.145 8:1.3305 9:0.783 10:0.2255 11:0.2865 
-1 2:1 3:0 4:0 5:0.61 6:0.47 7:0.165 8:1.052 9:0.498 10:0.242 11:0.267 
-1 2:0 3:1 4:0 5:0.615 6:0.465 7:0.15 8:0.923 9:0.4615 10:0.1825 11:0.2415 
-2 2:0 3:1 4:0 5:0.615 6:0.475 7:0.155 8:1.027 9:0.447 10:0.25 11:0.285 
-1 2:0 3:1 4:0 5:0.62 6:0.48 7:0.16 8:1.1125 9:0.5635 10:0.2445 11:0.281 
-1 2:1 3:0 4:0 5:0.625 6:0.48 7:0.185 8:1.2065 9:0.587 10:0.29 11:0.286 
-1 2:0 3:1 4:0 5:0.635 6:0.495 7:0.015 8:1.1565 9:0.5115 10:0.308 11:0.2885 
-2 2:1 3:0 4:0 5:0.665 6:0.525 7:0.16 8:1.363 9:0.629 10:0.279 11:0.34 
-2 2:0 3:0 4:1 5:0.665 6:0.5 7:0.17 8:1.2975 9:0.6035 10:0.291 11:0.3595 
-2 2:0 3:1 4:0 5:0.67 6:0.505 7:0.205 8:1.3645 9:0.6075 10:0.3025 11:0.353 
-2 2:0 3:1 4:0 5:0.69 6:0.54 7:0.155 8:1.454 9:0.624 10:0.3105 11:0.39 
-1 2:0 3:1 4:0 5:0.69 6:0.53 7:0.17 8:1.5535 9:0.7945 10:0.3485 11:0.3695 
-1 2:1 3:0 4:0 5:0.7 6:0.565 7:0.18 8:1.751 9:0.895 10:0.3355 11:0.446 
-1 2:0 3:1 4:0 5:0.7 6:0.525 7:0.19 8:1.6465 9:0.8545 10:0.307 11:0.3995 
-1 2:0 3:1 4:0 5:0.705 6:0.55 7:0.17 8:1.219 9:0.6395 10:0.236 11:0.301 
1 2:0 3:0 4:1 5:0.33 6:0.25 7:0.095 8:0.2085 9:0.102 10:0.0395 11:0.052 
1 2:0 3:0 4:1 5:0.335 6:0.245 7:0.09 8:0.2015 9:0.096 10:0.0405 11:0.048 
1 2:0 3:0 4:1 5:0.365 6:0.265 7:0.085 8:0.213 9:0.0945 10:0.049 11:0.06 
1 2:0 3:0 4:1 5:0.37 6:0.29 7:0.09 8:0.2445 9:0.089 10:0.0655 11:0.075 
1 2:0 3:0 4:1 5:0.375 6:0.28 7:0.08 8:0.2025 9:0.0825 10:0.048 11:0.065 
1 2:0 3:0 4:1 5:0.38 6:0.27 7:0.08 8:0.2105 9:0.0865 10:0.042 11:0.07 
1 2:0 3:0 4:1 5:0.385 6:0.29 7:0.09 8:0.2615 9:0.111 10:0.0595 11:0.0745 
1 2:0 3:0 4:1 5:0.385 6:0.3 7:0.095 8:0.302 9:0.152 10:0.0615 11:0.0735 
1 2:0 3:0 4:1 5:0.39 6:0.3 7:0.095 8:0.3265 9:0.1665 10:0.0575 11:0.089 
1 2:0 3:0 4:1 5:0.425 6:0.325 7:0.11 8:0.3335 9:0.173 10:0.045 11:0.1 
1 2:0 3:0 4:1 5:0.425 6:0.32 7:0.1 8:0.3055 9:0.126 10:0.06 11:0.106 
1 2:0 3:0 4:1 5:0.425 6:0.31 7:0.09 8:0.301 9:0.1385 10:0.065 11:0.08 
1 2:0 3:0 4:1 5:0.43 6:0.315 7:0.095 8:0.378 9:0.175 10:0.08 11:0.1045 
1 2:0 3:0 4:1 5:0.44 6:0.34 7:0.12 8:0.438 9:0.2115 10:0.083 11:0.12 
1 2:0 3:0 4:1 5:0.45 6:0.33 7:0.105 8:0.448 9:0.208 10:0.089 11:0.12 
1 2:0 3:0 4:1 5:0.455 6:0.345 7:0.105 8:0.4005 9:0.164 10:0.0755 11:0.126 
-1 2:0 3:1 4:0 5:0.455 6:0.365 7:0.115 8:0.4305 9:0.184 10:0.108 11:0.1245 
1 2:0 3:0 4:1 5:0.455 6:0.33 7:0.1 8:0.372 9:0.358 10:0.0775 11:0.11 
1 2:0 3:0 4:1 5:0.46 6:0.36 7:0.105 8:0.466 9:0.2225 10:0.099 11:0.11 
1 2:0 3:0 4:1 5:0.46 6:0.35 7:0.105 8:0.3705 9:0.1575 10:0.077 11:0.114 
-1 2:0 3:1 4:0 5:0.46 6:0.365 7:0.125 8:0.4785 9:0.206 10:0.1045 11:0.141 
1 2:0 3:0 4:1 5:0.47 6:0.365 7:0.1 8:0.411 9:0.175 10:0.0855 11:0.135 
-1 2:0 3:0 4:1 5:0.47 6:0.355 7:0.18 8:0.48 9:0.2055 10:0.105 11:0.1505 
1 2:0 3:0 4:1 5:0.47 6:0.355 7:0.12 8:0.393 9:0.167 10:0.0885 11:0.115 
-1 2:0 3:0 4:1 5:0.475 6:0.355 7:0.1 8:0.5035 9:0.2535 10:0.091 11:0.14 
-1 2:0 3:0 4:1 5:0.475 6:0.38 7:0.12 8:0.441 9:0.1785 10:0.0885 11:0.1505 
-1 2:0 3:0 4:1 5:0.475 6:0.36 7:0.11 8:0.492 9:0.211 10:0.11 11:0.15 
-1 2:0 3:0 4:1 5:0.48 6:0.37 7:0.125 8:0.5435 9:0.244 10:0.101 11:0.165 
-1 2:0 3:0 4:1 5:0.48 6:0.355 7:0.115 8:0.4725 9:0.2065 10:0.112 11:0.132 
-1 2:0 3:0 4:1 5:0.495 6:0.355 7:0.12 8:0.4965 9:0.214 10:0.1045 11:0.1495 
-1 2:0 3:0 4:1 5:0.495 6:0.38 7:0.13 8:0.5125 9:0.2185 10:0.116 11:0.16 
-1 2:1 3:0 4:0 5:0.495 6:0.395 7:0.12 8:0.553 9:0.224 10:0.1375 11:0.167 
-1 2:1 3:0 4:0 5:0.5 6:0.42 7:0.135 8:0.6765 9:0.302 10:0.1415 11:0.2065 
-1 2:0 3:0 4:1 5:0.5 6:0.41 7:0.14 8:0.6615 9:0.2585 10:0.1625 11:0.196 
-1 2:0 3:0 4:1 5:0.5 6:0.375 7:0.125 8:0.5695 9:0.259 10:0.124 11:0.157 
-1 2:0 3:0 4:1 5:0.5 6:0.395 7:0.14 8:0.6215 9:0.2925 10:0.1205 11:0.195 
-1 2:0 3:0 4:1 5:0.505 6:0.405 7:0.13 8:0.6015 9:0.3015 10:0.11 11:0.18 
-1 2:0 3:0 4:1 5:0.505 6:0.395 7:0.105 8:0.551 9:0.248 10:0.103 11:0.171 
-1 2:0 3:0 4:1 5:0.515 6:0.38 7:0.12 8:0.625 9:0.3265 10:0.1295 11:0.16 
-1 2:0 3:0 4:1 5:0.515 6:0.4 7:0.135 8:0.6965 9:0.32 10:0.1255 11:0.175 
-1 2:0 3:0 4:1 5:0.52 6:0.395 7:0.125 8:0.663 9:0.3005 10:0.131 11:0.1905 
-1 2:0 3:0 4:1 5:0.525 6:0.4 7:0.125 8:0.6965 9:0.369 10:0.1385 11:0.164 
-1 2:0 3:0 4:1 5:0.53 6:0.415 7:0.11 8:0.5745 9:0.2525 10:0.1235 11:0.189 
-1 2:0 3:0 4:1 5:0.53 6:0.425 7:0.13 8:0.7675 9:0.419 10:0.1205 11:0.21 
-1 2:0 3:0 4:1 5:0.535 6:0.4 7:0.135 8:0.6025 9:0.2895 10:0.121 11:0.154 
-1 2:0 3:1 4:0 5:0.535 6:0.41 7:0.13 8:0.7145 9:0.335 10:0.144 11:0.2075 
-1 2:1 3:0 4:0 5:0.535 6:0.435 7:0.15 8:0.717 9:0.3475 10:0.1445 11:0.194 
-1 2:0 3:0 4:1 5:0.54 6:0.42 7:0.14 8:0.7265 9:0.3205 10:0.1445 11:0.229 
-1 2:0 3:0 4:1 5:0.545 6:0.435 7:0.135 8:0.7715 9:0.372 10:0.148 11:0.227 
-1 2:0 3:0 4:1 5:0.545 6:0.405 7:0.135 8:0.5945 9:0.27 10:0.1185 11:0.185 
-1 2:0 3:1 4:0 5:0.55 6:0.405 7:0.125 8:0.651 9:0.2965 10:0.137 11:0.2 
-1 2:1 3:0 4:0 5:0.55 6:0.43 7:0.15 8:0.8745 9:0.413 10:0.1905 11:0.248 
-1 2:0 3:0 4:1 5:0.55 6:0.425 7:0.135 8:0.7305 9:0.3325 10:0.1545 11:0.215 
-1 2:1 3:0 4:0 5:0.555 6:0.44 7:0.14 8:0.8705 9:0.407 10:0.156 11:0.255 
-1 2:0 3:0 4:1 5:0.56 6:0.425 7:0.135 8:0.8205 9:0.3715 10:0.185 11:0.236 
-1 2:0 3:1 4:0 5:0.565 6:0.45 7:0.145 8:0.8495 9:0.4215 10:0.1685 11:0.225 
-1 2:0 3:0 4:1 5:0.57 6:0.45 7:0.135 8:0.794 9:0.3815 10:0.1415 11:0.245 
-2 2:0 3:1 4:0 5:0.57 6:0.46 7:0.135 8:0.9795 9:0.397 10:0.2525 11:0.2655 
-1 2:1 3:0 4:0 5:0.57 6:0.435 7:0.125 8:0.8965 9:0.383 10:0.1835 11:0.275 
-1 2:0 3:1 4:0 5:0.575 6:0.48 7:0.165 8:1.078 9:0.511 10:0.2095 11:0.306 
-1 2:1 3:0 4:0 5:0.585 6:0.45 7:0.18 8:0.7995 9:0.336 10:0.1855 11:0.237 
-1 2:1 3:0 4:0 5:0.59 6:0.47 7:0.18 8:1.187 9:0.5985 10:0.227 11:0.31 
-2 2:0 3:1 4:0 5:0.605 6:0.475 7:0.175 8:1.076 9:0.463 10:0.2195 11:0.335 
-1 2:0 3:0 4:1 5:0.61 6:0.465 7:0.15 8:0.9605 9:0.4495 10:0.1725 11:0.286 
-2 2:1 3:0 4:0 5:0.615 6:0.48 7:0.175 8:1.118 9:0.446 10:0.3195 11:0.3 
-1 2:1 3:0 4:0 5:0.625 6:0.455 7:0.17 8:1.082 9:0.4955 10:0.2345 11:0.315 
-1 2:0 3:1 4:0 5:0.625 6:0.515 7:0.16 8:1.264 9:0.5715 10:0.326 11:0.321 
-1 2:0 3:1 4:0 5:0.63 6:0.485 7:0.17 8:1.3205 9:0.5945 10:0.345 11:0.345 
-1 2:0 3:1 4:0 5:0.635 6:0.5 7:0.165 8:1.4595 9:0.705 10:0.2645 11:0.39 
-1 2:0 3:1 4:0 5:0.635 6:0.495 7:0.175 8:1.211 9:0.707 10:0.2725 11:0.323 
-2 2:1 3:0 4:0 5:0.65 6:0.51 7:0.19 8:1.542 9:0.7155 10:0.3735 11:0.375 
-2 2:1 3:0 4:0 5:0.685 6:0.545 7:0.205 8:1.7925 9:0.8145 10:0.416 11:0.461 
1 2:0 3:0 4:1 5:0.365 6:0.265 7:0.135 8:0.2215 9:0.105 10:0.047 11:0.0605 
1 2:0 3:0 4:1 5:0.375 6:0.28 7:0.085 8:0.3155 9:0.187 10:0.046 11:0.067 
1 2:0 3:0 4:1 5:0.4 6:0.3 7:0.09 8:0.2815 9:0.1185 10:0.061 11:0.08 
1 2:0 3:0 4:1 5:0.405 6:0.31 7:0.095 8:0.3425 9:0.1785 10:0.064 11:0.0855 
1 2:0 3:0 4:1 5:0.405 6:0.29 7:0.09 8:0.2825 9:0.112 10:0.075 11:0.0815 
-1 2:1 3:0 4:0 5:0.415 6:0.315 7:0.115 8:0.3895 9:0.2015 10:0.065 11:0.103 
1 2:0 3:0 4:1 5:0.44 6:0.365 7:0.11 8:0.4465 9:0.213 10:0.089 11:0.1135 
1 2:0 3:0 4:1 5:0.455 6:0.335 7:0.135 8:0.501 9:0.274 10:0.0995 11:0.1065 
1 2:0 3:0 4:1 5:0.46 6:0.355 7:0.11 8:0.436 9:0.1975 10:0.096 11:0.125 
1 2:0 3:0 4:1 5:0.47 6:0.345 7:0.14 8:0.4615 9:0.229 10:0.1105 11:0.116 
-1 2:0 3:0 4:1 5:0.475 6:0.365 7:0.115 8:0.459 9:0.2175 10:0.093 11:0.1165 
-1 2:0 3:1 4:0 5:0.475 6:0.365 7:0.115 8:0.566 9:0.281 10:0.117 11:0.1335 
-1 2:0 3:0 4:1 5:0.48 6:0.36 7:0.125 8:0.542 9:0.2795 10:0.1025 11:0.147 
-1 2:0 3:1 4:0 5:0.495 6:0.38 7:0.12 8:0.573 9:0.2655 10:0.1285 11:0.144 
-1 2:1 3:0 4:0 5:0.505 6:0.385 7:0.105 8:0.5525 9:0.239 10:0.1245 11:0.1555 
-1 2:0 3:1 4:0 5:0.505 6:0.38 7:0.135 8:0.6855 9:0.361 10:0.1565 11:0.161 
-1 2:0 3:0 4:1 5:0.515 6:0.395 7:0.125 8:0.556 9:0.2695 10:0.096 11:0.17 
-1 2:1 3:0 4:0 5:0.515 6:0.425 7:0.145 8:0.9365 9:0.497 10:0.181 11:0.2185 
-1 2:0 3:0 4:1 5:0.515 6:0.4 7:0.125 8:0.5625 9:0.25 10:0.1245 11:0.17 
-1 2:1 3:0 4:0 5:0.525 6:0.4 7:0.14 8:0.7205 9:0.3685 10:0.145 11:0.1735 
-1 2:0 3:0 4:1 5:0.53 6:0.43 7:0.13 8:0.7045 9:0.346 10:0.1415 11:0.189 
-1 2:0 3:1 4:0 5:0.545 6:0.41 7:0.14 8:0.7405 9:0.3565 10:0.1775 11:0.203 
-1 2:0 3:1 4:0 5:0.55 6:0.43 7:0.14 8:0.84 9:0.375 10:0.218 11:0.1945 
-1 2:1 3:0 4:0 5:0.55 6:0.425 7:0.16 8:0.793 9:0.343 10:0.2035 11:0.215 
-1 2:0 3:1 4:0 5:0.56 6:0.43 7:0.15 8:0.8745 9:0.453 10:0.161 11:0.22 
-1 2:0 3:1 4:0 5:0.56 6:0.435 7:0.15 8:0.8715 9:0.4755 10:0.1835 11:0.1835 
-1 2:1 3:0 4:0 5:0.57 6:0.445 7:0.15 8:0.9875 9:0.504 10:0.207 11:0.249 
-1 2:1 3:0 4:0 5:0.575 6:0.46 7:0.165 8:0.9155 9:0.4005 10:0.2465 11:0.2385 
-1 2:0 3:1 4:0 5:0.58 6:0.435 7:0.14 8:0.953 9:0.475 10:0.2165 11:0.2095 
-1 2:1 3:0 4:0 5:0.585 6:0.455 7:0.15 8:0.906 9:0.4095 10:0.23 11:0.2335 
-1 2:1 3:0 4:0 5:0.59 6:0.44 7:0.15 8:0.8725 9:0.387 10:0.215 11:0.245 
-1 2:0 3:1 4:0 5:0.59 6:0.46 7:0.145 8:0.9905 9:0.453 10:0.2205 11:0.275 
-1 2:0 3:1 4:0 5:0.595 6:0.455 7:0.16 8:1.04 9:0.452 10:0.2655 11:0.288 
-1 2:1 3:0 4:0 5:0.6 6:0.465 7:0.2 8:1.259 9:0.6405 10:0.1985 11:0.357 
-3 2:0 3:1 4:0 5:0.605 6:0.485 7:0.16 8:1.201 9:0.417 10:0.2875 11:0.38 
-1 2:0 3:0 4:1 5:0.615 6:0.475 7:0.13 8:0.8425 9:0.353 10:0.1915 11:0.251 
-1 2:0 3:1 4:0 5:0.62 6:0.435 7:0.155 8:1.012 9:0.477 10:0.236 11:0.275 
-2 2:1 3:0 4:0 5:0.62 6:0.48 7:0.165 8:1.0725 9:0.4815 10:0.235 11:0.312 
-1 2:1 3:0 4:0 5:0.63 6:0.47 7:0.145 8:1.1005 9:0.52 10:0.26 11:0.276 
-2 2:1 3:0 4:0 5:0.63 6:0.455 7:0.15 8:1.1315 9:0.481 10:0.2745 11:0.305 
-2 2:1 3:0 4:0 5:0.635 6:0.51 7:0.185 8:1.308 9:0.544 10:0.318 11:0.377 
-2 2:0 3:1 4:0 5:0.64 6:0.515 7:0.205 8:1.5335 9:0.6635 10:0.3345 11:0.4025 
-1 2:0 3:1 4:0 5:0.65 6:0.5 7:0.16 8:1.3825 9:0.702 10:0.304 11:0.3195 
1 2:0 3:0 4:1 5:0.355 6:0.26 7:0.09 8:0.1985 9:0.0715 10:0.0495 11:0.058 
1 2:0 3:0 4:1 5:0.36 6:0.27 7:0.095 8:0.2 9:0.073 10:0.056 11:0.061 
1 2:0 3:0 4:1 5:0.36 6:0.275 7:0.075 8:0.2205 9:0.0985 10:0.044 11:0.066 
1 2:0 3:0 4:1 5:0.36 6:0.265 7:0.075 8:0.1845 9:0.083 10:0.0365 11:0.055 
1 2:0 3:0 4:1 5:0.365 6:0.27 7:0.085 8:0.2225 9:0.0935 10:0.0525 11:0.066 
1 2:0 3:0 4:1 5:0.38 6:0.285 7:0.095 8:0.243 9:0.0895 10:0.0665 11:0.075 
1 2:0 3:0 4:1 5:0.385 6:0.29 7:0.09 8:0.2365 9:0.1 10:0.0505 11:0.076 
1 2:0 3:0 4:1 5:0.385 6:0.28 7:0.095 8:0.257 9:0.119 10:0.059 11:0.07 
1 2:0 3:0 4:1 5:0.385 6:0.3 7:0.09 8:0.308 9:0.1525 10:0.056 11:0.0835 
1 2:0 3:0 4:1 5:0.39 6:0.3 7:0.09 8:0.252 9:0.1065 10:0.053 11:0.08 
1 2:0 3:0 4:1 5:0.41 6:0.3 7:0.09 8:0.28 9:0.141 10:0.0575 11:0.075 
1 2:0 3:0 4:1 5:0.415 6:0.325 7:0.1 8:0.313 9:0.139 10:0.0625 11:0.0965 
1 2:0 3:0 4:1 5:0.425 6:0.325 7:0.11 8:0.317 9:0.135 10:0.048 11:0.09 
1 2:0 3:0 4:1 5:0.425 6:0.315 7:0.08 8:0.303 9:0.131 10:0.0585 11:0.095 
1 2:0 3:0 4:1 5:0.45 6:0.34 7:0.095 8:0.3245 9:0.1385 10:0.064 11:0.105 
1 2:0 3:0 4:1 5:0.45 6:0.335 7:0.11 8:0.4195 9:0.181 10:0.085 11:0.1345 
1 2:0 3:0 4:1 5:0.46 6:0.355 7:0.11 8:0.4255 9:0.2015 10:0.081 11:0.13 
-1 2:0 3:0 4:1 5:0.465 6:0.37 7:0.12 8:0.4365 9:0.188 10:0.0815 11:0.147 
-1 2:0 3:0 4:1 5:0.47 6:0.355 7:0.125 8:0.499 9:0.21 10:0.0985 11:0.155 
-1 2:0 3:0 4:1 5:0.475 6:0.36 7:0.145 8:0.6325 9:0.2825 10:0.137 11:0.19 
-1 2:1 3:0 4:0 5:0.475 6:0.36 7:0.1 8:0.4285 9:0.1965 10:0.099 11:0.112 
-1 2:0 3:0 4:1 5:0.475 6:0.36 7:0.125 8:0.4905 9:0.205 10:0.1305 11:0.125 
-1 2:0 3:0 4:1 5:0.48 6:0.37 7:0.12 8:0.536 9:0.251 10:0.114 11:0.15 
-1 2:0 3:0 4:1 5:0.495 6:0.37 7:0.125 8:0.4715 9:0.2075 10:0.091 11:0.15 
-1 2:0 3:0 4:1 5:0.495 6:0.4 7:0.105 8:0.602 9:0.2505 10:0.1265 11:0.19 
-1 2:0 3:0 4:1 5:0.5 6:0.4 7:0.12 8:0.616 9:0.261 10:0.143 11:0.1935 
-1 2:0 3:0 4:1 5:0.5 6:0.375 7:0.14 8:0.559 9:0.2375 10:0.135 11:0.169 
-1 2:0 3:0 4:1 5:0.51 6:0.395 7:0.13 8:0.6025 9:0.281 10:0.143 11:0.162 
-1 2:0 3:0 4:1 5:0.515 6:0.36 7:0.125 8:0.4725 9:0.1815 10:0.125 11:0.138 
-1 2:0 3:0 4:1 5:0.515 6:0.395 7:0.125 8:0.6635 9:0.32 10:0.14 11:0.17 
-1 2:0 3:0 4:1 5:0.515 6:0.39 7:0.125 8:0.5705 9:0.238 10:0.1265 11:0.185 
-1 2:0 3:0 4:1 5:0.52 6:0.39 7:0.13 8:0.5545 9:0.2355 10:0.1095 11:0.1895 
-1 2:1 3:0 4:0 5:0.525 6:0.415 7:0.145 8:0.845 9:0.3525 10:0.1635 11:0.2875 
-1 2:0 3:0 4:1 5:0.525 6:0.39 7:0.12 8:0.664 9:0.3115 10:0.147 11:0.178 
-1 2:0 3:0 4:1 5:0.525 6:0.38 7:0.135 8:0.615 9:0.261 10:0.159 11:0.175 
-1 2:0 3:0 4:1 5:0.525 6:0.4 7:0.14 8:0.654 9:0.305 10:0.16 11:0.169 
-1 2:1 3:0 4:0 5:0.525 6:0.4 7:0.155 8:0.707 9:0.282 10:0.1605 11:0.225 
-1 2:0 3:0 4:1 5:0.53 6:0.42 7:0.12 8:0.5965 9:0.2555 10:0.141 11:0.177 
-1 2:0 3:0 4:1 5:0.53 6:0.4 7:0.145 8:0.555 9:0.1935 10:0.1305 11:0.195 
-1 2:0 3:0 4:1 5:0.535 6:0.4 7:0.13 8:0.657 9:0.2835 10:0.162 11:0.175 
-1 2:0 3:0 4:1 5:0.54 6:0.43 7:0.17 8:0.836 9:0.3725 10:0.1815 11:0.24 
-1 2:0 3:0 4:1 5:0.54 6:0.43 7:0.14 8:0.8195 9:0.3935 10:0.1725 11:0.2295 
-1 2:0 3:0 4:1 5:0.54 6:0.42 7:0.14 8:0.6275 9:0.2505 10:0.1175 11:0.235 
-1 2:0 3:0 4:1 5:0.54 6:0.425 7:0.135 8:0.686 9:0.3475 10:0.1545 11:0.213 
-1 2:0 3:0 4:1 5:0.545 6:0.375 7:0.12 8:0.543 9:0.2375 10:0.1155 11:0.1725 
-1 2:0 3:0 4:1 5:0.545 6:0.42 7:0.125 8:0.717 9:0.358 10:0.112 11:0.22 
-1 2:0 3:0 4:1 5:0.55 6:0.425 7:0.15 8:0.639 9:0.269 10:0.1345 11:0.217 
-1 2:0 3:0 4:1 5:0.55 6:0.425 7:0.15 8:0.7665 9:0.339 10:0.176 11:0.21 
-1 2:0 3:0 4:1 5:0.555 6:0.395 7:0.13 8:0.5585 9:0.222 10:0.1245 11:0.17 
-1 2:0 3:0 4:1 5:0.555 6:0.435 7:0.14 8:0.765 9:0.3945 10:0.15 11:0.206 
-1 2:0 3:0 4:1 5:0.56 6:0.44 7:0.13 8:0.7235 9:0.349 10:0.149 11:0.2 
-1 2:0 3:0 4:1 5:0.565 6:0.42 7:0.155 8:0.743 9:0.31 10:0.186 11:0.231 
-1 2:1 3:0 4:0 5:0.565 6:0.44 7:0.125 8:0.802 9:0.3595 10:0.1825 11:0.215 
-1 2:0 3:1 4:0 5:0.57 6:0.45 7:0.135 8:0.7805 9:0.3345 10:0.185 11:0.21 
-1 2:1 3:0 4:0 5:0.57 6:0.45 7:0.14 8:0.795 9:0.3385 10:0.148 11:0.245 
-1 2:0 3:0 4:1 5:0.57 6:0.445 7:0.155 8:0.867 9:0.3705 10:0.1705 11:0.28 
-1 2:1 3:0 4:0 5:0.575 6:0.455 7:0.165 8:0.867 9:0.3765 10:0.1805 11:0.268 
-1 2:0 3:0 4:1 5:0.575 6:0.45 7:0.125 8:0.78 9:0.3275 10:0.188 11:0.235 
-1 2:0 3:0 4:1 5:0.575 6:0.445 7:0.17 8:0.8015 9:0.3475 10:0.1465 11:0.25 
-2 2:0 3:1 4:0 5:0.575 6:0.435 7:0.15 8:1.0305 9:0.4605 10:0.218 11:0.36 
-1 2:0 3:1 4:0 5:0.58 6:0.435 7:0.15 8:0.834 9:0.428 10:0.1515 11:0.23 
-1 2:0 3:0 4:1 5:0.58 6:0.445 7:0.125 8:0.7095 9:0.303 10:0.1405 11:0.235 
-1 2:0 3:1 4:0 5:0.595 6:0.435 7:0.15 8:0.9 9:0.4175 10:0.17 11:0.265 
-2 2:0 3:1 4:0 5:0.6 6:0.46 7:0.155 8:0.9735 9:0.427 10:0.2045 11:0.3 
-1 2:0 3:1 4:0 5:0.6 6:0.475 7:0.15 8:1.13 9:0.575 10:0.196 11:0.305 
-1 2:1 3:0 4:0 5:0.6 6:0.48 7:0.165 8:0.9165 9:0.4135 10:0.1965 11:0.2725 
-1 2:0 3:0 4:1 5:0.6 6:0.48 7:0.17 8:0.9175 9:0.38 10:0.2225 11:0.29 
-1 2:0 3:1 4:0 5:0.605 6:0.455 7:0.145 8:0.9775 9:0.468 10:0.1775 11:0.275 
-1 2:1 3:0 4:0 5:0.605 6:0.475 7:0.145 8:0.884 9:0.3835 10:0.1905 11:0.27 
-1 2:0 3:1 4:0 5:0.605 6:0.48 7:0.14 8:0.991 9:0.4735 10:0.2345 11:0.24 
-1 2:1 3:0 4:0 5:0.61 6:0.47 7:0.16 8:1.022 9:0.449 10:0.2345 11:0.2945 
-1 2:0 3:0 4:1 5:0.61 6:0.465 7:0.125 8:0.9225 9:0.436 10:0.19 11:0.26 
-1 2:1 3:0 4:0 5:0.61 6:0.47 7:0.17 8:1.1185 9:0.5225 10:0.2405 11:0.31 
-1 2:1 3:0 4:0 5:0.615 6:0.475 7:0.175 8:1.224 9:0.6035 10:0.261 11:0.311 
-1 2:0 3:0 4:1 5:0.62 6:0.47 7:0.14 8:0.8565 9:0.3595 10:0.16 11:0.295 
-2 2:1 3:0 4:0 5:0.625 6:0.5 7:0.17 8:1.0985 9:0.4645 10:0.22 11:0.354 
-1 2:0 3:0 4:1 5:0.625 6:0.485 7:0.15 8:1.044 9:0.438 10:0.2865 11:0.278 
-3 2:0 3:1 4:0 5:0.63 6:0.5 7:0.18 8:1.1965 9:0.514 10:0.2325 11:0.3995 
-3 2:1 3:0 4:0 5:0.645 6:0.51 7:0.19 8:1.4745 9:0.605 10:0.345 11:0.48 
-1 2:0 3:1 4:0 5:0.645 6:0.51 7:0.16 8:1.2415 9:0.5815 10:0.276 11:0.315 
-1 2:0 3:1 4:0 5:0.65 6:0.495 7:0.155 8:1.337 9:0.615 10:0.3195 11:0.335 
-2 2:1 3:0 4:0 5:0.65 6:0.51 7:0.16 8:1.3835 9:0.6385 10:0.2905 11:0.3665 
-2 2:0 3:1 4:0 5:0.655 6:0.51 7:0.15 8:1.043 9:0.4795 10:0.223 11:0.305 
-2 2:0 3:1 4:0 5:0.72 6:0.525 7:0.18 8:1.445 9:0.631 10:0.3215 11:0.435 
-1 2:0 3:1 4:0 5:0.375 6:0.27 7:0.135 8:0.597 9:0.272 10:0.131 11:0.1675 
-1 2:1 3:0 4:0 5:0.39 6:0.28 7:0.125 8:0.564 9:0.3035 10:0.0955 11:0.143 
-1 2:0 3:0 4:1 5:0.435 6:0.3 7:0.12 8:0.5965 9:0.259 10:0.139 11:0.1645 
-1 2:1 3:0 4:0 5:0.445 6:0.32 7:0.12 8:0.414 9:0.199 10:0.09 11:0.117 
-1 2:0 3:0 4:1 5:0.455 6:0.325 7:0.135 8:0.82 9:0.4005 10:0.1715 11:0.211 
-1 2:1 3:0 4:0 5:0.485 6:0.37 7:0.155 8:0.968 9:0.419 10:0.2455 11:0.2365 
-1 2:1 3:0 4:0 5:0.515 6:0.35 7:0.155 8:0.9225 9:0.4185 10:0.198 11:0.273 
-1 2:1 3:0 4:0 5:0.515 6:0.395 7:0.135 8:1.007 9:0.472 10:0.2495 11:0.252 
-1 2:1 3:0 4:0 5:0.525 6:0.38 7:0.125 8:0.65 9:0.303 10:0.155 11:0.159 
-1 2:1 3:0 4:0 5:0.53 6:0.41 7:0.14 8:0.7545 9:0.3495 10:0.1715 11:0.2105 
-1 2:0 3:1 4:0 5:0.535 6:0.425 7:0.135 8:0.771 9:0.3765 10:0.1815 11:0.1795 
-1 2:0 3:0 4:1 5:0.535 6:0.385 7:0.18 8:1.0835 9:0.4955 10:0.2295 11:0.304 
-1 2:0 3:0 4:1 5:0.545 6:0.42 7:0.165 8:0.8935 9:0.4235 10:0.2195 11:0.228 
-1 2:0 3:1 4:0 5:0.545 6:0.385 7:0.15 8:1.1185 9:0.5425 10:0.2445 11:0.2845 
-1 2:1 3:0 4:0 5:0.6 6:0.465 7:0.165 8:1.038 9:0.4975 10:0.2205 11:0.251 
-1 2:1 3:0 4:0 5:0.625 6:0.495 7:0.175 8:1.254 9:0.5815 10:0.286 11:0.3185 
-1 2:1 3:0 4:0 5:0.645 6:0.5 7:0.16 8:1.3815 9:0.672 10:0.326 11:0.315 
-2 2:0 3:1 4:0 5:0.655 6:0.52 7:0.2 8:1.5475 9:0.713 10:0.314 11:0.466 
1 2:0 3:0 4:1 5:0.31 6:0.215 7:0.075 8:0.1275 9:0.0565 10:0.0275 11:0.036 
1 2:0 3:0 4:1 5:0.365 6:0.275 7:0.085 8:0.223 9:0.098 10:0.0375 11:0.075 
1 2:0 3:0 4:1 5:0.41 6:0.315 7:0.095 8:0.2805 9:0.114 10:0.0345 11:0.11 
1 2:0 3:0 4:1 5:0.41 6:0.335 7:0.105 8:0.3305 9:0.1405 10:0.064 11:0.105 
1 2:0 3:0 4:1 5:0.415 6:0.31 7:0.095 8:0.311 9:0.1125 10:0.0625 11:0.115 
1 2:0 3:0 4:1 5:0.43 6:0.34 7:0.1 8:0.3405 9:0.1395 10:0.0665 11:0.12 
1 2:0 3:0 4:1 5:0.435 6:0.335 7:0.1 8:0.3245 9:0.135 10:0.0785 11:0.098 
1 2:0 3:0 4:1 5:0.445 6:0.33 7:0.11 8:0.358 9:0.1525 10:0.067 11:0.1185 
-1 2:0 3:0 4:1 5:0.465 6:0.37 7:0.11 8:0.445 9:0.1635 10:0.096 11:0.166 
-1 2:0 3:0 4:1 5:0.47 6:0.375 7:0.12 8:0.487 9:0.196 10:0.099 11:0.135 
-1 2:0 3:0 4:1 5:0.475 6:0.34 7:0.105 8:0.4535 9:0.203 10:0.08 11:0.1465 
-1 2:0 3:0 4:1 5:0.485 6:0.385 7:0.13 8:0.568 9:0.2505 10:0.178 11:0.154 
-1 2:0 3:0 4:1 5:0.485 6:0.36 7:0.12 8:0.5155 9:0.2465 10:0.1025 11:0.147 
-1 2:0 3:0 4:1 5:0.485 6:0.37 7:0.115 8:0.457 9:0.1885 10:0.0965 11:0.15 
-1 2:0 3:0 4:1 5:0.495 6:0.375 7:0.14 8:0.494 9:0.181 10:0.0975 11:0.191 
-1 2:0 3:0 4:1 5:0.5 6:0.38 7:0.11 8:0.5605 9:0.28 10:0.106 11:0.15 
-1 2:0 3:0 4:1 5:0.505 6:0.4 7:0.145 8:0.7045 9:0.334 10:0.1425 11:0.207 
-1 2:0 3:0 4:1 5:0.52 6:0.41 7:0.11 8:0.5185 9:0.2165 10:0.0915 11:0.184 
-1 2:0 3:0 4:1 5:0.52 6:0.415 7:0.14 8:0.6375 9:0.308 10:0.1335 11:0.168 
-1 2:0 3:0 4:1 5:0.52 6:0.395 7:0.125 8:0.5805 9:0.2445 10:0.146 11:0.165 
-1 2:0 3:0 4:1 5:0.52 6:0.38 7:0.115 8:0.6645 9:0.3285 10:0.17 11:0.1425 
-1 2:0 3:0 4:1 5:0.525 6:0.405 7:0.145 8:0.6965 9:0.3045 10:0.1535 11:0.21 
-1 2:0 3:0 4:1 5:0.525 6:0.4 7:0.145 8:0.6095 9:0.248 10:0.159 11:0.175 
-1 2:0 3:0 4:1 5:0.53 6:0.43 7:0.16 8:0.7245 9:0.321 10:0.1275 11:0.24 
-1 2:0 3:0 4:1 5:0.53 6:0.395 7:0.13 8:0.575 9:0.247 10:0.115 11:0.183 
-1 2:0 3:0 4:1 5:0.53 6:0.405 7:0.12 8:0.632 9:0.2715 10:0.148 11:0.1875 
-2 2:0 3:1 4:0 5:0.54 6:0.425 7:0.16 8:0.9455 9:0.3675 10:0.2005 11:0.295 
-1 2:0 3:0 4:1 5:0.54 6:0.395 7:0.135 8:0.6555 9:0.2705 10:0.155 11:0.192 
-1 2:0 3:0 4:1 5:0.54 6:0.39 7:0.125 8:0.6255 9:0.2525 10:0.158 11:0.19 
-1 2:0 3:0 4:1 5:0.545 6:0.43 7:0.14 8:0.687 9:0.2615 10:0.1405 11:0.25 
-1 2:1 3:0 4:0 5:0.555 6:0.435 7:0.14 8:0.7495 9:0.341 10:0.1645 11:0.214 
-1 2:1 3:0 4:0 5:0.555 6:0.41 7:0.125 8:0.599 9:0.2345 10:0.1465 11:0.194 
-1 2:1 3:0 4:0 5:0.555 6:0.455 7:0.135 8:0.837 9:0.382 10:0.171 11:0.235 
-1 2:1 3:0 4:0 5:0.565 6:0.415 7:0.125 8:0.667 9:0.302 10:0.1545 11:0.185 
-1 2:0 3:0 4:1 5:0.565 6:0.435 7:0.145 8:0.8445 9:0.3975 10:0.158 11:0.255 
-1 2:1 3:0 4:0 5:0.565 6:0.45 7:0.16 8:0.895 9:0.415 10:0.195 11:0.246 
-1 2:1 3:0 4:0 5:0.575 6:0.45 7:0.155 8:0.9765 9:0.495 10:0.2145 11:0.235 
-2 2:0 3:1 4:0 5:0.575 6:0.465 7:0.175 8:1.099 9:0.4735 10:0.202 11:0.35 
-1 2:0 3:1 4:0 5:0.575 6:0.43 7:0.155 8:0.7955 9:0.3485 10:0.1925 11:0.22 
-1 2:1 3:0 4:0 5:0.575 6:0.475 7:0.145 8:0.857 9:0.3665 10:0.173 11:0.269 
-1 2:0 3:1 4:0 5:0.58 6:0.45 7:0.195 8:0.8265 9:0.4035 10:0.173 11:0.225 
-1 2:1 3:0 4:0 5:0.58 6:0.44 7:0.16 8:0.8295 9:0.3365 10:0.2005 11:0.2485 
-2 2:0 3:1 4:0 5:0.605 6:0.455 7:0.145 8:0.862 9:0.334 10:0.1985 11:0.3 
-1 2:1 3:0 4:0 5:0.61 6:0.48 7:0.14 8:1.031 9:0.4375 10:0.2615 11:0.27 
-1 2:1 3:0 4:0 5:0.62 6:0.47 7:0.15 8:1.309 9:0.587 10:0.4405 11:0.325 
-2 2:1 3:0 4:0 5:0.625 6:0.515 7:0.17 8:1.331 9:0.5725 10:0.3005 11:0.361 
-1 2:1 3:0 4:0 5:0.63 6:0.49 7:0.155 8:1.2525 9:0.63 10:0.246 11:0.289 
-2 2:1 3:0 4:0 5:0.64 6:0.49 7:0.155 8:1.1285 9:0.477 10:0.269 11:0.34 
-2 2:1 3:0 4:0 5:0.655 6:0.52 7:0.17 8:1.1445 9:0.53 10:0.223 11:0.348 
1 2:0 3:0 4:1 5:0.28 6:0.2 7:0.065 8:0.0895 9:0.036 10:0.0185 11:0.03 
1 2:0 3:0 4:1 5:0.35 6:0.235 7:0.08 8:0.17 9:0.0725 10:0.0465 11:0.0495 
1 2:0 3:0 4:1 5:0.36 6:0.27 7:0.085 8:0.196 9:0.0905 10:0.034 11:0.053 
1 2:0 3:0 4:1 5:0.375 6:0.275 7:0.085 8:0.22 9:0.109 10:0.05 11:0.0605 
1 2:0 3:0 4:1 5:0.415 6:0.325 7:0.11 8:0.316 9:0.1385 10:0.0795 11:0.0925 
1 2:0 3:0 4:1 5:0.435 6:0.325 7:0.12 8:0.346 9:0.159 10:0.084 11:0.095 
-1 2:0 3:0 4:1 5:0.46 6:0.35 7:0.11 8:0.4675 9:0.2125 10:0.099 11:0.1375 
-1 2:1 3:0 4:0 5:0.505 6:0.39 7:0.12 8:0.653 9:0.3315 10:0.1385 11:0.167 
-1 2:0 3:0 4:1 5:0.51 6:0.455 7:0.135 8:0.6855 9:0.2875 10:0.154 11:0.2035 
-1 2:0 3:1 4:0 5:0.56 6:0.41 7:0.16 8:0.8215 9:0.342 10:0.184 11:0.253 
-1 2:1 3:0 4:0 5:0.565 6:0.445 7:0.145 8:0.9255 9:0.4345 10:0.212 11:0.2475 
-1 2:1 3:0 4:0 5:0.58 6:0.46 7:0.16 8:1.063 9:0.513 10:0.2705 11:0.2625 
-2 2:1 3:0 4:0 5:0.66 6:0.515 7:0.195 8:1.5655 9:0.7345 10:0.353 11:0.386 
1 2:0 3:0 4:1 5:0.32 6:0.255 7:0.085 8:0.1745 9:0.072 10:0.033 11:0.057 
1 2:0 3:0 4:1 5:0.325 6:0.24 7:0.07 8:0.152 9:0.0565 10:0.0305 11:0.054 
1 2:0 3:0 4:1 5:0.385 6:0.28 7:0.1 8:0.2755 9:0.1305 10:0.061 11:0.0725 
1 2:0 3:0 4:1 5:0.395 6:0.295 7:0.1 8:0.293 9:0.14 10:0.062 11:0.082 
-1 2:0 3:1 4:0 5:0.4 6:0.305 7:0.16 8:0.368 9:0.173 10:0.0705 11:0.105 
1 2:0 3:0 4:1 5:0.44 6:0.305 7:0.115 8:0.379 9:0.162 10:0.091 11:0.11 
1 2:0 3:0 4:1 5:0.445 6:0.32 7:0.12 8:0.378 9:0.152 10:0.0825 11:0.12 
-1 2:1 3:0 4:0 5:0.45 6:0.35 7:0.13 8:0.4655 9:0.2075 10:0.1045 11:0.135 
-2 2:0 3:1 4:0 5:0.455 6:0.355 7:1.13 8:0.594 9:0.332 10:0.116 11:0.1335 
-1 2:1 3:0 4:0 5:0.46 6:0.345 7:0.12 8:0.4935 9:0.2435 10:0.1175 11:0.132 
1 2:0 3:0 4:1 5:0.465 6:0.355 7:0.09 8:0.4325 9:0.2005 10:0.074 11:0.1275 
-1 2:1 3:0 4:0 5:0.485 6:0.39 7:0.135 8:0.617 9:0.25 10:0.1345 11:0.1635 
-1 2:0 3:0 4:1 5:0.49 6:0.37 7:0.11 8:0.538 9:0.271 10:0.1035 11:0.139 
-1 2:1 3:0 4:0 5:0.505 6:0.385 7:0.13 8:0.6435 9:0.3135 10:0.149 11:0.1515 
-1 2:1 3:0 4:0 5:0.525 6:0.385 7:0.1 8:0.5115 9:0.246 10:0.1005 11:0.1455 
-1 2:1 3:0 4:0 5:0.535 6:0.42 7:0.125 8:0.738 9:0.355 10:0.1895 11:0.1795 
-1 2:0 3:1 4:0 5:0.535 6:0.42 7:0.13 8:0.699 9:0.3125 10:0.1565 11:0.2035 
-1 2:1 3:0 4:0 5:0.55 6:0.41 7:0.13 8:0.8705 9:0.4455 10:0.2115 11:0.213 
-1 2:0 3:1 4:0 5:0.565 6:0.44 7:0.135 8:0.83 9:0.393 10:0.1735 11:0.238 
-1 2:1 3:0 4:0 5:0.58 6:0.45 7:0.12 8:0.8685 9:0.418 10:0.1475 11:0.2605 
-1 2:1 3:0 4:0 5:0.595 6:0.465 7:0.15 8:0.919 9:0.4335 10:0.1765 11:0.262 
-1 2:0 3:1 4:0 5:0.61 6:0.43 7:0.14 8:0.909 9:0.438 10:0.2 11:0.22 
1 2:0 3:0 4:1 5:0.405 6:0.305 7:0.09 8:0.2825 9:0.114 10:0.0575 11:0.095 
-1 2:1 3:0 4:0 5:0.415 6:0.3 7:0.1 8:0.3355 9:0.1545 10:0.0685 11:0.095 
1 2:0 3:0 4:1 5:0.41 6:0.31 7:0.11 8:0.315 9:0.124 10:0.082 11:0.095 
-1 2:1 3:0 4:0 5:0.375 6:0.29 7:0.1 8:0.276 9:0.1175 10:0.0565 11:0.085 
1 2:0 3:0 4:1 5:0.455 6:0.355 7:0.08 8:0.452 9:0.2165 10:0.0995 11:0.125 
-1 2:1 3:0 4:0 5:0.525 6:0.405 7:0.13 8:0.7185 9:0.3265 10:0.1975 11:0.175 
1 2:0 3:0 4:1 5:0.385 6:0.29 7:0.09 8:0.232 9:0.0855 10:0.0495 11:0.08 
-1 2:0 3:1 4:0 5:0.48 6:0.38 7:0.12 8:0.608 9:0.2705 10:0.1405 11:0.185 
-1 2:0 3:0 4:1 5:0.455 6:0.37 7:0.125 8:0.433 9:0.201 10:0.1265 11:0.145 
-1 2:1 3:0 4:0 5:0.425 6:0.325 7:0.1 8:0.3295 9:0.1365 10:0.0725 11:0.11 
-1 2:1 3:0 4:0 5:0.385 6:0.295 7:0.095 8:0.335 9:0.147 10:0.094 11:0.09 
-1 2:1 3:0 4:0 5:0.47 6:0.375 7:0.115 8:0.4265 9:0.1685 10:0.0755 11:0.15 
1 2:0 3:0 4:1 5:0.4 6:0.31 7:0.1 8:0.127 9:0.106 10:0.071 11:0.085 
-1 2:1 3:0 4:0 5:0.585 6:0.455 7:0.14 8:0.97 9:0.462 10:0.185 11:0.295 
1 2:0 3:0 4:1 5:0.32 6:0.24 7:0.075 8:0.1735 9:0.076 10:0.0355 11:0.05 
-1 2:1 3:0 4:0 5:0.455 6:0.35 7:0.105 8:0.401 9:0.1575 10:0.083 11:0.135 
-1 2:0 3:1 4:0 5:0.415 6:0.325 7:0.115 8:0.3455 9:0.1405 10:0.0765 11:0.11 
-1 2:1 3:0 4:0 5:0.415 6:0.31 7:0.09 8:0.3245 9:0.1305 10:0.0735 11:0.115 
-1 2:0 3:1 4:0 5:0.4 6:0.3 7:0.115 8:0.3025 9:0.1335 10:0.0465 11:0.0935 
-2 2:0 3:1 4:0 5:0.61 6:0.45 7:0.16 8:1.136 9:0.414 10:0.311 11:0.3 
-1 2:1 3:0 4:0 5:0.445 6:0.34 7:0.12 8:0.4475 9:0.193 10:0.1035 11:0.13 
-1 2:0 3:1 4:0 5:0.52 6:0.4 7:0.125 8:0.6865 9:0.295 10:0.1715 11:0.185 
-1 2:1 3:0 4:0 5:0.42 6:0.34 7:0.115 8:0.4215 9:0.175 10:0.093 11:0.135 
-1 2:0 3:1 4:0 5:0.535 6:0.46 7:0.145 8:0.7875 9:0.3395 10:0.2005 11:0.2 
-2 2:0 3:1 4:0 5:0.55 6:0.425 7:0.145 8:0.797 9:0.297 10:0.15 11:0.265 
1 2:0 3:0 4:1 5:0.355 6:0.28 7:0.11 8:0.2235 9:0.0815 10:0.0525 11:0.08 
-1 2:1 3:0 4:0 5:0.37 6:0.28 7:0.095 8:0.2225 9:0.0805 10:0.051 11:0.075 
-2 2:0 3:1 4:0 5:0.505 6:0.4 7:0.165 8:0.729 9:0.2675 10:0.155 11:0.25 
1 2:0 3:0 4:1 5:0.46 6:0.335 7:0.11 8:0.444 9:0.225 10:0.0745 11:0.11 
-1 2:0 3:1 4:0 5:0.46 6:0.36 7:0.115 8:0.4755 9:0.2105 10:0.105 11:0.16 
-1 2:0 3:1 4:0 5:0.475 6:0.38 7:0.135 8:0.486 9:0.1735 10:0.07 11:0.185 
-1 2:1 3:0 4:0 5:0.46 6:0.375 7:0.14 8:0.5105 9:0.192 10:0.1045 11:0.205 
-1 2:0 3:1 4:0 5:0.47 6:0.365 7:0.12 8:0.543 9:0.2295 10:0.1495 11:0.15 
-1 2:1 3:0 4:0 5:0.52 6:0.38 7:0.135 8:0.5825 9:0.2505 10:0.1565 11:0.175 
-1 2:1 3:0 4:0 5:0.43 6:0.335 7:0.115 8:0.406 9:0.166 10:0.0935 11:0.135 
-1 2:1 3:0 4:0 5:0.51 6:0.405 7:0.13 8:0.7175 9:0.3725 10:0.158 11:0.17 
-1 2:1 3:0 4:0 5:0.44 6:0.375 7:0.13 8:0.487 9:0.226 10:0.0965 11:0.155 
-1 2:0 3:0 4:1 5:0.485 6:0.415 7:0.14 8:0.5705 9:0.25 10:0.134 11:0.185 
1 2:0 3:0 4:1 5:0.435 6:0.345 7:0.12 8:0.4475 9:0.221 10:0.112 11:0.125 
1 2:0 3:0 4:1 5:0.405 6:0.315 7:0.105 8:0.347 9:0.1605 10:0.0785 11:0.1 
1 2:0 3:0 4:1 5:0.42 6:0.33 7:0.1 8:0.352 9:0.1635 10:0.089 11:0.1 
-1 2:0 3:1 4:0 5:0.5 6:0.395 7:0.15 8:0.7145 9:0.3235 10:0.173 11:0.195 
-1 2:0 3:1 4:0 5:0.385 6:0.305 7:0.105 8:0.3315 9:0.1365 10:0.0745 11:0.1 
-1 2:1 3:0 4:0 5:0.475 6:0.36 7:0.12 8:0.578 9:0.2825 10:0.12 11:0.17 
1 2:0 3:0 4:1 5:0.415 6:0.325 7:0.1 8:0.385 9:0.167 10:0.08 11:0.125 
-1 2:0 3:0 4:1 5:0.495 6:0.385 7:0.125 8:0.585 9:0.2755 10:0.1235 11:0.165 
-1 2:1 3:0 4:0 5:0.46 6:0.375 7:0.13 8:0.5735 9:0.2505 10:0.119 11:0.195 
1 2:0 3:0 4:1 5:0.315 6:0.24 7:0.07 8:0.137 9:0.0545 10:0.0315 11:0.04 
1 2:0 3:0 4:1 5:0.42 6:0.345 7:0.115 8:0.3435 9:0.1515 10:0.0795 11:0.115 
-1 2:0 3:1 4:0 5:0.515 6:0.42 7:0.135 8:0.6295 9:0.2815 10:0.127 11:0.215 
-1 2:0 3:1 4:0 5:0.45 6:0.36 7:0.105 8:0.4715 9:0.2035 10:0.0935 11:0.149 
1 2:0 3:0 4:1 5:0.42 6:0.325 7:0.115 8:0.354 9:0.1625 10:0.064 11:0.105 
1 2:0 3:0 4:1 5:0.3 6:0.22 7:0.09 8:0.1425 9:0.057 10:0.0335 11:0.043 
-3 2:0 3:1 4:0 5:0.64 6:0.5 7:0.15 8:1.0705 9:0.371 10:0.2705 11:0.36 
-1 2:0 3:0 4:1 5:0.5 6:0.395 7:0.12 8:0.537 9:0.2165 10:0.1085 11:0.1785 
1 2:0 3:0 4:1 5:0.42 6:0.305 7:0.11 8:0.28 9:0.094 10:0.0785 11:0.0955 
-1 2:1 3:0 4:0 5:0.34 6:0.255 7:0.095 8:0.213 9:0.081 10:0.034 11:0.07 
1 2:0 3:0 4:1 5:0.335 6:0.24 7:0.095 8:0.17 9:0.062 10:0.039 11:0.055 
-1 2:0 3:1 4:0 5:0.345 6:0.255 7:0.1 8:0.197 9:0.071 10:0.051 11:0.06 
-1 2:1 3:0 4:0 5:0.475 6:0.355 7:0.125 8:0.4625 9:0.186 10:0.107 11:0.145 
-1 2:1 3:0 4:0 5:0.5 6:0.355 7:0.14 8:0.528 9:0.2125 10:0.149 11:0.14 
-1 2:0 3:1 4:0 5:0.37 6:0.285 7:0.105 8:0.27 9:0.1125 10:0.0585 11:0.0835 
-1 2:1 3:0 4:0 5:0.395 6:0.305 7:0.105 8:0.282 9:0.0975 10:0.065 11:0.096 
-1 2:1 3:0 4:0 5:0.425 6:0.325 7:0.12 8:0.3755 9:0.142 10:0.1065 11:0.105 
-1 2:0 3:1 4:0 5:0.37 6:0.275 7:0.08 8:0.227 9:0.093 10:0.0625 11:0.07 
-1 2:1 3:0 4:0 5:0.39 6:0.285 7:0.095 8:0.271 9:0.11 10:0.06 11:0.08 
-1 2:1 3:0 4:0 5:0.44 6:0.325 7:0.115 8:0.39 9:0.163 10:0.087 11:0.113 
1 2:0 3:0 4:1 5:0.42 6:0.31 7:0.1 8:0.2865 9:0.115 10:0.0735 11:0.085 
-1 2:1 3:0 4:0 5:0.4 6:0.305 7:0.13 8:0.2935 9:0.096 10:0.0675 11:0.105 
1 2:0 3:0 4:1 5:0.375 6:0.3 7:0.075 8:0.144 9:0.059 10:0.03 11:0.044 
1 2:0 3:0 4:1 5:0.415 6:0.325 7:0.1 8:0.4665 9:0.2285 10:0.1065 11:0.114 
1 2:0 3:0 4:1 5:0.42 6:0.32 7:0.1 8:0.34 9:0.1745 10:0.05 11:0.0945 
-1 2:1 3:0 4:0 5:0.465 6:0.375 7:0.11 8:0.5 9:0.21 10:0.113 11:0.1505 
-1 2:0 3:1 4:0 5:0.465 6:0.35 7:0.135 8:0.6265 9:0.259 10:0.1445 11:0.175 
-1 2:0 3:0 4:1 5:0.47 6:0.37 7:0.11 8:0.5555 9:0.25 10:0.115 11:0.163 
-1 2:1 3:0 4:0 5:0.5 6:0.4 7:0.13 8:0.7715 9:0.37 10:0.16 11:0.211 
-1 2:0 3:0 4:1 5:0.505 6:0.39 7:0.185 8:0.6125 9:0.267 10:0.142 11:0.172 
-1 2:1 3:0 4:0 5:0.54 6:0.42 7:0.12 8:0.8115 9:0.392 10:0.1455 11:0.2235 
-1 2:0 3:1 4:0 5:0.565 6:0.44 7:0.15 8:0.983 9:0.4475 10:0.2355 11:0.2485 
-2 2:1 3:0 4:0 5:0.59 6:0.48 7:0.16 8:1.262 9:0.5685 10:0.2725 11:0.335 
-1 2:0 3:1 4:0 5:0.6 6:0.5 7:0.155 8:1.332 9:0.6235 10:0.2835 11:0.35 
-1 2:0 3:1 4:0 5:0.6 6:0.485 7:0.165 8:1.1405 9:0.587 10:0.2175 11:0.288 
1 2:0 3:0 4:1 5:0.315 6:0.235 7:0.07 8:0.149 9:0.058 10:0.0325 11:0.047 
1 2:0 3:0 4:1 5:0.34 6:0.265 7:0.07 8:0.185 9:0.0625 10:0.0395 11:0.07 
1 2:0 3:0 4:1 5:0.39 6:0.295 7:0.1 8:0.279 9:0.1155 10:0.059 11:0.08 
1 2:0 3:0 4:1 5:0.415 6:0.325 7:0.1 8:0.3335 9:0.1445 10:0.0715 11:0.095 
-1 2:0 3:0 4:1 5:0.44 6:0.355 7:0.12 8:0.495 9:0.231 10:0.11 11:0.125 
-1 2:0 3:1 4:0 5:0.455 6:0.35 7:0.12 8:0.4555 9:0.1945 10:0.1045 11:0.1375 
1 2:0 3:0 4:1 5:0.46 6:0.345 7:0.12 8:0.4155 9:0.198 10:0.0885 11:0.107 
2.477401964129378e-016 2:0 3:0 4:1 5:0.465 6:0.355 7:0.11 8:0.474 9:0.23 10:0.1005 11:0.12 
-1 2:1 3:0 4:0 5:0.465 6:0.34 7:0.105 8:0.486 9:0.231 10:0.1035 11:0.1225 
-1 2:0 3:0 4:1 5:0.475 6:0.385 7:0.11 8:0.5735 9:0.311 10:0.1025 11:0.136 
-1 2:0 3:0 4:1 5:0.475 6:0.355 7:0.105 8:0.468 9:0.201 10:0.1115 11:0.12 
-1 2:1 3:0 4:0 5:0.48 6:0.37 7:0.1 8:0.5135 9:0.243 10:0.1015 11:0.135 
-1 2:0 3:0 4:1 5:0.5 6:0.38 7:0.11 8:0.494 9:0.218 10:0.09 11:0.1325 
-1 2:0 3:0 4:1 5:0.505 6:0.385 7:0.12 8:0.6005 9:0.239 10:0.142 11:0.185 
-1 2:1 3:0 4:0 5:0.525 6:0.415 7:0.135 8:0.7945 9:0.394 10:0.189 11:0.202 
-1 2:0 3:1 4:0 5:0.53 6:0.405 7:0.15 8:0.889 9:0.4055 10:0.2275 11:0.215 
-1 2:1 3:0 4:0 5:0.54 6:0.435 7:0.14 8:0.7345 9:0.33 10:0.1595 11:0.213 
-1 2:0 3:1 4:0 5:0.55 6:0.425 7:0.125 8:0.964 9:0.5475 10:0.159 11:0.215 
-1 2:0 3:1 4:0 5:0.555 6:0.425 7:0.14 8:0.963 9:0.44 10:0.224 11:0.24 
-1 2:0 3:1 4:0 5:0.57 6:0.435 7:0.14 8:0.8585 9:0.3905 10:0.196 11:0.2295 
-1 2:0 3:1 4:0 5:0.58 6:0.445 7:0.145 8:0.888 9:0.41 10:0.1815 11:0.2425 
-1 2:0 3:1 4:0 5:0.585 6:0.45 7:0.16 8:0.9045 9:0.405 10:0.2215 11:0.2335 
-1 2:1 3:0 4:0 5:0.59 6:0.465 7:0.14 8:1.046 9:0.4695 10:0.263 11:0.263 
-1 2:0 3:1 4:0 5:0.595 6:0.47 7:0.155 8:1.1775 9:0.542 10:0.269 11:0.31 
-1 2:0 3:1 4:0 5:0.6 6:0.46 7:0.145 8:0.9325 9:0.3985 10:0.2245 11:0.248 
-1 2:1 3:0 4:0 5:0.6 6:0.46 7:0.15 8:1.247 9:0.5335 10:0.2735 11:0.29 
-1 2:1 3:0 4:0 5:0.61 6:0.48 7:0.15 8:1.1495 9:0.564 10:0.274 11:0.264 
-1 2:1 3:0 4:0 5:0.615 6:0.47 7:0.155 8:1.2 9:0.5085 10:0.32 11:0.292 
-1 2:0 3:1 4:0 5:0.62 6:0.475 7:0.16 8:1.3245 9:0.6865 10:0.233 11:0.3275 
-2 2:0 3:1 4:0 5:0.625 6:0.49 7:0.165 8:1.127 9:0.477 10:0.2365 11:0.3185 
-1 2:0 3:1 4:0 5:0.63 6:0.495 7:0.145 8:1.147 9:0.5455 10:0.266 11:0.2885 
-2 2:1 3:0 4:0 5:0.63 6:0.48 7:0.165 8:1.286 9:0.604 10:0.271 11:0.35 
-2 2:1 3:0 4:0 5:0.645 6:0.49 7:0.16 8:1.251 9:0.5355 10:0.3345 11:0.3165 
-1 2:0 3:1 4:0 5:0.65 6:0.5 7:0.185 8:1.4415 9:0.741 10:0.2955 11:0.341 
-1 2:1 3:0 4:0 5:0.67 6:0.52 7:0.19 8:1.6385 9:0.8115 10:0.369 11:0.391 
-2 2:1 3:0 4:0 5:0.69 6:0.54 7:0.185 8:1.71 9:0.7725 10:0.3855 11:0.4325 
1 2:0 3:0 4:1 5:0.415 6:0.315 7:0.1 8:0.3645 9:0.1765 10:0.0795 11:0.095 
1 2:0 3:0 4:1 5:0.425 6:0.34 7:0.1 8:0.3515 9:0.1625 10:0.082 11:0.094 
1 2:0 3:0 4:1 5:0.43 6:0.32 7:0.1 8:0.3465 9:0.1635 10:0.08 11:0.09 
1 2:0 3:0 4:1 5:0.44 6:0.34 7:0.1 8:0.407 9:0.209 10:0.0735 11:0.103 
1 2:0 3:0 4:1 5:0.44 6:0.335 7:0.115 8:0.4215 9:0.173 10:0.0765 11:0.113 
1 2:0 3:0 4:1 5:0.465 6:0.355 7:0.105 8:0.442 9:0.2085 10:0.0975 11:0.1185 
-1 2:0 3:0 4:1 5:0.475 6:0.375 7:0.115 8:0.5205 9:0.233 10:0.119 11:0.1455 
-1 2:0 3:0 4:1 5:0.485 6:0.375 7:0.13 8:0.5535 9:0.266 10:0.112 11:0.157 
-1 2:0 3:0 4:1 5:0.5 6:0.39 7:0.125 8:0.583 9:0.294 10:0.132 11:0.1605 
-1 2:1 3:0 4:0 5:0.5 6:0.38 7:0.12 8:0.5765 9:0.273 10:0.135 11:0.145 
-1 2:1 3:0 4:0 5:0.505 6:0.4 7:0.135 8:0.723 9:0.377 10:0.149 11:0.178 
-1 2:0 3:0 4:1 5:0.51 6:0.395 7:0.155 8:0.5395 9:0.2465 10:0.1085 11:0.167 
-1 2:0 3:0 4:1 5:0.515 6:0.4 7:0.125 8:0.5925 9:0.265 10:0.1175 11:0.168 
-1 2:0 3:0 4:1 5:0.52 6:0.395 7:0.135 8:0.633 9:0.2985 10:0.1295 11:0.175 
-1 2:0 3:1 4:0 5:0.545 6:0.43 7:0.14 8:0.832 9:0.4355 10:0.17 11:0.201 
-1 2:1 3:0 4:0 5:0.545 6:0.42 7:0.145 8:0.778 9:0.3745 10:0.1545 11:0.205 
-1 2:1 3:0 4:0 5:0.545 6:0.42 7:0.12 8:0.7865 9:0.403 10:0.185 11:0.17 
-1 2:0 3:0 4:1 5:0.55 6:0.42 7:0.13 8:0.636 9:0.294 10:0.144 11:0.1755 
-1 2:0 3:1 4:0 5:0.55 6:0.44 7:0.135 8:0.8435 9:0.434 10:0.1995 11:0.185 
-1 2:0 3:0 4:1 5:0.555 6:0.425 7:0.13 8:0.648 9:0.2835 10:0.133 11:0.2105 
-1 2:1 3:0 4:0 5:0.565 6:0.43 7:0.13 8:0.784 9:0.3495 10:0.1885 11:0.213 
-1 2:0 3:1 4:0 5:0.57 6:0.45 7:0.18 8:0.908 9:0.4015 10:0.217 11:0.255 
-1 2:1 3:0 4:0 5:0.57 6:0.45 7:0.135 8:1.02 9:0.546 10:0.204 11:0.25 
-1 2:0 3:1 4:0 5:0.57 6:0.43 7:0.16 8:0.811 9:0.3875 10:0.159 11:0.2285 
-1 2:0 3:1 4:0 5:0.575 6:0.48 7:0.15 8:0.897 9:0.4235 10:0.1905 11:0.248 
-1 2:0 3:1 4:0 5:0.585 6:0.45 7:0.15 8:0.938 9:0.467 10:0.203 11:0.225 
-1 2:1 3:0 4:0 5:0.59 6:0.47 7:0.15 8:0.861 9:0.413 10:0.164 11:0.249 
-1 2:1 3:0 4:0 5:0.59 6:0.46 7:0.14 8:1.004 9:0.496 10:0.2165 11:0.26 
-1 2:0 3:1 4:0 5:0.59 6:0.46 7:0.16 8:1.0115 9:0.445 10:0.2615 11:0.2565 
-2 2:1 3:0 4:0 5:0.595 6:0.47 7:0.165 8:1.108 9:0.4915 10:0.2325 11:0.3345 
-1 2:1 3:0 4:0 5:0.615 6:0.45 7:0.15 8:1.198 9:0.707 10:0.2095 11:0.2505 
-1 2:1 3:0 4:0 5:0.62 6:0.49 7:0.155 8:1.1 9:0.505 10:0.2475 11:0.31 
-1 2:1 3:0 4:0 5:0.63 6:0.465 7:0.15 8:1.027 9:0.537 10:0.188 11:0.176 
-2 2:1 3:0 4:0 5:0.645 6:0.515 7:0.16 8:1.1845 9:0.506 10:0.311 11:0.335 
-1 2:1 3:0 4:0 5:0.645 6:0.48 7:0.15 8:1.192 9:0.6055 10:0.2595 11:0.285 
-1 2:0 3:1 4:0 5:0.645 6:0.52 7:0.18 8:1.285 9:0.5775 10:0.352 11:0.317 
-2 2:1 3:0 4:0 5:0.65 6:0.515 7:0.125 8:1.1805 9:0.5235 10:0.283 11:0.3275 
-1 2:1 3:0 4:0 5:0.65 6:0.52 7:0.175 8:1.2655 9:0.615 10:0.2775 11:0.336 
-2 2:0 3:1 4:0 5:0.665 6:0.505 7:0.165 8:1.349 9:0.5985 10:0.3175 11:0.36 
-1 2:1 3:0 4:0 5:0.725 6:0.55 7:0.2 8:1.51 9:0.8735 10:0.4265 11:0.5085 
1 2:0 3:0 4:1 5:0.355 6:0.255 7:0.08 8:0.187 9:0.078 10:0.0505 11:0.058 
1 2:0 3:0 4:1 5:0.37 6:0.275 7:0.09 8:0.2065 9:0.096 10:0.0395 11:0.058 
1 2:0 3:0 4:1 5:0.375 6:0.29 7:0.14 8:0.3 9:0.14 10:0.0625 11:0.0825 
1 2:0 3:0 4:1 5:0.375 6:0.275 7:0.095 8:0.2295 9:0.095 10:0.0545 11:0.066 
1 2:0 3:0 4:1 5:0.385 6:0.3 7:0.125 8:0.343 9:0.1705 10:0.0735 11:0.081 
1 2:0 3:0 4:1 5:0.385 6:0.285 7:0.085 8:0.244 9:0.1215 10:0.0445 11:0.068 
1 2:0 3:0 4:1 5:0.395 6:0.32 7:0.1 8:0.3075 9:0.149 10:0.0535 11:0.09 
1 2:0 3:0 4:1 5:0.4 6:0.305 7:0.1 8:0.3415 9:0.176 10:0.0625 11:0.0865 
-1 2:0 3:0 4:1 5:0.405 6:0.31 7:0.11 8:0.91 9:0.416 10:0.2075 11:0.0995 
1 2:0 3:0 4:1 5:0.405 6:0.305 7:0.1 8:0.268 9:0.1145 10:0.053 11:0.085 
1 2:0 3:0 4:1 5:0.41 6:0.315 7:0.1 8:0.3 9:0.124 10:0.0575 11:0.1 
1 2:0 3:0 4:1 5:0.41 6:0.325 7:0.11 8:0.326 9:0.1325 10:0.075 11:0.101 
1 2:0 3:0 4:1 5:0.415 6:0.335 7:0.1 8:0.358 9:0.169 10:0.067 11:0.105 
1 2:0 3:0 4:1 5:0.42 6:0.315 7:0.11 8:0.4025 9:0.1855 10:0.083 11:0.1015 
1 2:0 3:0 4:1 5:0.43 6:0.34 7:0.11 8:0.3645 9:0.159 10:0.0855 11:0.105 
-0.2257653827069694 2:0 3:0 4:1 5:0.445 6:0.36 7:0.11 8:0.4235 9:0.182 10:0.0765 11:0.14 
-1 2:1 3:0 4:0 5:0.45 6:0.325 7:0.115 8:0.4305 9:0.2235 10:0.0785 11:0.1155 
1 2:0 3:0 4:1 5:0.45 6:0.335 7:0.095 8:0.3505 9:0.1615 10:0.0625 11:0.1185 
1 2:0 3:0 4:1 5:0.46 6:0.35 7:0.1 8:0.471 9:0.252 10:0.077 11:0.123 
1 2:0 3:0 4:1 5:0.46 6:0.345 7:0.105 8:0.415 9:0.187 10:0.087 11:0.11 
-1 2:0 3:0 4:1 5:0.475 6:0.355 7:0.115 8:0.5195 9:0.279 10:0.088 11:0.1325 
-1 2:0 3:0 4:1 5:0.485 6:0.365 7:0.14 8:0.4475 9:0.1895 10:0.0925 11:0.2305 
-1 2:0 3:1 4:0 5:0.515 6:0.395 7:0.135 8:0.516 9:0.2015 10:0.132 11:0.162 
-1 2:1 3:0 4:0 5:0.515 6:0.41 7:0.14 8:0.7355 9:0.3065 10:0.137 11:0.2 
-1 2:0 3:0 4:1 5:0.525 6:0.385 7:0.13 8:0.607 9:0.2355 10:0.125 11:0.195 
-1 2:0 3:0 4:1 5:0.525 6:0.4 7:0.13 8:0.6445 9:0.345 10:0.1285 11:0.2 
-1 2:0 3:0 4:1 5:0.525 6:0.375 7:0.12 8:0.6315 9:0.3045 10:0.114 11:0.19 
-1 2:0 3:0 4:1 5:0.55 6:0.42 7:0.155 8:0.912 9:0.495 10:0.1805 11:0.205 
-1 2:0 3:0 4:1 5:0.55 6:0.465 7:0.15 8:0.936 9:0.481 10:0.174 11:0.2435 
-1 2:0 3:1 4:0 5:0.575 6:0.435 7:0.155 8:0.8975 9:0.4115 10:0.2325 11:0.23 
-1 2:0 3:1 4:0 5:0.585 6:0.455 7:0.13 8:0.8755 9:0.411 10:0.2065 11:0.225 
-1 2:1 3:0 4:0 5:0.59 6:0.47 7:0.145 8:0.9235 9:0.4545 10:0.173 11:0.254 
-1 2:1 3:0 4:0 5:0.6 6:0.48 7:0.09 8:1.05 9:0.457 10:0.2685 11:0.28 
-1 2:1 3:0 4:0 5:0.6 6:0.45 7:0.145 8:0.877 9:0.4325 10:0.155 11:0.24 
-1 2:1 3:0 4:0 5:0.6 6:0.51 7:0.185 8:1.285 9:0.6095 10:0.2745 11:0.315 
-1 2:0 3:1 4:0 5:0.62 6:0.465 7:0.14 8:1.1605 9:0.6005 10:0.2195 11:0.307 
-2 2:0 3:1 4:0 5:0.66 6:0.505 7:0.19 8:1.4045 9:0.6255 10:0.3375 11:0.3745 
-1 2:1 3:0 4:0 5:0.725 6:0.57 7:0.19 8:2.3305 9:1.253 10:0.541 11:0.52 
1 2:0 3:0 4:1 5:0.32 6:0.235 7:0.09 8:0.183 9:0.098 10:0.0335 11:0.042 
1 2:0 3:0 4:1 5:0.33 6:0.225 7:0.075 8:0.187 9:0.0945 10:0.0395 11:0.0425 
1 2:0 3:0 4:1 5:0.36 6:0.27 7:0.09 8:0.232 9:0.12 10:0.0435 11:0.056 
1 2:0 3:0 4:1 5:0.39 6:0.29 7:0.09 8:0.2625 9:0.117 10:0.054 11:0.077 
1 2:0 3:0 4:1 5:0.45 6:0.335 7:0.105 8:0.362 9:0.1575 10:0.0795 11:0.1095 
1 2:0 3:0 4:1 5:0.455 6:0.35 7:0.105 8:0.4445 9:0.213 10:0.107 11:0.1115 
-1 2:0 3:0 4:1 5:0.46 6:0.365 7:0.115 8:0.511 9:0.2365 10:0.118 11:0.123 
-1 2:1 3:0 4:0 5:0.5 6:0.365 7:0.13 8:0.5945 9:0.309 10:0.1085 11:0.1535 
-1 2:1 3:0 4:0 5:0.535 6:0.405 7:0.14 8:0.818 9:0.402 10:0.1715 11:0.189 
-1 2:0 3:1 4:0 5:0.54 6:0.42 7:0.14 8:0.8035 9:0.38 10:0.1805 11:0.21 
-1 2:0 3:1 4:0 5:0.54 6:0.415 7:0.15 8:0.8115 9:0.3875 10:0.1875 11:0.2035 
-1 2:0 3:1 4:0 5:0.57 6:0.425 7:0.13 8:0.782 9:0.3695 10:0.1745 11:0.1965 
-1 2:0 3:1 4:0 5:0.58 6:0.445 7:0.135 8:0.95 9:0.484 10:0.182 11:0.2325 
-2 2:1 3:0 4:0 5:0.595 6:0.435 7:0.16 8:1.057 9:0.4255 10:0.224 11:0.31 
-1 2:1 3:0 4:0 5:0.6 6:0.475 7:0.175 8:1.11 9:0.5105 10:0.256 11:0.285 
-2 2:0 3:1 4:0 5:0.645 6:0.49 7:0.16 8:1.144 9:0.5015 10:0.289 11:0.319 
1 2:0 3:0 4:1 5:0.37 6:0.27 7:0.09 8:0.1855 9:0.07 10:0.0425 11:0.065 
1 2:0 3:0 4:1 5:0.4 6:0.315 7:0.09 8:0.3245 9:0.151 10:0.073 11:0.088 
1 2:0 3:0 4:1 5:0.425 6:0.34 7:0.1 8:0.371 9:0.15 10:0.0865 11:0.115 
1 2:0 3:0 4:1 5:0.435 6:0.335 7:0.095 8:0.298 9:0.109 10:0.058 11:0.115 
-1 2:0 3:0 4:1 5:0.46 6:0.36 7:0.14 8:0.447 9:0.161 10:0.087 11:0.16 
-1 2:0 3:1 4:0 5:0.465 6:0.35 7:0.11 8:0.4085 9:0.165 10:0.102 11:0.131 
-1 2:0 3:0 4:1 5:0.47 6:0.385 7:0.13 8:0.587 9:0.264 10:0.117 11:0.174 
-1 2:0 3:0 4:1 5:0.475 6:0.375 7:0.11 8:0.494 9:0.211 10:0.109 11:0.1545 
-1 2:0 3:0 4:1 5:0.5 6:0.39 7:0.13 8:0.5075 9:0.2115 10:0.104 11:0.1755 
-1 2:0 3:0 4:1 5:0.5 6:0.37 7:0.12 8:0.5445 9:0.249 10:0.1065 11:0.152 
-1 2:0 3:0 4:1 5:0.505 6:0.425 7:0.125 8:0.6115 9:0.245 10:0.1375 11:0.2 
-1 2:0 3:0 4:1 5:0.505 6:0.4 7:0.125 8:0.5605 9:0.2255 10:0.1435 11:0.17 
-1 2:1 3:0 4:0 5:0.505 6:0.365 7:0.115 8:0.521 9:0.25 10:0.096 11:0.15 
-1 2:0 3:0 4:1 5:0.51 6:0.4 7:0.145 8:0.5775 9:0.231 10:0.143 11:0.177 
-1 2:0 3:0 4:1 5:0.51 6:0.4 7:0.125 8:0.5935 9:0.239 10:0.13 11:0.204 
-1 2:0 3:0 4:1 5:0.52 6:0.4 7:0.11 8:0.597 9:0.2935 10:0.1155 11:0.16 
-1 2:1 3:0 4:0 5:0.52 6:0.465 7:0.15 8:0.9505 9:0.456 10:0.199 11:0.255 
-1 2:0 3:0 4:1 5:0.53 6:0.38 7:0.125 8:0.616 9:0.292 10:0.113 11:0.185 
-1 2:0 3:1 4:0 5:0.535 6:0.445 7:0.125 8:0.8725 9:0.417 10:0.199 11:0.24 
-1 2:0 3:0 4:1 5:0.545 6:0.43 7:0.13 8:0.7595 9:0.358 10:0.153 11:0.2055 
-1 2:0 3:0 4:1 5:0.55 6:0.435 7:0.165 8:0.804 9:0.34 10:0.194 11:0.244 
-1 2:0 3:0 4:1 5:0.55 6:0.425 7:0.13 8:0.664 9:0.2695 10:0.163 11:0.21 
-1 2:0 3:1 4:0 5:0.55 6:0.435 7:0.14 8:0.745 9:0.347 10:0.174 11:0.2265 
-1 2:0 3:0 4:1 5:0.56 6:0.43 7:0.13 8:0.728 9:0.3355 10:0.1435 11:0.2175 
-1 2:0 3:0 4:1 5:0.56 6:0.435 7:0.13 8:0.777 9:0.354 10:0.173 11:0.222 
-1 2:0 3:0 4:1 5:0.575 6:0.455 7:0.16 8:0.9895 9:0.495 10:0.195 11:0.246 
-1 2:0 3:1 4:0 5:0.58 6:0.45 7:0.17 8:0.9705 9:0.4615 10:0.232 11:0.248 
-2 2:0 3:1 4:0 5:0.58 6:0.45 7:0.15 8:0.92 9:0.393 10:0.212 11:0.2895 
-1 2:0 3:0 4:1 5:0.585 6:0.45 7:0.135 8:0.855 9:0.3795 10:0.187 11:0.26 
-1 2:0 3:0 4:1 5:0.59 6:0.46 7:0.125 8:0.755 9:0.334 10:0.15 11:0.238 
-1 2:0 3:0 4:1 5:0.6 6:0.445 7:0.135 8:0.9205 9:0.445 10:0.2035 11:0.253 
-3 2:1 3:0 4:0 5:0.605 6:0.49 7:0.18 8:1.167 9:0.457 10:0.29 11:0.3745 
-1 2:0 3:1 4:0 5:0.615 6:0.515 7:0.135 8:1.1215 9:0.545 10:0.2305 11:0.29 
-1 2:0 3:1 4:0 5:0.62 6:0.475 7:0.15 8:0.9545 9:0.455 10:0.1865 11:0.277 
-1 2:1 3:0 4:0 5:0.63 6:0.53 7:0.18 8:1.2795 9:0.618 10:0.256 11:0.315 
-1 2:1 3:0 4:0 5:0.67 6:0.525 7:0.17 8:1.4005 9:0.715 10:0.3025 11:0.387 
-2 2:1 3:0 4:0 5:0.67 6:0.525 7:0.195 8:1.4405 9:0.6595 10:0.2675 11:0.425 
1 2:0 3:0 4:1 5:0.43 6:0.345 7:0.115 8:0.4295 9:0.212 10:0.108 11:0.109 
-1 2:1 3:0 4:0 5:0.49 6:0.355 7:0.155 8:0.981 9:0.465 10:0.2015 11:0.2505 
-1 2:0 3:0 4:1 5:0.5 6:0.37 7:0.115 8:0.5745 9:0.306 10:0.112 11:0.141 
-1 2:0 3:1 4:0 5:0.505 6:0.38 7:0.13 8:0.693 9:0.391 10:0.1195 11:0.1515 
-2 2:0 3:1 4:0 5:0.51 6:0.37 7:0.21 8:1.183 9:0.508 10:0.292 11:0.343 
-1 2:0 3:1 4:0 5:0.525 6:0.41 7:0.135 8:0.7905 9:0.4065 10:0.198 11:0.177 
-1 2:1 3:0 4:0 5:0.555 6:0.425 7:0.15 8:0.873 9:0.4625 10:0.1845 11:0.1965 
-1 2:1 3:0 4:0 5:0.56 6:0.425 7:0.135 8:0.9415 9:0.509 10:0.2015 11:0.1975 
-1 2:1 3:0 4:0 5:0.595 6:0.485 7:0.15 8:1.0835 9:0.5305 10:0.231 11:0.276 
-2 2:1 3:0 4:0 5:0.61 6:0.475 7:0.175 8:1.024 9:0.409 10:0.261 11:0.322 
-1 2:1 3:0 4:0 5:0.61 6:0.485 7:0.17 8:1.281 9:0.597 10:0.3035 11:0.33 
-1 2:1 3:0 4:0 5:0.64 6:0.485 7:0.16 8:1.006 9:0.456 10:0.2245 11:0.2835 
1 2:0 3:0 4:1 5:0.375 6:0.285 7:0.09 8:0.237 9:0.106 10:0.0395 11:0.08 
1 2:0 3:0 4:1 5:0.39 6:0.3 7:0.1 8:0.2665 9:0.1105 10:0.059 11:0.084 
1 2:0 3:0 4:1 5:0.39 6:0.28 7:0.09 8:0.215 9:0.0845 10:0.034 11:0.079 
1 2:0 3:0 4:1 5:0.435 6:0.325 7:0.105 8:0.335 9:0.136 10:0.065 11:0.115 
1 2:0 3:0 4:1 5:0.44 6:0.32 7:0.105 8:0.3875 9:0.1755 10:0.074 11:0.12 
1 2:0 3:0 4:1 5:0.45 6:0.33 7:0.115 8:0.365 9:0.14 10:0.0825 11:0.1245 
1 2:0 3:0 4:1 5:0.455 6:0.355 7:0.105 8:0.372 9:0.138 10:0.0765 11:0.135 
-1 2:0 3:0 4:1 5:0.495 6:0.33 7:0.1 8:0.44 9:0.177 10:0.095 11:0.15 
-1 2:0 3:0 4:1 5:0.495 6:0.375 7:0.115 8:0.507 9:0.241 10:0.103 11:0.15 
-1 2:0 3:0 4:1 5:0.515 6:0.385 7:0.125 8:0.572 9:0.237 10:0.1435 11:0.165 
-1 2:0 3:0 4:1 5:0.525 6:0.4 7:0.11 8:0.6275 9:0.3015 10:0.126 11:0.18 
-1 2:0 3:0 4:1 5:0.535 6:0.42 7:0.145 8:0.6885 9:0.273 10:0.1515 11:0.237 
-1 2:1 3:0 4:0 5:0.535 6:0.41 7:0.12 8:0.6835 9:0.3125 10:0.1655 11:0.159 
-1 2:1 3:0 4:0 5:0.56 6:0.45 7:0.145 8:0.894 9:0.3885 10:0.2095 11:0.264 
-1 2:0 3:0 4:1 5:0.575 6:0.445 7:0.16 8:0.9175 9:0.45 10:0.1935 11:0.24 
-1 2:1 3:0 4:0 5:0.59 6:0.435 7:0.165 8:0.9765 9:0.4525 10:0.2395 11:0.235 
-1 2:1 3:0 4:0 5:0.59 6:0.405 7:0.15 8:0.853 9:0.326 10:0.2615 11:0.245 
-1 2:1 3:0 4:0 5:0.595 6:0.48 7:0.14 8:0.9125 9:0.4095 10:0.1825 11:0.289 
-2 2:0 3:1 4:0 5:0.595 6:0.46 7:0.16 8:0.921 9:0.4005 10:0.2025 11:0.2875 
-2 2:0 3:1 4:0 5:0.635 6:0.49 7:0.155 8:1.145 9:0.4775 10:0.3035 11:0.3155 
-2 2:0 3:1 4:0 5:0.64 6:0.5 7:0.15 8:1.2015 9:0.559 10:0.231 11:0.3355 
-2 2:0 3:1 4:0 5:0.655 6:0.49 7:0.16 8:1.204 9:0.5455 10:0.2615 11:0.3225 
1 2:0 3:0 4:1 5:0.425 6:0.31 7:0.095 8:0.3075 9:0.139 10:0.0745 11:0.093 
-1 2:1 3:0 4:0 5:0.525 6:0.4 7:0.13 8:0.622 9:0.2655 10:0.147 11:0.184 
-1 2:1 3:0 4:0 5:0.53 6:0.415 7:0.12 8:0.706 9:0.3355 10:0.1635 11:0.1345 
-1 2:0 3:1 4:0 5:0.53 6:0.395 7:0.115 8:0.5685 9:0.249 10:0.1375 11:0.161 
-1 2:0 3:1 4:0 5:0.55 6:0.43 7:0.15 8:0.655 9:0.2635 10:0.122 11:0.221 
-1 2:1 3:0 4:0 5:0.575 6:0.48 7:0.15 8:0.9465 9:0.4355 10:0.2605 11:0.2505 
-2 2:1 3:0 4:0 5:0.6 6:0.465 7:0.18 8:1.193 9:0.5145 10:0.315 11:0.3055 
1 2:0 3:0 4:1 5:0.375 6:0.285 7:0.08 8:0.226 9:0.0975 10:0.04 11:0.0725 
1 2:0 3:0 4:1 5:0.38 6:0.29 7:0.085 8:0.2285 9:0.088 10:0.0465 11:0.075 
1 2:0 3:0 4:1 5:0.395 6:0.3 7:0.12 8:0.2995 9:0.1265 10:0.068 11:0.0895 
1 2:0 3:0 4:1 5:0.41 6:0.325 7:0.105 8:0.361 9:0.1605 10:0.0665 11:0.103 
1 2:0 3:0 4:1 5:0.415 6:0.32 7:0.115 8:0.3045 9:0.1215 10:0.0735 11:0.094 
1 2:0 3:0 4:1 5:0.425 6:0.325 7:0.105 8:0.3975 9:0.1815 10:0.081 11:0.1175 
1 2:0 3:0 4:1 5:0.44 6:0.34 7:0.1 8:0.379 9:0.1725 10:0.0815 11:0.101 
-1 2:1 3:0 4:0 5:0.51 6:0.415 7:0.145 8:0.751 9:0.3295 10:0.1835 11:0.203 
-1 2:0 3:1 4:0 5:0.525 6:0.4 7:0.13 8:0.6995 9:0.3115 10:0.131 11:0.223 
-1 2:1 3:0 4:0 5:0.56 6:0.42 7:0.15 8:0.8755 9:0.44 10:0.1965 11:0.2315 
-2 2:0 3:1 4:0 5:0.62 6:0.485 7:0.155 8:1.1945 9:0.5105 10:0.271 11:0.352 
-1 2:0 3:1 4:0 5:0.485 6:0.39 7:0.1 8:0.5565 9:0.2215 10:0.1155 11:0.185 
-1 2:1 3:0 4:0 5:0.46 6:0.36 7:0.125 8:0.547 9:0.2165 10:0.1105 11:0.19 
-1 2:1 3:0 4:0 5:0.46 6:0.35 7:0.125 8:0.5165 9:0.1885 10:0.1145 11:0.185 
-1 2:1 3:0 4:0 5:0.425 6:0.335 7:0.1 8:0.4085 9:0.1755 10:0.092 11:0.135 
-1 2:1 3:0 4:0 5:0.54 6:0.41 7:0.13 8:0.56 9:0.2375 10:0.1065 11:0.175 
-1 2:1 3:0 4:0 5:0.505 6:0.395 7:0.125 8:0.635 9:0.29 10:0.1555 11:0.175 
-1 2:0 3:1 4:0 5:0.43 6:0.35 7:0.09 8:0.397 9:0.1575 10:0.089 11:0.12 
1 2:0 3:0 4:1 5:0.275 6:0.2 7:0.065 8:0.1165 9:0.0565 10:0.013 11:0.035 
-1 2:0 3:1 4:0 5:0.55 6:0.44 7:0.125 8:0.765 9:0.33 10:0.2125 11:0.245 
-1 2:0 3:1 4:0 5:0.545 6:0.41 7:0.115 8:0.6765 9:0.29 10:0.158 11:0.22 
-1 2:1 3:0 4:0 5:0.38 6:0.3 7:0.1 8:0.2505 9:0.106 10:0.0535 11:0.0775 
1 2:0 3:0 4:1 5:0.27 6:0.195 7:0.07 8:0.102 9:0.045 10:0.0135 11:0.034 
-1 2:0 3:1 4:0 5:0.51 6:0.385 7:0.135 8:0.632 9:0.282 10:0.145 11:0.17 
-1 2:1 3:0 4:0 5:0.55 6:0.405 7:0.15 8:0.9235 9:0.412 10:0.2135 11:0.24 
-1 2:0 3:1 4:0 5:0.49 6:0.38 7:0.155 8:0.578 9:0.2395 10:0.1255 11:0.18 
-1 2:1 3:0 4:0 5:0.335 6:0.265 7:0.095 8:0.1975 9:0.0795 10:0.0375 11:0.07 
1 2:0 3:0 4:1 5:0.295 6:0.215 7:0.075 8:0.116 9:0.037 10:0.0295 11:0.04 
-1 2:1 3:0 4:0 5:0.385 6:0.305 7:0.09 8:0.2775 9:0.109 10:0.0515 11:0.1 
-1 2:1 3:0 4:0 5:0.52 6:0.415 7:0.175 8:0.753 9:0.258 10:0.171 11:0.255 
1 2:0 3:0 4:1 5:0.345 6:0.285 7:0.1 8:0.2225 9:0.0865 10:0.058 11:0.075 
-1 2:0 3:1 4:0 5:0.435 6:0.35 7:0.125 8:0.459 9:0.197 10:0.1145 11:0.145 
-1 2:0 3:0 4:1 5:0.455 6:0.375 7:0.125 8:0.533 9:0.233 10:0.106 11:0.185 
-1 2:0 3:1 4:0 5:0.45 6:0.325 7:0.135 8:0.438 9:0.1805 10:0.1165 11:0.11 
-1 2:0 3:0 4:1 5:0.485 6:0.355 7:0.12 8:0.5085 9:0.21 10:0.122 11:0.135 
1 2:1 3:0 4:0 5:0.265 6:0.2 7:0.065 8:0.084 9:0.034 10:0.0105 11:0.03 
-1 2:0 3:0 4:1 5:0.475 6:0.365 7:0.14 8:0.4545 9:0.171 10:0.118 11:0.158 
1 2:0 3:0 4:1 5:0.375 6:0.285 7:0.1 8:0.239 9:0.105 10:0.0555 11:0.07 
-1 2:1 3:0 4:0 5:0.41 6:0.315 7:0.095 8:0.306 9:0.121 10:0.0735 11:0.09 
-1 2:1 3:0 4:0 5:0.41 6:0.3 7:0.1 8:0.301 9:0.124 10:0.069 11:0.09 
-1 2:1 3:0 4:0 5:0.335 6:0.255 7:0.075 8:0.1635 9:0.0615 10:0.0345 11:0.057 
1 2:0 3:0 4:1 5:0.295 6:0.21 7:0.08 8:0.1 9:0.038 10:0.026 11:0.031 
-1 2:0 3:1 4:0 5:0.305 6:0.225 7:0.07 8:0.1485 9:0.0585 10:0.0335 11:0.045 
-1 2:1 3:0 4:0 5:0.365 6:0.285 7:0.085 8:0.2205 9:0.0855 10:0.0515 11:0.07 
-1 2:0 3:1 4:0 5:0.46 6:0.35 7:0.115 8:0.44 9:0.19 10:0.1025 11:0.13 
1 2:0 3:0 4:1 5:0.35 6:0.265 7:0.11 8:0.209 9:0.066 10:0.059 11:0.075 
1 2:0 3:0 4:1 5:0.35 6:0.28 7:0.075 8:0.196 9:0.082 10:0.04 11:0.064 
1 2:0 3:0 4:1 5:0.39 6:0.315 7:0.09 8:0.3095 9:0.147 10:0.05 11:0.09 
1 2:0 3:0 4:1 5:0.395 6:0.31 7:0.095 8:0.313 9:0.131 10:0.072 11:0.093 
1 2:0 3:0 4:1 5:0.43 6:0.32 7:0.1 8:0.3855 9:0.192 10:0.0745 11:0.1 
-1 2:1 3:0 4:0 5:0.49 6:0.395 7:0.12 8:0.674 9:0.3325 10:0.1235 11:0.185 
-1 2:0 3:1 4:0 5:0.49 6:0.37 7:0.105 8:0.5265 9:0.249 10:0.1005 11:0.148 
-2 2:0 3:1 4:0 5:0.56 6:0.465 7:0.16 8:1.0315 9:0.432 10:0.2025 11:0.337 
-1 2:1 3:0 4:0 5:0.56 6:0.45 7:0.14 8:0.9 9:0.472 10:0.182 11:0.218 
-3 2:0 3:1 4:0 5:0.58 6:0.48 7:0.18 8:1.2495 9:0.4945 10:0.27 11:0.371 
-1 2:1 3:0 4:0 5:0.59 6:0.47 7:0.135 8:1.1685 9:0.539 10:0.279 11:0.28 
1 2:0 3:0 4:1 5:0.375 6:0.285 7:0.09 8:0.257 9:0.1045 10:0.062 11:0.075 
1 2:0 3:0 4:1 5:0.395 6:0.3 7:0.09 8:0.279 9:0.134 10:0.049 11:0.075 
-1 2:0 3:0 4:1 5:0.465 6:0.37 7:0.1 8:0.5055 9:0.234 10:0.11 11:0.14 
-1 2:0 3:1 4:0 5:0.465 6:0.355 7:0.115 8:0.4705 9:0.1955 10:0.118 11:0.126 
-1 2:1 3:0 4:0 5:0.48 6:0.37 7:0.13 8:0.643 9:0.349 10:0.1155 11:0.135 
-1 2:0 3:0 4:1 5:0.485 6:0.37 7:0.1 8:0.513 9:0.219 10:0.1075 11:0.13 
-1 2:0 3:0 4:1 5:0.5 6:0.385 7:0.11 8:0.596 9:0.3015 10:0.104 11:0.151 
-1 2:1 3:0 4:0 5:0.52 6:0.39 7:0.12 8:0.6435 9:0.2885 10:0.157 11:0.161 
-1 2:1 3:0 4:0 5:0.52 6:0.395 7:0.125 8:0.8115 9:0.4035 10:0.166 11:0.2 
-1 2:0 3:1 4:0 5:0.525 6:0.44 7:0.125 8:0.7115 9:0.3205 10:0.159 11:0.1915 
-1 2:1 3:0 4:0 5:0.55 6:0.44 7:0.155 8:0.9155 9:0.3645 10:0.195 11:0.25 
-1 2:0 3:1 4:0 5:0.555 6:0.44 7:0.145 8:0.8815 9:0.43 10:0.1975 11:0.2155 
-1 2:0 3:1 4:0 5:0.555 6:0.42 7:0.11 8:0.931 9:0.4445 10:0.171 11:0.225 
-1 2:0 3:1 4:0 5:0.575 6:0.46 7:0.165 8:1.065 9:0.4985 10:0.2145 11:0.2815 
-2 2:1 3:0 4:0 5:0.6 6:0.475 7:0.155 8:1.1385 9:0.502 10:0.2295 11:0.31 
-2 2:1 3:0 4:0 5:0.615 6:0.505 7:0.19 8:1.403 9:0.6715 10:0.2925 11:0.365 
-2 2:0 3:1 4:0 5:0.64 6:0.48 7:0.195 8:1.1435 9:0.4915 10:0.2345 11:0.353 
-2 2:1 3:0 4:0 5:0.64 6:0.5 7:0.17 8:1.4545 9:0.642 10:0.3575 11:0.354 
-1 2:0 3:1 4:0 5:0.725 6:0.58 7:0.185 8:1.523 9:0.8045 10:0.3595 11:0.4375 
1 2:0 3:0 4:1 5:0.4 6:0.29 7:0.1 8:0.258 9:0.104 10:0.059 11:0.0815 
1 2:0 3:0 4:1 5:0.435 6:0.335 7:0.11 8:0.411 9:0.2025 10:0.0945 11:0.1 
1 2:0 3:0 4:1 5:0.45 6:0.34 7:0.105 8:0.4385 9:0.21 10:0.0925 11:0.12 
-1 2:0 3:0 4:1 5:0.47 6:0.355 7:0.145 8:0.4485 9:0.156 10:0.102 11:0.123 
-1 2:0 3:0 4:1 5:0.47 6:0.355 7:0.115 8:0.4155 9:0.167 10:0.084 11:0.139 
-1 2:0 3:0 4:1 5:0.475 6:0.42 7:0.16 8:0.7095 9:0.35 10:0.1505 11:0.1845 
-1 2:0 3:0 4:1 5:0.485 6:0.37 7:0.115 8:0.637 9:0.38 10:0.1335 11:0.128 
-1 2:0 3:1 4:0 5:0.505 6:0.475 7:0.16 8:1.1155 9:0.509 10:0.239 11:0.3065 
-1 2:0 3:0 4:1 5:0.52 6:0.38 7:0.13 8:0.5345 9:0.2375 10:0.122 11:0.1535 
-1 2:0 3:1 4:0 5:0.53 6:0.42 7:0.14 8:0.627 9:0.2905 10:0.1165 11:0.183 
-1 2:1 3:0 4:0 5:0.55 6:0.44 7:0.16 8:0.985 9:0.4645 10:0.201 11:0.27 
-1 2:1 3:0 4:0 5:0.555 6:0.44 7:0.145 8:0.85 9:0.4165 10:0.1685 11:0.23 
-1 2:0 3:1 4:0 5:0.555 6:0.43 7:0.135 8:0.812 9:0.4055 10:0.163 11:0.2215 
-1 2:1 3:0 4:0 5:0.56 6:0.415 7:0.13 8:0.7615 9:0.3695 10:0.17 11:0.1955 
-1 2:0 3:1 4:0 5:0.585 6:0.45 7:0.145 8:0.9835 9:0.4845 10:0.242 11:0.22 
-1 2:0 3:1 4:0 5:0.595 6:0.47 7:0.165 8:1.0155 9:0.491 10:0.1905 11:0.289 
-1 2:1 3:0 4:0 5:0.6 6:0.41 7:0.145 8:0.939 9:0.4475 10:0.196 11:0.268 
-1 2:1 3:0 4:0 5:0.625 6:0.47 7:0.175 8:1.179 9:0.605 10:0.258 11:0.271 
-2 2:0 3:1 4:0 5:0.64 6:0.475 7:0.175 8:1.1545 9:0.4865 10:0.341 11:0.288 
-1 2:1 3:0 4:0 5:0.65 6:0.505 7:0.18 8:1.469 9:0.7115 10:0.3335 11:0.38 
-2 2:0 3:1 4:0 5:0.66 6:0.5 7:0.175 8:1.3275 9:0.556 10:0.2805 11:0.4085 
1 2:0 3:0 4:1 5:0.35 6:0.26 7:0.09 8:0.1765 9:0.072 10:0.0355 11:0.0575 
1 2:0 3:0 4:1 5:0.36 6:0.265 7:0.09 8:0.2055 9:0.096 10:0.037 11:0.0585 
1 2:0 3:0 4:1 5:0.365 6:0.275 7:0.09 8:0.2345 9:0.108 10:0.051 11:0.0625 
1 2:0 3:0 4:1 5:0.425 6:0.325 7:0.11 8:0.405 9:0.1695 10:0.092 11:0.1065 
-1 2:1 3:0 4:0 5:0.435 6:0.335 7:0.11 8:0.4385 9:0.2075 10:0.0715 11:0.1315 
1 2:0 3:0 4:1 5:0.445 6:0.355 7:0.095 8:0.3615 9:0.1415 10:0.0785 11:0.12 
-1 2:0 3:0 4:1 5:0.45 6:0.35 7:0.11 8:0.514 9:0.253 10:0.1045 11:0.14 
-1 2:0 3:0 4:1 5:0.455 6:0.435 7:0.11 8:0.4265 9:0.195 10:0.09 11:0.1205 
1 2:0 3:0 4:1 5:0.46 6:0.34 7:0.09 8:0.384 9:0.1795 10:0.068 11:0.11 
-1 2:0 3:0 4:1 5:0.475 6:0.355 7:0.125 8:0.4865 9:0.2155 10:0.1105 11:0.142 
-1 2:0 3:0 4:1 5:0.475 6:0.36 7:0.135 8:0.4355 9:0.196 10:0.0925 11:0.125 
-1 2:0 3:0 4:1 5:0.475 6:0.35 7:0.115 8:0.498 9:0.2375 10:0.099 11:0.14 
-1 2:1 3:0 4:0 5:0.505 6:0.39 7:0.115 8:0.5585 9:0.2575 10:0.119 11:0.1535 
-1 2:0 3:0 4:1 5:0.515 6:0.4 7:0.135 8:0.636 9:0.3055 10:0.1215 11:0.1855 
-1 2:0 3:0 4:1 5:0.525 6:0.39 7:0.105 8:0.567 9:0.2875 10:0.1075 11:0.16 
-1 2:0 3:0 4:1 5:0.53 6:0.405 7:0.13 8:0.6615 9:0.2945 10:0.1395 11:0.19 
-1 2:0 3:0 4:1 5:0.53 6:0.42 7:0.13 8:0.658 9:0.296 10:0.1245 11:0.198 
-1 2:1 3:0 4:0 5:0.535 6:0.415 7:0.135 8:0.78 9:0.3165 10:0.169 11:0.2365 
-1 2:0 3:0 4:1 5:0.535 6:0.41 7:0.13 8:0.6075 9:0.268 10:0.1225 11:0.1975 
-1 2:0 3:0 4:1 5:0.54 6:0.41 7:0.135 8:0.7025 9:0.31 10:0.177 11:0.2 
-1 2:0 3:0 4:1 5:0.57 6:0.42 7:0.13 8:0.7745 9:0.3535 10:0.1505 11:0.2365 
-1 2:0 3:1 4:0 5:0.57 6:0.42 7:0.16 8:0.8875 9:0.4315 10:0.1915 11:0.223 
-1 2:0 3:0 4:1 5:0.575 6:0.455 7:0.155 8:0.8725 9:0.349 10:0.2095 11:0.285 
-1 2:0 3:0 4:1 5:0.575 6:0.44 7:0.125 8:0.8515 9:0.4555 10:0.1715 11:0.1965 
-1 2:1 3:0 4:0 5:0.575 6:0.45 7:0.155 8:0.886 9:0.3605 10:0.211 11:0.2575 
-1 2:1 3:0 4:0 5:0.58 6:0.47 7:0.165 8:1.041 9:0.54 10:0.166 11:0.279 
-1 2:0 3:1 4:0 5:0.585 6:0.46 7:0.165 8:1.058 9:0.486 10:0.25 11:0.294 
-2 2:0 3:1 4:0 5:0.6 6:0.47 7:0.17 8:1.0805 9:0.4995 10:0.2245 11:0.3205 
-1 2:1 3:0 4:0 5:0.6 6:0.47 7:0.15 8:0.928 9:0.4225 10:0.183 11:0.275 
-1 2:0 3:1 4:0 5:0.6 6:0.485 7:0.145 8:0.776 9:0.3545 10:0.1585 11:0.239 
-1 2:1 3:0 4:0 5:0.625 6:0.48 7:0.16 8:1.1415 9:0.5795 10:0.2145 11:0.29 
1 2:0 3:0 4:1 5:0.37 6:0.285 7:0.095 8:0.226 9:0.1135 10:0.0515 11:0.0675 
1 2:0 3:0 4:1 5:0.42 6:0.325 7:0.11 8:0.325 9:0.1245 10:0.0755 11:0.1025 
-1 2:0 3:0 4:1 5:0.495 6:0.375 7:0.115 8:0.5755 9:0.31 10:0.1145 11:0.1395 
-1 2:0 3:1 4:0 5:0.51 6:0.375 7:0.11 8:0.5805 9:0.2865 10:0.118 11:0.148 
-1 2:1 3:0 4:0 5:0.545 6:0.43 7:0.155 8:0.8035 9:0.409 10:0.144 11:0.228 
-1 2:0 3:1 4:0 5:0.555 6:0.405 7:0.12 8:0.913 9:0.4585 10:0.196 11:0.2065 
-1 2:1 3:0 4:0 5:0.58 6:0.45 7:0.16 8:0.8675 9:0.3935 10:0.221 11:0.215 
-1 2:1 3:0 4:0 5:0.615 6:0.475 7:0.19 8:1.4335 9:0.7315 10:0.305 11:0.3285 
-1 2:1 3:0 4:0 5:0.62 6:0.46 7:0.16 8:0.9505 9:0.4915 10:0.2 11:0.228 
-1 2:0 3:1 4:0 5:0.64 6:0.5 7:0.17 8:1.2645 9:0.565 10:0.3375 11:0.315 
-1 2:0 3:1 4:0 5:0.655 6:0.455 7:0.17 8:1.275 9:0.583 10:0.303 11:0.333 
-2 2:0 3:1 4:0 5:0.665 6:0.5 7:0.175 8:1.4355 9:0.643 10:0.345 11:0.37 
1 2:0 3:0 4:1 5:0.285 6:0.225 7:0.07 8:0.1005 9:0.0425 10:0.0185 11:0.035 
1 2:0 3:0 4:1 5:0.39 6:0.29 7:0.09 8:0.2745 9:0.135 10:0.0455 11:0.078 
1 2:0 3:0 4:1 5:0.44 6:0.34 7:0.105 8:0.344 9:0.123 10:0.081 11:0.125 
1 2:0 3:0 4:1 5:0.445 6:0.345 7:0.12 8:0.4035 9:0.169 10:0.0825 11:0.13 
-1 2:0 3:0 4:1 5:0.465 6:0.355 7:0.12 8:0.4975 9:0.2375 10:0.099 11:0.14 
1 2:0 3:0 4:1 5:0.47 6:0.345 7:0.12 8:0.3685 9:0.1525 10:0.0615 11:0.125 
-1 2:0 3:0 4:1 5:0.475 6:0.365 7:0.105 8:0.4175 9:0.1645 10:0.099 11:0.127 
-1 2:0 3:0 4:1 5:0.475 6:0.335 7:0.1 8:0.4425 9:0.1895 10:0.086 11:0.135 
-1 2:0 3:0 4:1 5:0.475 6:0.35 7:0.125 8:0.4225 9:0.1905 10:0.079 11:0.1355 
-1 2:0 3:0 4:1 5:0.485 6:0.365 7:0.125 8:0.426 9:0.163 10:0.0965 11:0.151 
-1 2:0 3:0 4:1 5:0.49 6:0.39 7:0.12 8:0.511 9:0.2205 10:0.103 11:0.1745 
-1 2:0 3:0 4:1 5:0.515 6:0.405 7:0.13 8:0.573 9:0.213 10:0.134 11:0.195 
-1 2:1 3:0 4:0 5:0.53 6:0.41 7:0.125 8:0.769 9:0.346 10:0.173 11:0.215 
-1 2:1 3:0 4:0 5:0.535 6:0.405 7:0.14 8:0.7315 9:0.336 10:0.156 11:0.19 
-1 2:1 3:0 4:0 5:0.545 6:0.41 7:0.14 8:0.737 9:0.349 10:0.15 11:0.212 
-1 2:0 3:0 4:1 5:0.55 6:0.45 7:0.14 8:0.753 9:0.3445 10:0.1325 11:0.24 
-1 2:0 3:0 4:1 5:0.55 6:0.4 7:0.135 8:0.717 9:0.3315 10:0.1495 11:0.221 
-1 2:0 3:0 4:1 5:0.555 6:0.43 7:0.15 8:0.783 9:0.345 10:0.1755 11:0.247 
-1 2:0 3:0 4:1 5:0.575 6:0.44 7:0.15 8:0.983 9:0.486 10:0.215 11:0.239 
-1 2:0 3:0 4:1 5:0.585 6:0.46 7:0.14 8:0.7635 9:0.326 10:0.153 11:0.265 
-1 2:1 3:0 4:0 5:0.59 6:0.465 7:0.135 8:0.9895 9:0.4235 10:0.199 11:0.28 
-2 2:0 3:1 4:0 5:0.61 6:0.495 7:0.165 8:1.0835 9:0.4525 10:0.273 11:0.317 
-2 2:0 3:1 4:0 5:0.63 6:0.505 7:0.195 8:1.306 9:0.516 10:0.3305 11:0.375 
-2 2:0 3:1 4:0 5:0.67 6:0.54 7:0.2 8:1.46 9:0.6435 10:0.328 11:0.4165 
1 2:0 3:0 4:1 5:0.35 6:0.25 7:0.1 8:0.4015 9:0.1725 10:0.063 11:0.1255 
1 2:0 3:0 4:1 5:0.36 6:0.25 7:0.115 8:0.465 9:0.21 10:0.1055 11:0.128 
1 2:0 3:0 4:1 5:0.38 6:0.28 7:0.095 8:0.2885 9:0.165 10:0.0435 11:0.067 
-1 2:0 3:1 4:0 5:0.38 6:0.32 7:0.115 8:0.6475 9:0.323 10:0.1325 11:0.164 
-1 2:1 3:0 4:0 5:0.43 6:0.31 7:0.13 8:0.6485 9:0.2735 10:0.163 11:0.184 
-1 2:0 3:0 4:1 5:0.47 6:0.355 7:0.12 8:0.4915 9:0.1765 10:0.1125 11:0.1325 
-1 2:0 3:1 4:0 5:0.485 6:0.365 7:0.15 8:0.9145 9:0.4145 10:0.199 11:0.273 
-1 2:1 3:0 4:0 5:0.495 6:0.375 7:0.155 8:0.976 9:0.45 10:0.2285 11:0.2475 
-1 2:0 3:0 4:1 5:0.5 6:0.395 7:0.145 8:0.7865 9:0.332 10:0.1815 11:0.2455 
-1 2:1 3:0 4:0 5:0.505 6:0.4 7:0.15 8:0.775 9:0.3445 10:0.157 11:0.185 
-1 2:1 3:0 4:0 5:0.51 6:0.38 7:0.135 8:0.681 9:0.3435 10:0.142 11:0.17 
-1 2:1 3:0 4:0 5:0.515 6:0.37 7:0.115 8:0.6145 9:0.3415 10:0.155 11:0.146 
-1 2:0 3:1 4:0 5:0.55 6:0.415 7:0.18 8:1.1655 9:0.502 10:0.301 11:0.311 
-1 2:1 3:0 4:0 5:0.615 6:0.475 7:0.15 8:1.0375 9:0.476 10:0.2325 11:0.283 
-1 2:1 3:0 4:0 5:0.625 6:0.47 7:0.15 8:1.124 9:0.556 10:0.2315 11:0.287 
-2 2:0 3:1 4:0 5:0.635 6:0.505 7:0.17 8:1.2635 9:0.512 10:0.322 11:0.355 
-1 2:0 3:1 4:0 5:0.65 6:0.525 7:0.165 8:1.238 9:0.647 10:0.2485 11:0.3005 
