svm_type svorim
kernel_type rbf
gamma 0.125
nr_class 10
total_sv 273
rho 0 -2.33162 -1.26436 -0.33151 0.453089 0.735655 1.66873 2.45307 2.73583 2.73591
SV
-2 2:8 3:360 4:215 5:4615 6:14 7:70 8:1 
-2 2:8 3:307 4:200 5:4376 6:15 7:70 8:1 
-2 2:8 3:318 4:210 5:4382 6:13.5 7:70 8:1 
-2 2:8 3:304 4:193 5:4732 6:18.5 7:70 8:1 
-2 2:8 3:429 4:208 5:4633 6:11 7:72 8:1 
-2 2:8 3:350 4:160 5:4456 6:13.5 7:72 8:1 
-2 2:8 3:455 4:225 5:4951 6:11 7:73 8:1 
-2 2:8 3:400 4:150 5:4997 6:14 7:73 8:1 
-2 2:8 3:400 4:167 5:4906 6:12.5 7:73 8:1 
-2 2:8 3:350 4:180 5:3664 6:11 7:73 8:1 
-1.331999885224352 2:8 3:350 4:165 5:3693 6:11.5 7:70 8:1 
-1.332020640432987 2:8 3:390 4:190 5:3850 6:8.5 7:70 8:1 
-1.332003105494474 2:8 3:383 4:170 5:3563 6:10 7:70 8:1 
-1.332020640432986 2:8 3:340 4:160 5:3609 6:8 7:70 8:1 
-1.331518554859379 2:8 3:400 4:150 5:3761 6:9.5 7:70 8:1 
-1.331473511261276 2:6 3:225 4:105 5:3439 6:15.5 7:71 8:1 
-1.332003105494474 2:8 3:350 4:165 5:4209 6:12 7:71 8:1 
-1.331478169218869 2:8 3:400 4:175 5:4464 6:11.5 7:71 8:1 
-1.331027374254241 2:8 3:351 4:153 5:4154 6:13.5 7:71 8:1 
-1.332000140912154 2:8 3:318 4:150 5:4096 6:13 7:71 8:1 
-1.331106903913835 2:8 3:400 4:170 5:4746 6:12 7:71 8:1 
-1.331999386421522 2:8 3:400 4:175 5:5140 6:12 7:71 8:1 
-1.331519918327672 2:8 3:350 4:165 5:4274 6:12 7:72 8:1 
-1.331473551297768 2:8 3:400 4:175 5:4385 6:12 7:72 8:1 
-1.331891026452685 2:8 3:318 4:150 5:4135 6:13.5 7:72 8:1 
-1.332020644301933 2:8 3:400 4:190 5:4422 6:12.5 7:72 8:1 
-1.331999885210115 2:8 3:304 4:150 5:3892 6:12.5 7:72 8:1 
-1.332000140912155 2:8 3:307 4:130 5:4098 6:14 7:72 8:1 
-1.331052841029813 2:8 3:302 4:140 5:4294 6:16 7:72 8:1 
-1.331106566511708 2:8 3:350 4:175 5:4100 6:13 7:73 8:1 
-1.331409279943407 2:8 3:304 4:150 5:3672 6:11.5 7:73 8:1 
-1.332001791147349 2:8 3:350 4:145 5:3988 6:13 7:73 8:1 
-1.331106903913835 2:8 3:302 4:137 5:4042 6:14.5 7:73 8:1 
-1.332000767800385 2:8 3:318 4:150 5:3777 6:12.5 7:73 8:1 
-1.331052841029813 2:8 3:400 4:150 5:4464 6:12 7:73 8:1 
-1.331999885224352 2:8 3:351 4:158 5:4363 6:13 7:73 8:1 
-1.331998992332368 2:8 3:440 4:215 5:4735 6:11 7:73 8:1 
-1.331109938559003 2:8 3:360 4:175 5:3821 6:11 7:73 8:1 
-1.331478830337481 2:8 3:350 4:145 5:4082 6:13 7:73 8:1 
-1.331052841029813 2:8 3:318 4:150 5:3399 6:11 7:73 8:1 
-1.331999780402827 2:6 3:250 4:100 5:3336 6:17 7:74 8:1 
-1.33147823236442 2:8 3:302 4:140 5:4141 6:14 7:74 8:1 
-1.332020644301933 2:8 3:350 4:150 5:4699 6:14.5 7:74 8:1 
-1.331473511261277 2:8 3:304 4:150 5:4257 6:15.5 7:74 8:1 
-1.331473551297769 2:6 3:250 4:72 5:3158 6:19.5 7:75 8:1 
-1.331409279943407 2:8 3:400 4:170 5:4668 6:11.5 7:75 8:1 
-1.331409232004619 2:8 3:350 4:145 5:4440 6:14 7:75 8:1 
-1.331106903913835 2:8 3:318 4:150 5:4498 6:14.5 7:75 8:1 
-1.331205241385324 2:8 3:351 4:148 5:4657 6:13.5 7:75 8:1 
-1.331999885224352 2:6 3:250 4:105 5:3897 6:18.5 7:75 8:1 
-1.331110256845559 2:8 3:302 4:129 5:3169 6:12 7:75 8:1 
-1.332003105494474 2:8 3:318 4:150 5:4190 6:13 7:76 8:1 
-1.331999386421522 2:8 3:304 4:120 5:3962 6:13.9 7:76 8:1 
-1.332001791147349 2:8 3:318 4:150 5:3940 6:13.2 7:76 8:1 
-1.332000278052546 2:6 3:168 4:120 5:3820 6:16.7 7:76 8:2 
-1.332000278052546 2:8 3:302 4:130 5:3870 6:15 7:76 8:1 
-1.331886587122483 2:8 3:318 4:145 5:4140 6:13.7 7:77 8:1 
-1.331999780402827 2:8 3:400 4:180 5:4220 6:11.1 7:77 8:1 
-1.331478830337481 2:8 3:400 4:190 5:4325 6:12.2 7:77 8:1 
-1.331109938559003 2:8 3:351 4:142 5:4054 6:14.3 7:79 8:1 
-0.5470828968261501 2:8 3:318 4:150 5:3436 6:11 7:70 8:1 
-0.5470828968261501 2:6 3:199 4:97 5:2774 6:15.5 7:70 8:1 
-0.5470497163699436 2:6 3:250 4:88 5:3302 6:15.5 7:71 8:1 
-0.5463826056938097 2:6 3:232 4:100 5:3288 6:15.5 7:71 8:1 
-0.5471121298548779 2:6 3:258 4:110 5:2962 6:13.5 7:71 8:1 
-0.5472593685000704 2:6 3:250 4:100 5:3282 6:15 7:71 8:1 
-0.5464580542456181 2:6 3:250 4:88 5:3139 6:14.5 7:71 8:1 
-0.5471095285633961 2:4 3:140 4:90 5:2408 6:19.5 7:72 8:1 
-0.5466694795467995 2:3 3:70 4:97 5:2330 6:13.5 7:72 8:3 
-0.5471002875339333 2:4 3:121 4:112 5:2933 6:14.5 7:72 8:2 
-0.5465405937386976 2:6 3:225 4:105 5:3121 6:16.5 7:73 8:1 
-0.5472593685000704 2:6 3:250 4:88 5:3021 6:16.5 7:73 8:1 
-0.5466694795467995 2:6 3:232 4:100 5:2789 6:15 7:73 8:1 
-0.5471360989470859 2:4 3:122 4:85 5:2310 6:18.5 7:73 8:1 
-0.5468050653144365 2:4 3:114 4:91 5:2582 6:14 7:73 8:2 
-0.5472849450820976 2:6 3:156 4:122 5:2807 6:13.5 7:73 8:3 
-0.5465363793509391 2:6 3:232 4:100 5:2901 6:16 7:74 8:1 
-0.5470316685969988 2:6 3:225 4:105 5:3613 6:16.5 7:74 8:1 
-0.5471103404948339 2:6 3:225 4:95 5:3264 6:16 7:75 8:1 
-0.5470828968261501 2:6 3:250 4:105 5:3459 6:16 7:75 8:1 
-0.5463144047427628 2:6 3:231 4:110 5:3907 6:21 7:75 8:1 
-0.5471103404948339 2:6 3:225 4:95 5:3785 6:19 7:75 8:1 
-0.5463144047427628 2:8 3:262 4:110 5:3221 6:13.5 7:75 8:1 
-0.5464580542456181 2:6 3:171 4:97 5:2984 6:14.5 7:75 8:1 
-0.5468050650366254 2:6 3:232 4:90 5:3211 6:17 7:75 8:1 
-0.5470694941678927 2:8 3:305 4:140 5:4215 6:13 7:76 8:1 
-0.5470828968261501 2:6 3:225 4:100 5:3651 6:17.7 7:76 8:1 
-0.5470497163699436 2:6 3:250 4:78 5:3574 6:21 7:76 8:1 
-0.5465363793503165 2:6 3:250 4:110 5:3645 6:16.2 7:76 8:1 
-0.5467975019898881 2:6 3:258 4:95 5:3193 6:17.8 7:76 8:1 
-0.5470694941678927 2:4 3:120 4:88 5:3270 6:21.9 7:76 8:2 
-0.5466694795468007 2:6 3:156 4:108 5:2930 6:15.5 7:76 8:3 
-0.5471002874993729 2:8 3:305 4:145 5:3880 6:12.5 7:77 8:1 
-0.5466694795467995 2:8 3:260 4:110 5:4060 6:19 7:77 8:1 
-0.5471103403380409 2:6 3:250 4:110 5:3520 6:16.4 7:77 8:1 
-0.5471800375713311 2:6 3:225 4:100 5:3630 6:17.7 7:77 8:1 
-0.5468050648793629 2:6 3:250 4:98 5:3525 6:19 7:77 8:1 
-0.5470603805879242 2:8 3:260 4:110 5:3365 6:15.5 7:78 8:1 
-0.5470497163699436 2:8 3:318 4:140 5:3735 6:13.2 7:78 8:1 
-0.5471103404948339 2:8 3:302 4:139 5:3570 6:12.8 7:78 8:1 
-0.5465251059476346 2:6 3:200 4:85 5:2965 6:15.8 7:78 8:1 
-0.5463826056938097 2:6 3:258 4:120 5:3410 6:15.1 7:78 8:1 
-0.5464580542456181 2:8 3:305 4:145 5:3425 6:13.2 7:78 8:1 
-0.5464580542456181 2:6 3:231 4:165 5:3445 6:13.4 7:78 8:1 
-0.5472593685000704 2:8 3:302 4:139 5:3205 6:11.2 7:78 8:1 
-0.5470316685969988 2:6 3:163 4:125 5:3140 6:13.6 7:78 8:2 
-0.5471121298548778 2:6 3:200 4:85 5:2990 6:18.2 7:79 8:1 
-0.5470316684302757 2:8 3:302 4:129 5:3725 6:13.4 7:79 8:1 
-0.5471339099168004 2:8 3:318 4:135 5:3830 6:15.2 7:79 8:1 
-0.5471360989470602 2:8 3:360 4:150 5:3940 6:13 7:79 8:1 
-0.5468050650298546 2:6 3:225 4:90 5:3381 6:18.7 7:80 8:1 
-0.5471337926172968 2:6 3:200 4:88 5:3060 6:17.1 7:81 8:1 
-0.5471360989910942 2:6 3:225 4:85 5:3465 6:16.6 7:81 8:1 
-0.2645760388447198 2:4 3:113 4:95 5:2372 6:15 7:70 8:3 
-0.2642966818523462 2:6 3:198 4:95 5:2833 6:15.5 7:70 8:1 
-0.2642715316465021 2:6 3:200 4:85 5:2587 6:16 7:70 8:1 
-0.2642821092959877 2:4 3:107 4:90 5:2430 6:14.5 7:70 8:2 
-0.2644135466600698 2:6 3:199 4:90 5:2648 6:15 7:70 8:1 
-0.2642759560376399 2:4 3:122 4:86 5:2220 6:14 7:71 8:1 
-0.2644744054807854 2:4 3:113 4:95 5:2278 6:15.5 7:72 8:3 
-0.2642972259443984 2:4 3:97 4:54 5:2254 6:23.5 7:72 8:2 
-0.2647111218639986 2:4 3:121 4:76 5:2511 6:18 7:72 8:2 
-0.2643208497975855 2:4 3:120 4:87 5:2979 6:19.5 7:72 8:2 
-0.2645598563136517 2:4 3:122 4:86 5:2395 6:16 7:72 8:1 
-0.2644135466600698 2:6 3:198 4:95 5:2904 6:16 7:73 8:1 
-0.2642782158533206 2:4 3:140 4:72 5:2401 6:19.5 7:73 8:1 
-0.267013408083252 2:4 3:108 4:94 5:2379 6:16.5 7:73 8:3 
-0.2643189333596265 2:4 3:116 4:75 5:2158 6:15.5 7:73 8:2 
-0.2644234122478056 2:4 3:120 4:97 5:2489 6:15 7:74 8:3 
-0.2642638383529554 2:6 3:231 4:110 5:3039 6:15 7:75 8:1 
-0.2642762889256215 2:4 3:140 4:83 5:2639 6:17 7:75 8:1 
-0.2644234122477119 2:4 3:140 4:78 5:2592 6:18.5 7:75 8:1 
-0.2644476911296897 2:4 3:134 4:96 5:2702 6:13.5 7:75 8:3 
-0.2644722996038088 2:4 3:115 4:95 5:2694 6:15 7:75 8:2 
-0.2643375690613417 2:4 3:120 4:88 5:2957 6:17 7:75 8:2 
-0.2642966818523399 2:4 3:121 4:98 5:2945 6:14.5 7:75 8:2 
-0.2643235312075044 2:6 3:225 4:100 5:3233 6:15.4 7:76 8:1 
-0.2642654410782725 2:6 3:250 4:105 5:3353 6:14.5 7:76 8:1 
-0.2644522508193692 2:6 3:200 4:81 5:3012 6:17.6 7:76 8:1 
-0.2643816584832028 2:6 3:231 4:105 5:3425 6:16.9 7:77 8:1 
-0.2638909582973112 2:4 3:121 4:110 5:2600 6:12.8 7:77 8:2 
-0.2646736423066829 2:3 3:80 4:110 5:2720 6:13.5 7:77 8:3 
-0.2641427057827154 2:6 3:200 4:95 5:3155 6:18.2 7:78 8:1 
-0.26414249618389 2:6 3:200 4:85 5:3070 6:16.7 7:78 8:1 
-0.2641769133463248 2:4 3:134 4:95 5:2515 6:14.8 7:78 8:3 
-0.2646430836215596 2:4 3:151 4:85 5:2855 6:17.6 7:78 8:1 
-0.2644744054807849 2:4 3:119 4:97 5:2405 6:14.9 7:78 8:3 
-0.2642654410782732 2:5 3:131 4:103 5:2830 6:15.9 7:78 8:2 
-0.2643162105090841 2:4 3:121 4:115 5:2795 6:15.7 7:78 8:2 
-0.2645782514716462 2:6 3:231 4:115 5:3245 6:15.4 7:79 8:1 
-0.2643753074476246 2:4 3:140 4:88 5:2890 6:17.3 7:79 8:1 
-0.2642763180984471 2:6 3:225 4:110 5:3360 6:16.6 7:79 8:1 
-0.2643617021179028 2:8 3:350 4:125 5:3900 6:17.4 7:79 8:1 
-0.264298395980445 2:8 3:260 4:90 5:3420 6:22.2 7:79 8:1 
-0.2642680803414112 2:3 3:70 4:100 5:2420 6:12.5 7:80 8:3 
-0.2643049179035381 2:6 3:173 4:110 5:2725 6:12.6 7:81 8:1 
-0.2642821042597752 2:6 3:231 4:110 5:3415 6:15.8 7:81 8:1 
-0.2646360253949596 2:4 3:140 4:92 5:2865 6:16.4 7:82 8:1 
-0.2642519896070226 2:6 3:232 4:112 5:2835 6:14.7 7:82 8:1 
0.6687947586056782 2:4 3:97 4:46 5:1835 6:20.5 7:70 8:2 
0.6685907679953778 2:4 3:110 4:87 5:2672 6:17.5 7:70 8:2 
0.669572694921483 2:4 3:104 4:95 5:2375 6:17.5 7:70 8:2 
0.6685264487022319 2:4 3:121 4:113 5:2234 6:12.5 7:70 8:2 
0.6688825343773699 2:4 3:97 4:88 5:2130 6:14.5 7:71 8:3 
0.6685211696626049 2:4 3:113 4:95 5:2228 6:14 7:71 8:3 
0.6689116215844215 2:4 3:97 4:60 5:1834 6:19 7:71 8:2 
0.6685051115841111 2:4 3:97.5 4:80 5:2126 6:17 7:72 8:1 
0.6688898491244298 2:4 3:96 4:69 5:2189 6:18 7:72 8:2 
0.6685264487021092 2:4 3:98 4:90 5:2265 6:15.5 7:73 8:2 
0.6689113317961357 2:4 3:122 4:80 5:2451 6:16.5 7:74 8:1 
0.6688897431544412 2:4 3:140 4:75 5:2542 6:17 7:74 8:1 
0.6689113316609877 2:4 3:79 4:67 5:1963 6:15.5 7:74 8:2 
0.6689116215855553 2:4 3:97 4:78 5:2300 6:14.5 7:74 8:2 
0.6688900594859099 2:4 3:116 4:75 5:2246 6:14 7:74 8:2 
0.6688897459423943 2:4 3:108 4:93 5:2391 6:15.5 7:74 8:3 
0.6688934334876818 2:4 3:90 4:71 5:2223 6:16.5 7:75 8:2 
0.6689116215934344 2:4 3:121 4:115 5:2671 6:13.5 7:75 8:2 
0.6688951755870856 2:4 3:116 4:81 5:2220 6:16.9 7:76 8:2 
0.6686827071790678 2:4 3:98 4:79 5:2255 6:17.7 7:76 8:1 
0.6689116025040286 2:4 3:101 4:83 5:2202 6:15.3 7:76 8:2 
0.668590720630296 2:4 3:98 4:60 5:2164 6:22.1 7:76 8:1 
0.6685264887387233 2:4 3:140 4:72 5:2565 6:13.6 7:76 8:1 
0.5857711215285126 2:4 3:122 4:96 5:2300 6:15.5 7:77 8:1 
0.667527907309257 2:4 3:151 4:88 5:2740 6:16 7:77 8:1 
0.6685905248848203 2:4 3:97 4:75 5:2265 6:18.2 7:77 8:3 
0.6689113317961357 2:4 3:140 4:89 5:2755 6:15.8 7:77 8:1 
0.5857584810016719 2:4 3:119 4:97 5:2300 6:14.7 7:78 8:3 
0.6685217676355759 2:4 3:121 4:80 5:2670 6:15 7:79 8:1 
0.6685211696625188 2:4 3:151 4:90 5:3003 6:20.1 7:80 8:1 
0.6688930961769325 2:4 3:151 4:84 5:2635 6:16.4 7:81 8:1 
0.6688934334882919 2:4 3:156 4:92 5:2620 6:14.4 7:81 8:1 
0.6689471589701879 2:6 3:146 4:120 5:2930 6:13.8 7:81 8:3 
0.6689113317961358 2:8 3:350 4:105 5:3725 6:19 7:81 8:1 
0.6687947586146822 2:4 3:112 4:88 5:2640 6:18.6 7:82 8:1 
0.6675304327512894 2:4 3:151 4:90 5:2735 6:18 7:82 8:1 
0.6689726257457588 2:6 3:181 4:110 5:2945 6:16.4 7:82 8:1 
0.6680044939710848 2:4 3:156 4:92 5:2585 6:14.5 7:82 8:1 
0.6685264887387233 2:4 3:151 4:90 5:2950 6:17.3 7:82 8:1 
0.668481445140621 2:4 3:140 4:86 5:2790 6:15.6 7:82 8:1 
1 2:4 3:140 4:90 5:2264 6:15.5 7:71 8:1 
1 2:4 3:116 4:90 5:2123 6:14 7:71 8:2 
1 2:4 3:97 4:92 5:2288 6:17 7:72 8:3 
1 2:4 3:98 4:80 5:2164 6:15 7:72 8:1 
1 2:4 3:68 4:49 5:1867 6:19.5 7:73 8:2 
1 2:4 3:79 4:67 5:1950 6:19 7:74 8:3 
1 2:4 3:98 4:83 5:2219 6:16.5 7:74 8:2 
1 2:4 3:90 4:75 5:2125 6:14.5 7:74 8:1 
1 2:4 3:97 4:75 5:2171 6:16 7:75 8:3 
1 2:4 3:90 4:70 5:1937 6:14 7:75 8:2 
1 2:4 3:107 4:86 5:2464 6:15.5 7:76 8:2 
1 2:4 3:85 4:52 5:2035 6:22.2 7:76 8:1 
1 2:4 3:97 4:75 5:2155 6:16.4 7:76 8:3 
1 2:4 3:98 4:68 5:2045 6:18.5 7:77 8:3 
1 2:4 3:111 4:80 5:2155 6:14.8 7:77 8:1 
1 2:4 3:97 4:78 5:1940 6:14.5 7:77 8:2 
1 2:4 3:98 4:63 5:2051 6:17 7:77 8:1 
1 2:4 3:97 4:78 5:2190 6:14.1 7:77 8:2 
1 2:4 3:105 4:75 5:2230 6:14.5 7:78 8:1 
1 2:6 3:173 4:115 5:2595 6:11.3 7:79 8:1 
1 2:4 3:151 4:90 5:2678 6:16.5 7:80 8:1 
1 2:4 3:120 4:75 5:2542 6:17.5 7:80 8:3 
1 2:4 3:146 4:67 5:3250 6:21.8 7:80 8:2 
1 2:4 3:135 4:84 5:2385 6:12.9 7:81 8:1 
1 2:4 3:98 4:65 5:2380 6:20.7 7:81 8:1 
1 2:4 3:112 4:88 5:2605 6:19.6 7:82 8:1 
1 2:4 3:112 4:85 5:2575 6:16.2 7:82 8:1 
1 2:4 3:135 4:84 5:2525 6:16 7:82 8:1 
1 2:4 3:91 4:68 5:1970 6:17.6 7:82 8:3 
1 2:4 3:120 4:79 5:2625 6:18.6 7:82 8:1 
1 2:4 3:119 4:82 5:2720 6:19.4 7:82 8:1 
1.453463620649061 2:4 3:72 4:69 5:1613 6:18 7:71 8:3 
0.9245032912643355 2:4 3:91 4:53 5:1795 6:17.5 7:75 8:3 
0.9203445478208971 2:4 3:91 4:53 5:1795 6:17.4 7:76 8:3 
1.45345821597329 2:4 3:85 4:70 5:1990 6:17 7:76 8:3 
1.452899713519378 2:4 3:98 4:83 5:2075 6:15.9 7:77 8:1 
1.453093895524021 2:4 3:86 4:65 5:1975 6:15.2 7:79 8:3 
1.452566275391111 2:4 3:105 4:70 5:2200 6:13.2 7:79 8:1 
1.45289807837651 2:4 3:105 4:70 5:2150 6:14.9 7:79 8:1 
1.077375156946888 2:4 3:85 4:65 5:2020 6:19.2 7:79 8:3 
1.315654898966431 2:4 3:97 4:78 5:2188 6:15.8 7:80 8:2 
1.452968312563726 2:4 3:108 4:75 5:2265 6:15.2 7:80 8:3 
1.452850869986899 2:4 3:97 4:67 5:2145 6:18 7:80 8:3 
1.452819962428669 2:6 3:168 4:132 5:2910 6:11.4 7:80 8:3 
1.452783964634176 2:4 3:122 4:88 5:2500 6:15.1 7:80 8:2 
1.453202490142661 2:4 3:81 4:60 5:1760 6:16.1 7:81 8:3 
1.452783964503741 2:4 3:97 4:67 5:2065 6:17.8 7:81 8:3 
1.452933565042551 2:4 3:91 4:68 5:1985 6:16 7:81 8:3 
1.453151638243772 2:4 3:105 4:63 5:2215 6:14.9 7:81 8:1 
1.438603784537707 2:4 3:98 4:65 5:2045 6:16.2 7:81 8:1 
1.4528660900832 2:4 3:108 4:75 5:2350 6:16.8 7:81 8:3 
1.453151638243805 2:4 3:119 4:100 5:2615 6:14.8 7:81 8:3 
1.452740544837903 2:4 3:120 4:74 5:2635 6:18.3 7:81 8:3 
1.453463619749466 2:4 3:108 4:70 5:2245 6:16.9 7:82 8:3 
0.806621061861466 2:4 3:91 4:67 5:1965 6:15.7 7:82 8:3 
1.735723222853816 2:4 3:98 4:80 5:1915 6:14.4 7:79 8:1 
1.735715151613403 2:4 3:91 4:69 5:2130 6:14.7 7:79 8:2 
1.735561399396753 2:4 3:89 4:60 5:1968 6:18.8 7:80 8:3 
1.457988725937831 2:4 3:86 4:65 5:2019 6:16.4 7:80 8:3 
1.7357417134697 2:5 3:121 4:67 5:2950 6:19.9 7:80 8:2 
1.736109041702689 2:4 3:86 4:64 5:1875 6:16.4 7:81 8:1 
1.735717716278325 2:4 3:89 4:62 5:2050 6:17.3 7:81 8:3 
1.735731919658577 2:4 3:105 4:74 5:1980 6:15.3 7:82 8:2 
1.735726068881702 2:4 3:105 4:63 5:2125 6:14.7 7:82 8:1 
1.735723711287856 2:4 3:120 4:88 5:2160 6:14.5 7:82 8:3 
1.735450648443478 2:4 3:107 4:75 5:2205 6:14.5 7:82 8:3 
0.9608445495611322 2:4 3:91 4:67 5:1965 6:15 7:82 8:3 
1.735723681901015 2:4 3:135 4:84 5:2370 6:13 7:82 8:1 
2 2:4 3:85 4:70 5:2070 6:18.6 7:78 8:3 
2 2:4 3:98 4:76 5:2144 6:14.7 7:80 8:2 
3 2:4 3:90 4:48 5:1985 6:21.5 7:78 8:2 
3 2:4 3:86 4:65 5:2110 6:17.9 7:80 8:3 
3 2:4 3:90 4:48 5:2335 6:23.7 7:80 8:2 
3 2:4 3:91 4:67 5:1850 6:13.8 7:80 8:3 
