svm_type svorim
kernel_type rbf
gamma 0.333333
nr_class 10
total_sv 29
rho 0 -2.36926 -0.963936 -0.576961 -0.576739 -0.161843 1.42364 1.83752 1.83801 3.37927
SV
-1.940211931481428 2:0.9 3:-11.6 
-1.97790791340648 2:1.8 3:-19.2 
-1.634804501107662 2:12.7 3:-18.9 
-1.576605040131184 2:1.9 3:-25 
-1.201506639817908 2:2.2 3:-3.1 
-1.123144366908083 2:1 3:-8.2 
-0.04780937912392025 2:8.8 3:-16.1 
-0.03407077598817221 2:11 3:-14.3 
0.2121664264321062 2:5.2 3:-8.1 
0.2259576819560597 2:4.8 3:-7.8 
-1.145981841205314 2:11.8 3:-2.1 
0.1183803652606478 2:11.1 3:-6.1 
-0.04567997753717834 2:9.8 3:-1.2 
0.1217152969463709 2:5.1 3:-5.1 
0.6955030109387614 2:11.3 3:-3.6 
-0.7394358792717974 2:15.5 3:-0.7 
0.594705003747346 2:11.1 3:-16.8 
0.481212278847849 2:4.2 3:-17 
-1.270836075375891 2:6.9 3:-3.3 
0.1838798185817245 2:9.9 3:-3.3 
0.5178189773764907 2:10.6 3:-7.8 
0.586582957226918 2:11.5 3:-9 
0.357998225334996 2:8.5 3:-0.2 
1 2:8.1 3:-1.6 
1.110223024625157e-016 2:12.4 3:-0.8 
3 2:5.8 3:-2.8 
1.769551477270473 2:14.5 3:-0.5 
1 2:13.2 3:-0.7 
1.872522801435276 2:12.8 3:-1 
