svm_type svorim
kernel_type rbf
gamma 0.142857
nr_class 10
total_sv 138
rho 0 0.34376 0.34428 0.825673 1.36207 1.50015 2.22174 2.22249 2.34432 3.36218
SV
-0.6562704119862141 2:400 3:1000 4:3000 5:0 6:1 7:2 
-0.6561664129461997 2:350 3:64 4:64 5:0 6:1 7:4 
-0.6562704119862141 2:143 3:512 4:5000 5:0 6:7 7:32 
-0.6561154129612825 2:143 3:1000 4:2000 5:0 6:5 7:16 
-0.6565070249870377 2:143 3:1500 4:6300 5:0 6:5 7:32 
-0.6562723236104313 2:143 3:3100 4:6200 5:0 6:5 7:20 
-0.6565290005214212 2:320 3:128 4:6000 5:0 6:1 7:12 
-1.655605484098012 2:50 3:2620 4:10480 5:30 6:12 7:24 
-0.4200019610246866 2:50 3:1000 4:4000 5:8 6:1 7:5 
-0.4190336994698313 2:50 3:1000 4:4000 5:8 6:3 7:5 
-0.6560680492068454 2:50 3:1000 4:8000 5:8 6:3 7:5 
-0.354795080634817 2:50 3:2000 4:16000 5:8 6:3 7:5 
-1.347621271000558 2:50 3:2000 4:16000 5:8 6:3 7:6 
-0.6561960902687376 2:810 3:1000 4:5000 5:0 6:1 7:1 
-0.6562270321180479 2:700 3:384 4:8000 5:0 6:1 7:1 
-0.6563324579801476 2:110 3:1000 4:4000 5:16 6:1 7:2 
-0.6562166210248903 2:800 3:256 4:8000 5:0 6:1 7:4 
-0.6561668290451204 2:125 3:512 4:1000 5:0 6:8 7:20 
-0.6562414449310361 2:105 3:256 4:2000 5:0 6:3 7:10 
-0.6562414449310361 2:105 3:1000 4:4000 5:0 6:3 7:24 
-0.6561154129612825 2:105 3:2000 4:4000 5:8 6:3 7:19 
-0.6562704119862141 2:175 3:256 4:2000 5:0 6:3 7:24 
-0.6562723236103936 2:300 3:768 4:3000 5:0 6:6 7:24 
-0.6562704119862141 2:300 3:768 4:12000 5:6 6:6 7:24 
-0.6561664129461997 2:300 3:768 4:4500 5:0 6:1 7:24 
-0.6561909038566207 2:300 3:384 4:12000 5:6 6:1 7:24 
-0.6564588084826946 2:300 3:192 4:768 5:6 6:6 7:24 
-0.6562500110274439 2:330 3:1000 4:3000 5:0 6:2 7:4 
-0.6562723236104313 2:300 3:1000 4:4000 5:8 6:3 7:64 
-0.656279109135369 2:300 3:1000 4:16000 5:8 6:2 7:112 
-0.6564588084826944 2:330 3:1000 4:2000 5:0 6:1 7:2 
-0.6561546950863516 2:330 3:1000 4:4000 5:0 6:3 7:6 
-0.6560384960548056 2:140 3:2000 4:4000 5:0 6:3 7:6 
-0.656306248068564 2:140 3:2000 4:4000 5:8 6:1 7:20 
-0.6561668290451204 2:480 3:96 4:512 5:0 6:1 7:1 
-0.6095838415088012 2:203 3:1000 4:2000 5:0 6:1 7:5 
-0.6565314100786182 2:1100 3:512 4:1500 5:0 6:1 7:1 
-0.6563668073793991 2:1100 3:768 4:2000 5:0 6:1 7:1 
-0.6564588084826946 2:600 3:768 4:2000 5:0 6:1 7:1 
-0.6561144249260725 2:400 3:2000 4:4000 5:0 6:1 7:1 
-0.656306248068564 2:400 3:4000 4:8000 5:0 6:1 7:1 
-0.6565070249870377 2:900 3:1000 4:1000 5:0 6:1 7:2 
-0.6562414449310361 2:900 3:512 4:1000 5:0 6:1 7:2 
-0.5956561895877202 2:900 3:1000 4:4000 5:4 6:1 7:2 
-0.595464164491602 2:900 3:1000 4:4000 5:8 6:1 7:2 
-0.6561815844203029 2:900 3:2000 4:4000 5:0 6:3 7:6 
-0.6562500110274439 2:225 3:2000 4:4000 5:8 6:3 7:6 
-0.6563252916756885 2:25 3:2000 4:12000 5:8 6:1 7:4 
-0.6563233069600699 2:1500 3:768 4:2000 5:0 6:0 7:0 
-0.6562478662769005 2:50 3:2000 4:8000 5:8 6:3 7:6 
-0.6563412964022373 2:100 3:1000 4:8000 5:0 6:2 7:6 
-0.3531320921409694 2:100 3:1000 4:8000 5:24 6:2 7:6 
-0.3495701762330196 2:100 3:1000 4:8000 5:24 6:3 7:6 
-1.655592872546369 2:50 3:2000 4:16000 5:24 6:6 7:16 
-0.6565290005214212 2:150 3:512 4:4000 5:0 6:8 7:128 
-0.6561068819195542 2:115 3:2000 4:4000 5:2 6:1 7:5 
-0.6562500110274439 2:92 3:2000 4:8000 5:4 6:1 7:6 
-0.6562500110274439 2:112 3:1000 4:1000 5:0 6:1 7:4 
-0.6562478662769005 2:84 3:1000 4:2000 5:0 6:1 7:6 
-0.6560381410739536 2:56 3:1000 4:4000 5:0 6:1 7:6 
-0.6562414449310361 2:56 3:2000 4:6000 5:0 6:1 7:8 
-0.6562414449310361 2:56 3:4000 4:12000 5:0 6:1 7:8 
-0.6569935507841859 2:56 3:4000 4:16000 5:0 6:1 7:8 
-2.174709268412263 2:38 3:4000 4:8000 5:32 6:16 7:32 
-0.6096689179059666 2:200 3:1000 4:2000 5:0 6:1 7:2 
-0.6562414449310361 2:200 3:1000 4:4000 5:0 6:1 7:4 
-0.6562404164166753 2:250 3:512 4:4000 5:0 6:4 7:7 
-0.6561815844203029 2:250 3:1000 4:16000 5:1 6:1 7:8 
-0.6561815844203029 2:160 3:512 4:2000 5:2 6:3 7:8 
-0.6561154129612825 2:240 3:512 4:2000 5:8 6:1 7:5 
-0.6561154129612825 2:105 3:2000 4:6000 5:16 6:6 7:16 
-0.6561785750178192 2:180 3:262 4:4000 5:0 6:1 7:3 
-0.6563843974293082 2:180 3:512 4:4000 5:0 6:1 7:3 
-0.6562723236095109 2:124 3:1000 4:8000 5:0 6:1 7:8 
-0.656217037053234 2:98 3:1000 4:8000 5:32 6:2 7:8 
-0.6565314100786182 2:480 3:1000 4:4000 5:0 6:0 7:0 
-0.1742550660853254 2:60 3:2000 4:8000 5:65 6:1 7:8 
-0.1740903576297166 2:143 3:2300 4:6200 5:0 6:6 7:64 
-0.1742550660853253 2:320 3:512 4:2000 5:4 6:1 7:3 
1 2:50 3:2620 4:10480 5:30 6:12 7:24 
1 2:50 3:2000 4:16000 5:8 6:3 7:6 
-0.1747184219120311 2:133 3:1000 4:12000 5:9 6:3 7:12 
-0.1740903576263638 2:133 3:1000 4:8000 5:9 6:3 7:12 
-0.1742777398366139 2:220 3:1000 4:8000 5:16 6:1 7:2 
-0.1740903576900301 2:75 3:2000 4:8000 5:8 6:3 7:24 
-0.1740828407175706 2:75 3:3000 4:8000 5:8 6:3 7:48 
-0.1742777398782464 2:180 3:768 4:12000 5:6 6:1 7:31 
-0.1747092684184553 2:140 3:2000 4:8000 5:32 6:1 7:54 
-0.1694853937063117 2:185 3:2000 4:16000 5:16 6:1 7:6 
-0.1695119930248107 2:180 3:2000 4:16000 5:16 6:1 7:6 
-0.1740828293048908 2:50 3:2000 4:16000 5:24 6:1 7:6 
1 2:50 3:2000 4:16000 5:24 6:6 7:16 
-0.1740828408126108 2:92 3:2000 4:8000 5:32 6:1 7:6 
-0.1742777398366138 2:60 3:2000 4:16000 5:64 6:5 7:8 
-0.1747094090324194 2:60 3:4000 4:16000 5:64 6:5 7:8 
-0.1742513352600107 2:105 3:2000 4:8000 5:16 6:4 7:14 
-0.1742777398782464 2:70 3:4000 4:12000 5:8 6:6 7:8 
-0.174246184484215 2:116 3:2000 4:8000 5:32 6:5 7:28 
-0.1747092684184554 2:480 3:512 4:8000 5:32 6:0 7:0 
0.3621351527778868 2:29 3:8000 4:16000 5:32 6:8 7:16 
0.3446835068626544 2:50 3:4000 4:16000 5:65 6:1 7:8 
0.3623345424166929 2:110 3:5000 4:5000 5:142 6:8 7:64 
0.3618309642220936 2:56 3:5240 4:20970 5:30 6:12 7:24 
0.3621351908815604 2:140 3:1000 4:16000 5:16 6:1 7:3 
0.3618309642220937 2:75 3:2000 4:8000 5:64 6:1 7:38 
-1 2:140 3:2000 4:32000 5:32 6:1 7:54 
0.3635469223794779 2:57 3:4000 4:16000 5:1 6:6 7:12 
0.3621351908815603 2:17 3:4000 4:16000 5:32 6:6 7:12 
0.3618309642220938 2:50 3:8000 4:16000 5:48 6:1 7:10 
0.3446835618236701 2:50 3:4000 4:16000 5:64 6:5 7:10 
2 2:38 3:4000 4:8000 5:32 6:16 7:32 
0.3623345424166933 2:50 3:2000 4:32000 5:24 6:6 7:26 
1 2:125 3:256 4:6000 5:256 6:16 7:128 
1.500106984399126 2:140 3:2000 4:32000 5:32 6:1 7:54 
1 2:26 3:8000 4:16000 5:0 6:8 7:16 
1 2:59 3:8000 4:16000 5:64 6:12 7:24 
1 2:26 3:8000 4:24000 5:32 6:8 7:16 
1.222586392481822 2:57 3:4000 4:24000 5:64 6:12 7:16 
1.222484281438234 2:40 3:8000 4:16000 5:32 6:8 7:16 
1.222874521505044 2:48 3:4000 4:24000 5:32 6:8 7:24 
1.222610094389006 2:38 3:4000 4:16000 5:128 6:16 7:32 
1.222465387275686 2:26 3:8000 4:32000 5:64 6:12 7:16 
1.343885575073927 2:29 3:8000 4:32000 5:32 6:8 7:32 
1.344317569526152 2:25 3:1310 4:2620 5:131 6:12 7:24 
1.343859717280679 2:75 3:2000 4:16000 5:128 6:1 7:38 
1.278908541015067 2:40 3:8000 4:32000 5:64 6:8 7:24 
1.825909639962557 2:26 3:8000 4:32000 5:64 6:8 7:32 
1.825281578087969 2:50 3:2000 4:32000 5:112 6:52 7:104 
2.361757022924343 2:23 3:16000 4:32000 5:64 6:16 7:32 
2.326426931552487 2:35 3:8000 4:32000 5:64 6:8 7:24 
2.362334542416693 2:50 3:4000 4:32000 5:112 6:52 7:104 
2.499836704110288 2:26 3:16000 4:32000 5:64 6:16 7:24 
2.499893015600874 2:26 3:16000 4:32000 5:64 6:8 7:24 
2.500163295889712 2:26 3:8000 4:32000 5:128 6:24 7:32 
3.221938792120062 2:23 3:32000 4:64000 5:128 6:32 7:64 
3.22138420256464 2:38 3:16000 4:32000 5:128 6:16 7:32 
3.22193879212006 2:30 3:8000 4:64000 5:96 6:12 7:176 
3.221717536105446 2:30 3:8000 4:64000 5:128 6:12 7:176 
