svm_type svorim
kernel_type rbf
gamma 0.1
nr_class 5
total_sv 626
rho 0 -2.84318 -0.854524 1.14502 3.14445
SV
-1 2:17.219 3:50.5 4:18.75 5:43 6:60.875 7:26.375 8:67.75 9:19 10:48.75 
-1 2:18.438 3:50.875 4:19.875 5:43.875 6:61.875 7:27.25 8:68.5 9:18.25 10:49 
-1 2:18.672 3:51.5 4:20 5:44 6:62.625 7:27.875 8:69.375 9:18.375 10:49.625 
-1.127326470093178 2:17.438 3:49 4:20 5:41.375 6:59.75 7:25.875 8:63.25 9:16.5 10:47.5 
-1 2:18.109 3:49 4:19.5 5:41.875 6:59.625 7:26.625 8:66.25 9:17.125 10:47.75 
-1 2:18.563 3:49.375 4:19.125 5:42.5 6:60.75 7:27.25 8:65.75 9:16.875 10:47.875 
-0.7440704817576831 2:19 3:50.25 4:19.625 5:44 6:62.125 7:30 8:66.5 9:17.375 10:47.75 
-1 2:19.063 3:50.25 4:18.375 5:43.5 6:60.375 7:29.125 8:65.75 9:16.375 10:47.875 
-1 2:20 3:50.25 4:18.125 5:44 6:60.75 7:30 8:67 9:16.75 10:49 
-0.6496139010888358 2:19.891 3:50.125 4:18.25 5:44.625 6:60.875 7:30 8:66.25 9:17 10:48.125 
-1 2:20.328 3:52.25 4:18.875 5:47 6:63.5 7:32.125 8:67.625 9:17.875 10:49.25 
-1 2:20.438 3:53.25 4:19.25 5:46.125 6:63.625 7:32.125 8:66.375 9:18.25 10:48.875 
-0.6073958626732363 2:20.5 3:53.75 4:19.25 5:46 6:63.25 7:30.75 8:66.5 9:18 10:47.75 
-0.3003812514966998 2:20.328 3:53.5 4:19 5:45.5 6:62.375 7:30 8:67.375 9:18.375 10:46 
-1 2:19.891 3:52.875 4:18.875 5:45 6:61.375 7:29.25 8:67.375 9:17.625 10:44.5 
-1 2:21.063 3:52.5 4:19.125 5:47.25 6:62.25 7:29.875 8:68.875 9:18.125 10:47.25 
-1 2:21.281 3:52.75 4:19.125 5:46.875 6:62 7:29.375 8:69.25 9:18.25 10:47.125 
-1 2:20.891 3:52.375 4:18.625 5:46.375 6:61.375 7:28.875 8:68.375 9:17.75 10:47.75 
-1 2:20.672 3:53.375 4:19.5 5:47 6:63 7:30.375 8:70.125 9:18 10:48.375 
-1 2:20.828 3:53.875 4:19.375 5:47 6:63.25 7:30.125 8:69.75 9:18.25 10:48.625 
-1 2:21.063 3:54.5 4:19.25 5:46.75 6:63.25 7:30.25 8:68.75 9:18.875 10:48.625 
-1 2:21.172 3:53 4:19.25 5:45 6:62.5 7:29.875 8:67 9:18.875 10:50.25 
-1 2:20.672 3:53.375 4:23.375 5:44 6:61.5 7:30 8:66.25 9:19.875 10:50 
-1 2:20.672 3:53 4:23.25 5:44.5 6:61.75 7:29.875 8:66.5 9:19.75 10:49.25 
-1 2:19.938 3:52.375 4:23.125 5:44.125 6:61.875 7:29.375 8:65.25 9:19.25 10:48.75 
-0.965883696851676 2:20.438 3:52.5 4:23.125 5:45 6:62.625 7:29.625 8:65.875 9:19.875 10:48.5 
-1 2:21 3:54.125 4:24 5:45.875 6:64.25 7:31.5 8:65.625 9:19.75 10:48.75 
-0.6776780864842571 2:20.5 3:53.625 4:22 5:42.875 6:64.25 7:28.375 8:66.625 9:18.375 10:45.125 
-1 2:20.172 3:53.5 4:21.875 5:42.625 6:64.25 7:28 8:66.25 9:18.125 10:44.75 
-1 2:20 3:53.5 4:21.75 5:42.75 6:64 7:27.75 8:66.375 9:18.125 10:44.25 
-0.479988068724916 2:20.172 3:53 4:21.25 5:42.625 6:63.875 7:27.75 8:65.75 9:18.125 10:44.25 
-1 2:21.438 3:54.75 4:21.5 5:42.625 6:64.125 7:28.25 8:66.375 9:18.75 10:43 
-1 2:21.328 3:54.875 4:21 5:42.5 6:63.875 7:28.75 8:66.75 9:18.25 10:43.25 
-1 2:21.781 3:55 4:20.75 5:43.25 6:62.75 7:28.875 8:66.75 9:18.625 10:43 
-0.503470684317453 2:22.281 3:55 4:20.625 5:43 6:63.125 7:29.25 8:66 9:18.625 10:44.5 
-0.4495215699340395 2:22 3:53.125 4:19.75 5:42.375 6:62 7:28.25 8:63.875 9:18.25 10:44.5 
-1 2:21.781 3:53.5 4:19.625 5:41.75 6:61.75 7:28.875 8:63.25 9:18.5 10:44.5 
-1 2:23 3:53.875 4:19.625 5:41.625 6:60.25 7:29 8:62.75 9:18 10:44.75 
-0.492615028625557 2:23.828 3:53.625 4:19.875 5:41.875 6:60.5 7:28.625 8:62.5 9:18.75 10:45 
-1 2:23.938 3:53 4:19.875 5:40 6:59.5 7:28.75 8:61.5 9:18.625 10:45 
-1 2:24.5 3:52.75 4:19.75 5:41.875 6:60.375 7:28.875 8:63.75 9:19.5 10:46.75 
-0.7104274066947635 2:24.672 3:53.375 4:20.625 5:41.625 6:60.875 7:29.375 8:64.125 9:19.75 10:46.5 
-1 2:24.391 3:54 4:20.75 5:42.875 6:61.5 7:29.75 8:64.75 9:19.5 10:47.75 
-0.7563319481731743 2:24.828 3:54.5 4:20.625 5:43.625 6:61.875 7:29.375 8:64.75 9:20 10:47.25 
-0.5574773618588885 2:24.781 3:54.25 4:21.125 5:43.875 6:62.25 7:29.5 8:64.875 9:20.25 10:46.25 
-1 2:24.109 3:55 4:20.75 5:45 6:62.75 7:29.625 8:65.625 9:20.125 10:47.875 
-1 2:24.391 3:55.25 4:21.125 5:45.125 6:62.75 7:29.375 8:65.875 9:21 10:48.5 
-1 2:24.938 3:54.5 4:22.375 5:44.25 6:62.875 7:29.25 8:64.625 9:21.25 10:48.25 
-1 2:25.672 3:53.625 4:23.125 5:44.5 6:64 7:29.125 8:65.5 9:21.375 10:48.875 
-0.7302264965616157 2:25.672 3:53.125 4:22.75 5:44.25 6:64.125 7:28.875 8:65.875 9:21.25 10:49 
-1 2:26.109 3:53 4:21.75 5:44.75 6:64.125 7:29.875 8:66 9:21.125 10:49 
-1 2:26.219 3:52.75 4:22.5 5:43.875 6:64.625 7:29.875 8:65.375 9:20.875 10:46 
-0.3131158176087406 2:26.063 3:52.625 4:22.375 5:43.25 6:64 7:31 8:64.75 9:20.625 10:47.875 
-1 2:26.281 3:53.75 4:22.5 5:43.5 6:65.375 7:31.625 8:66.125 9:21.5 10:49 
-0.6340022380295931 2:25.828 3:53.875 4:22.125 5:43.25 6:65.125 7:30.625 8:66.625 9:21.5 10:46.75 
-1 2:25.828 3:52.125 4:21 5:40.75 6:64.25 7:30.375 8:65.75 9:19.875 10:45.25 
-0.9160719785579194 2:26.891 3:52.875 4:22.125 5:41.25 6:66.125 7:31.25 8:66.5 9:21.875 10:47.125 
-1 2:27.719 3:53 4:21.75 5:41 6:65.75 7:31.125 8:67.5 9:21.625 10:47.5 
-0.9727838274244784 2:27.781 3:52.875 4:21.25 5:41 6:65.625 7:31.125 8:67.75 9:20.875 10:46.25 
-0.02538172899131587 2:27.109 3:51.125 4:21.25 5:39.375 6:63.875 7:30 8:67.125 9:20.125 10:44 
-0.9181183792581724 2:26.5 3:50.875 4:20.5 5:39 6:63.125 7:29.875 8:65.375 9:19.75 10:43.125 
-1 2:25.938 3:49.75 4:21.75 5:39.125 6:64.5 7:30 8:64.125 9:19.5 10:41.125 
-1 2:25.563 3:49.375 4:21.25 5:39 6:63.875 7:29.875 8:63.5 9:19.625 10:40.75 
-1 2:25.172 3:49.125 4:21.125 5:38.75 6:63 7:29.5 8:63.75 9:19.75 10:41 
-0.365638430419357 2:26.438 3:49.25 4:22.5 5:39.5 6:62.875 7:29.5 8:65.75 9:20.125 10:42 
-1 2:26.219 3:49.5 4:22.25 5:39 6:62 7:29.875 8:66 9:20.375 10:42.25 
-0.9838446033504871 2:26.438 3:51.75 4:22.125 5:40 6:62.875 7:30 8:65.25 9:20.875 10:42.125 
-0.6512929903575928 2:26.672 3:51.5 4:22.125 5:40.625 6:64.375 7:29.875 8:66.875 9:21 10:42.125 
-0.9189127814273906 2:27 3:51.25 4:22 5:40.375 6:63.875 7:30.25 8:69 9:20.625 10:42.75 
-0.2465029304006392 2:27.781 3:51.375 4:22.125 5:41 6:64.875 7:30.375 8:68.75 9:20.25 10:43.75 
-1 2:27.281 3:50.75 4:21.875 5:40.625 6:64.625 7:30 8:70.5 9:21 10:43.375 
-0.3877885680169505 2:27.063 3:50.75 4:21.75 5:40.625 6:65 7:30.25 8:70 9:21.375 10:43.75 
-0.3158123500442929 2:26.781 3:50.75 4:21.625 5:40.5 6:65.875 7:30.375 8:69.375 9:21.375 10:43.875 
-1 2:27.281 3:50.375 4:21 5:40.875 6:66.375 7:30.375 8:69.5 9:21.625 10:44.25 
-1 2:27.563 3:50.125 4:21.25 5:41 6:66.875 7:30.375 8:69.625 9:21.625 10:44.25 
-1 2:27.391 3:51.125 4:20.75 5:42.5 6:76.5 7:33 8:68 9:18.875 10:40.75 
-1 2:27.172 3:51.25 4:20.75 5:42.375 6:76.5 7:32.75 8:68.5 9:19.625 10:41.125 
-0.5857096630964818 2:27.391 3:51 4:21 5:41.875 6:76.75 7:33.125 8:68.75 9:19.5 10:41.25 
-1 2:27.063 3:50.25 4:20.25 5:41.625 6:76 7:32.75 8:68.25 9:18.875 10:41.25 
-1 2:27.5 3:49.875 4:20.125 5:41.375 6:76.5 7:32.5 8:68.75 9:19.25 10:41.625 
-1 2:27.672 3:50.125 4:20.375 5:41.375 6:75.75 7:32.75 8:69.375 9:19.625 10:41.75 
-1 2:27.5 3:50.25 4:20.625 5:41.5 6:76.125 7:32.875 8:69.125 9:19.875 10:42.375 
0.8545052407450466 2:21.328 3:53 4:19.125 5:46.375 6:63 7:29.125 8:70.5 9:18.875 10:48.25 
1 2:21.219 3:53.125 4:20 5:46.875 6:63.25 7:28.75 8:70 9:18.625 10:48 
-0.1932483285866081 2:21.281 3:52.625 4:19.875 5:46.75 6:63.5 7:28.375 8:69.875 9:18.125 10:48.5 
0.6917308317291098 2:21.328 3:52.25 4:19.25 5:46.375 6:63.25 7:27.625 8:69.5 9:18.125 10:49.125 
-0.8930778453719224 2:21.109 3:52.25 4:19.375 5:45.75 6:63.375 7:27.5 8:69.625 9:18.375 10:49.5 
-1 2:21.109 3:52.5 4:19.25 5:46.875 6:63.5 7:28.125 8:70.625 9:18.625 10:49.875 
0.28373984673922 2:20.891 3:52.75 4:19.625 5:46.75 6:63.25 7:29.25 8:70.625 9:18.375 10:49 
1 2:20.438 3:52.875 4:19.5 5:46.875 6:62.875 7:29.5 8:70.25 9:18.125 10:47.75 
1 2:21.109 3:53.125 4:19.875 5:46.25 6:63.125 7:30 8:68 9:18.75 10:50.125 
1 2:21.109 3:53 4:19.25 5:45.875 6:62 7:30.25 8:67.125 9:19 10:50 
0.07005422320156218 2:21.281 3:53.75 4:19.875 5:45.625 6:62.125 7:30 8:67.5 9:19.375 10:50.625 
0.5613911718874391 2:21.672 3:54 4:20.625 5:45.625 6:62.375 7:29.75 8:67.375 9:19.75 10:50.75 
-1 2:21.563 3:55 4:21.125 5:46.625 6:62.75 7:29.875 8:68.125 9:20 10:51.5 
-0.5559416775809589 2:21.719 3:55.75 4:23.125 5:47.25 6:63.625 7:30.125 8:69.75 9:20.125 10:52.125 
-0.8482861024175076 2:22 3:57.125 4:25 5:48.125 6:63.75 7:31 8:69.625 9:20 10:53 
-0.3980087171571219 2:21.672 3:58.125 4:25.125 5:47.75 6:63.125 7:30.625 8:69.125 9:20.125 10:52.25 
-1 2:21.563 3:58.5 4:23.875 5:47.875 6:63.625 7:31.625 8:69.125 9:21.5 10:51 
-0.04963042757763314 2:20.609 3:56.125 4:22.875 5:47.25 6:63.75 7:30.25 8:68.75 9:20.125 10:50.5 
0.6981233366651756 2:20.781 3:55 4:24 5:45.375 6:61.625 7:29.875 8:66.375 9:20.125 10:49.5 
1 2:20.781 3:54.625 4:23.75 5:45.5 6:64.625 7:30.875 8:65.875 9:19.875 10:48.5 
-0.990095877433805 2:21.063 3:55.5 4:23.625 5:45.75 6:64.875 7:30.75 8:66.125 9:20.25 10:48.625 
0.6899106295962342 2:21.063 3:54.625 4:23.875 5:45.5 6:65.625 7:30.75 8:67.375 9:20 10:48.5 
-0.5824472659674784 2:21.063 3:54.5 4:23.875 5:45.25 6:65.375 7:31.125 8:67.875 9:19.875 10:48.125 
-1 2:21.063 3:54.875 4:23.5 5:45.25 6:65.75 7:30 8:68.625 9:20 10:48.125 
1 2:20.828 3:54.75 4:21.625 5:43.125 6:64.625 7:28.875 8:66.375 9:18.875 10:43.125 
1 2:20.938 3:54.75 4:21.875 5:42.875 6:64.75 7:28.375 8:66.25 9:18.875 10:43.5 
1 2:24.609 3:54.5 4:20.5 5:42.875 6:61.25 7:29.625 8:64.75 9:19.75 10:47.875 
1 2:25.063 3:55 4:21.125 5:44.75 6:63.25 7:29.875 8:65.75 9:20.875 10:47.25 
1 2:25.219 3:55.25 4:21.25 5:45 6:63.5 7:30.25 8:66.5 9:21.125 10:47.375 
1 2:25.719 3:54.75 4:23 5:45.125 6:64 7:29.5 8:65.25 9:21.5 10:48.75 
1 2:27.438 3:50.25 4:21.75 5:41.5 6:67 7:30.25 8:69.375 9:21.75 10:44.25 
-1 2:28.5 3:50.5 4:21.625 5:42.875 6:69.625 7:30.875 8:71.5 9:22.25 10:44.625 
-0.3060912957053513 2:28.172 3:50.625 4:21.5 5:42.5 6:70.125 7:31.625 8:71.375 9:22.375 10:46 
-0.4173278043308223 2:28.328 3:50.5 4:21.75 5:41.625 6:71.375 7:31.5 8:71.5 9:21.875 10:45.75 
-1 2:29.391 3:51.125 4:22.625 5:43.125 6:74.5 7:32.625 8:73.5 9:23 10:46.75 
-0.03802622513855813 2:29.328 3:51.625 4:22.75 5:43 6:74 7:33.125 8:73.25 9:22.5 10:46.5 
-1 2:28.672 3:50.75 4:22.375 5:42.125 6:73 7:32.875 8:73 9:21.875 10:45.625 
1 2:28.609 3:50.75 4:22.375 5:42.625 6:73.25 7:32.875 8:72.875 9:21.875 10:45.875 
-0.9481934854823123 2:29.109 3:51.25 4:22.875 5:42.75 6:72.5 7:32.75 8:72.125 9:21.75 10:47 
0.5487278627962756 2:29.781 3:51.375 4:22.625 5:43 6:74.5 7:32.875 8:72.75 9:22 10:45.25 
-0.5609017657705864 2:29.5 3:51.25 4:22.25 5:42.25 6:75.375 7:32.75 8:71.875 9:21 10:45 
-0.8182200740341578 2:30 3:51.75 4:22.25 5:43.375 6:77.375 7:33.125 8:73.875 9:22.25 10:45.75 
-1 2:29.781 3:53.375 4:22.5 5:44 6:77.875 7:33.25 8:73.25 9:22.5 10:46 
0.2588937500951983 2:29.563 3:52.875 4:22.375 5:43 6:77.875 7:32.875 8:72.875 9:21.75 10:45 
0.5475061235342699 2:29.172 3:52.625 4:22.125 5:43.875 6:75.75 7:33.125 8:73 9:21.375 10:44.75 
-1 2:28.828 3:52 4:22.75 5:43.75 6:75 7:33.125 8:72.25 9:20.375 10:44.125 
-0.01303982180954366 2:28.781 3:52.875 4:22.625 5:44.125 6:75.75 7:33.375 8:72.5 9:21 10:44 
-0.7323114190891154 2:28.828 3:53.5 4:23.25 5:44.375 6:76.375 7:34.375 8:72 9:21.75 10:44 
-1 2:28.5 3:53.125 4:22.75 5:43.375 6:78.5 7:34.625 8:71 9:21.25 10:43 
-1 2:28.219 3:52.125 4:21.375 5:43.375 6:77.75 7:35.125 8:69.625 9:19.875 10:42.75 
0.6609907449392007 2:28.063 3:52.125 4:21.375 5:43.375 6:77.75 7:34.875 8:70 9:20.125 10:42.5 
1 2:27.891 3:50.125 4:21.125 5:41.75 6:76 7:32.75 8:69.375 9:19.875 10:41.375 
1 2:27.063 3:50.125 4:20.5 5:41.625 6:75.375 7:32.25 8:69.25 9:19.625 10:41.75 
1 2:27.563 3:50.5 4:21 5:41.875 6:76.875 7:32.5 8:70.875 9:20.5 10:42.25 
0.01991299724307927 2:27.719 3:49.375 4:21 5:41.75 6:77.375 7:31.75 8:70.5 9:20.25 10:41.625 
0.2259460822464519 2:28.5 3:50.125 4:21.25 5:42 6:77.875 7:31.875 8:70.25 9:20.75 10:42 
-0.5821715048856999 2:28.281 3:50.875 4:21.25 5:41.875 6:78 7:31.625 8:70.75 9:21 10:42.75 
-1 2:28.063 3:50.125 4:21.125 5:40.625 6:77.375 7:30.75 8:71.625 9:21.125 10:43 
-0.6338227470492677 2:27.891 3:50.375 4:20.75 5:39.875 6:76.5 7:29.125 8:71 9:20.5 10:42.125 
-1 2:27.391 3:50.625 4:20.5 5:40.125 6:76.75 7:28.875 8:71 9:21.125 10:41.5 
0.905428275144795 2:27.391 3:50.5 4:20.625 5:40.25 6:76.5 7:28.75 8:70.75 9:21 10:41.875 
0.09817667308962008 2:27.328 3:51 4:20.25 5:39.75 6:76.625 7:28.25 8:70.375 9:20.875 10:42.625 
-1 2:27.172 3:50.875 4:20.125 5:40.375 6:76 7:27.25 8:69.75 9:21.5 10:43.375 
0.4635470428113073 2:26.719 3:50.75 4:19.875 5:40 6:76.125 7:26.5 8:69.625 9:21.5 10:42.25 
-0.9869588072199005 2:26 3:50.5 4:19.375 5:39.75 6:74.75 7:25.75 8:69.875 9:21 10:41.625 
-0.4060706344311074 2:26.281 3:50.75 4:19.5 5:39.5 6:75 7:25.625 8:68.875 9:20.625 10:41 
-0.3314123332330613 2:26.172 3:50.75 4:19.375 5:40 6:74.5 7:25.75 8:68.375 9:21 10:41.125 
0.08398288814251109 2:26.563 3:50.25 4:19.625 5:40 6:75.125 7:26.25 8:68 9:21.625 10:41.25 
-1 2:26.5 3:50.625 4:19.625 5:39.625 6:75.25 7:27.75 8:66.75 9:21.875 10:41.5 
-0.2713963108517273 2:26.609 3:50.875 4:20.125 5:40.25 6:76.75 7:28 8:67.5 9:22 10:42.25 
0.9049657622347838 2:26.719 3:50.875 4:20.125 5:40.75 6:77.125 7:27.875 8:67.375 9:21.625 10:42.25 
0.3074742033272102 2:27 3:50.875 4:20.125 5:40.875 6:77.375 7:28.25 8:67.75 9:21.625 10:42.375 
-1 2:26.672 3:52 4:19.875 5:40.875 6:77.625 7:28.25 8:67 9:20.875 10:43 
-0.4752213262713001 2:26.5 3:51.625 4:20.125 5:40.5 6:78 7:28.125 8:66.375 9:21.125 10:42 
0.1382229730441813 2:26.719 3:51.375 4:20 5:40.5 6:78.875 7:28.375 8:66.375 9:21.375 10:42.5 
-1 2:27.328 3:50.25 4:19.75 5:40.75 6:79.5 7:28.125 8:67.125 9:21.75 10:42.25 
0.7859743145390929 2:27.172 3:50.875 4:19.75 5:40.625 6:79.375 7:27.125 8:67.5 9:21.875 10:42.5 
-0.4836932257794324 2:27.172 3:51.375 4:19.875 5:40.375 6:80 7:26.625 8:67.125 9:21.625 10:41.75 
-0.7823328089356796 2:26.891 3:51.125 4:19.875 5:40 6:79.75 7:26.5 8:67 9:22 10:42.375 
-0.8844063894635402 2:27.219 3:51.25 4:20 5:40.375 6:82.5 7:26.25 8:66.875 9:21.75 10:42.75 
0.4086662850935314 2:26.609 3:50.875 4:20.125 5:40.25 6:82.25 7:26.5 8:67.125 9:21.625 10:42.5 
-0.7024074153700939 2:26.438 3:50.25 4:20.125 5:40.625 6:83.5 7:26.75 8:67.5 9:21.75 10:43.625 
-0.4323110009679403 2:27.172 3:50.125 4:20 5:41.125 6:84 7:26.25 8:68.75 9:21.5 10:44 
-1 2:28 3:49.875 4:19.875 5:42.25 6:84.625 7:26.125 8:70.25 9:21.625 10:44 
-1 2:28.219 3:51 4:20.5 5:42 6:86.75 7:27.375 8:71 9:22.125 10:44.375 
-1 2:28.109 3:51 4:19.875 5:42.125 6:88.125 7:27.875 8:71.125 9:22.5 10:45.125 
0.2805724803189335 2:27.5 3:50.375 4:20.125 5:43.375 6:88.75 7:27.375 8:68.75 9:22 10:45.25 
0.1422514845103045 2:27.781 3:49.875 4:20 5:43.875 6:89 7:27.375 8:68.25 9:21.75 10:45.125 
-1 2:27.719 3:49.75 4:20 5:43.875 6:89.125 7:26.875 8:68.375 9:22 10:45 
-1 2:27.938 3:50.625 4:20 5:44.125 6:90.25 7:28.125 8:68.375 9:22.25 10:45.625 
0.2890992333080463 2:28.281 3:50.875 4:20 5:43.75 6:89.75 7:27.625 8:68 9:22.375 10:45.375 
1 2:27.781 3:50.625 4:20 5:43 6:88.375 7:27.5 8:67.75 9:21.625 10:45.125 
-0.6507444472173936 2:27.781 3:50.625 4:20 5:43 6:88.625 7:27.75 8:67.375 9:21.375 10:45.25 
-0.6335209055893016 2:27.5 3:50.75 4:20.25 5:43.125 6:87.375 7:28 8:67.25 9:21.5 10:44.75 
-1 2:27.563 3:50.375 4:20.5 5:42.625 6:87.375 7:28 8:66.25 9:21.25 10:44.5 
0.5127652326334906 2:28.219 3:50.875 4:20.625 5:43.375 6:88.5 7:28.375 8:66.75 9:22 10:44.75 
-0.5360285493910957 2:29.063 3:50.875 4:21.375 5:43.875 6:89.75 7:29.125 8:68.625 9:22.25 10:45.25 
-1 2:28.938 3:52.875 4:21.625 5:44.625 6:89.75 7:29.375 8:68 9:21.875 10:44.75 
-0.1933464628112959 2:29.563 3:52.75 4:21.5 5:44.875 6:90 7:29 8:67.875 9:21.625 10:44.625 
-1 2:29.719 3:53 4:21.75 5:45.75 6:90.75 7:29 8:68 9:22.125 10:45.125 
-1 2:29.781 3:53 4:21.625 5:45.5 6:91.25 7:28.5 8:68 9:21.875 10:44.875 
-1 2:30.109 3:53.375 4:21.5 5:44.875 6:89.375 7:27.5 8:67.5 9:22.25 10:44.125 
0.2829117909087875 2:29.328 3:53.375 4:21.625 5:45.125 6:90.375 7:27.25 8:66.125 9:21.5 10:43.75 
-1 2:28.891 3:53.5 4:22 5:45.125 6:90.875 7:27 8:66 9:21.125 10:42.75 
-0.7429059884463256 2:28.828 3:53.625 4:21.875 5:45 6:90.375 7:26.75 8:66.375 9:21 10:43.375 
-1 2:40.875 3:24.125 4:15.375 5:38 6:46.625 7:15.75 8:66.5 9:24.5 10:37.375 
-1 2:39.625 3:23.75 4:15 5:37.625 6:45.875 7:15.875 8:66.625 9:24.375 10:37 
-0.2153703743995155 2:41.625 3:23.625 4:14.625 5:37.375 6:46.5 7:15.5 8:67.75 9:24.375 10:36.875 
-1 2:44.25 3:23 4:14.75 5:38.375 6:47.25 7:16.375 8:65.875 9:25 10:38.25 
-0.6267120304120355 2:43.25 3:22.25 4:15 5:37.75 6:47.875 7:16.625 8:66.875 9:25 10:37.75 
-0.1476302609797719 2:42.625 3:22.625 4:15.125 5:37.25 6:47.625 7:16.5 8:67.25 9:25.25 10:37.375 
-1 2:43.875 3:23.375 4:14.75 5:40.25 6:50.875 7:16 8:66.25 9:24.5 10:35.875 
-1 2:43 3:22.75 4:14.375 5:39.5 6:49.5 7:15.875 8:64.375 9:23.75 10:34.875 
-1 2:44.75 3:23.875 4:15.875 5:37.75 6:48.75 7:14.875 8:68.5 9:24.875 10:32.625 
-0.7596879370429898 2:44.25 3:23.375 4:17 5:38.25 6:47.25 7:15.125 8:69 9:25.375 10:32.75 
-0.7033468543443939 2:46 3:23.5 4:17.5 5:38.125 6:48.625 7:15 8:68.75 9:25.25 10:33.375 
-1 2:44.5 3:23.625 4:17 5:39.25 6:51 7:14.875 8:70.75 9:24.375 10:32.875 
-0.03786888373697661 2:44.875 3:23.875 4:16.75 5:40.75 6:49.5 7:15.125 8:69 9:25.5 10:33.875 
-1 2:46.875 3:23.375 4:17 5:40.875 6:51.375 7:16.125 8:69.75 9:24.875 10:34.875 
-1 2:46.5 3:22.625 4:17 5:41.875 6:50.875 7:16 8:70.5 9:24.875 10:34.875 
-1 2:42.625 3:23 4:17.625 5:41.875 6:49.875 7:16.5 8:67 9:26.25 10:35 
-1 2:44.625 3:23 4:17.375 5:42.5 6:49.375 7:17.125 8:67.75 9:26.125 10:34.375 
-0.3580580474032572 2:43.625 3:23.125 4:17.625 5:42 6:48.875 7:17.125 8:68 9:26.625 10:34.5 
-0.08335016956538999 2:43.875 3:23.25 4:17.875 5:42.125 6:48.125 7:16.75 8:68 9:26.5 10:34.25 
-0.7228534876259134 2:42.875 3:23.375 4:18 5:41.75 6:46.625 7:16.75 8:68.625 9:26.75 10:34.375 
-1 2:43 3:22.625 4:17.875 5:42 6:43.75 7:17.125 8:67.875 9:26.25 10:34.25 
-1 2:44.25 3:23.375 4:17.875 5:42.875 6:43.375 7:17 8:69.5 9:26.875 10:34.125 
-0.7916829858197088 2:43.75 3:21.25 4:19.375 5:42.75 6:28 7:17.125 8:67 9:23.25 10:35.875 
-0.7655974844771012 2:45 3:21.25 4:19.5 5:42.75 6:27.75 7:16.625 8:67.25 9:23.375 10:35 
-0.6006144401945062 2:45.125 3:20.875 4:20.25 5:44.125 6:29 7:17 8:67.75 9:24.125 10:36 
-1 2:44.25 3:21.375 4:19.875 5:45.375 6:28.75 7:18.125 8:69.75 9:24.25 10:36 
-1 2:48.75 3:29 4:20.125 5:50.75 6:35.125 7:20.125 8:76.375 9:28 10:38.5 
-1 2:47.25 3:35.25 4:16.125 5:56.75 6:47.25 7:28.25 8:80.75 9:27.75 10:39.375 
-1 2:46.75 3:35.25 4:15.75 5:57.5 6:49 7:27.375 8:80.125 9:27.25 10:39.75 
-1 2:47.5 3:36.875 4:15.75 5:55.25 6:50.375 7:27 8:79.125 9:27.875 10:39.625 
-1 2:47 3:39.5 4:16.875 5:55.375 6:48.75 7:23.5 8:81.25 9:26.625 10:40 
-1 2:46.125 3:38.875 4:15.75 5:56.375 6:49.25 7:22.25 8:80.875 9:26.375 10:39.5 
-1 2:46.625 3:38.875 4:15.75 5:57.5 6:49.5 7:22.75 8:81 9:26.75 10:39.375 
0.633826326207972 2:46 3:39 4:15.625 5:57.75 6:50.75 7:22.75 8:81.875 9:27.625 10:39.875 
-0.1956942843117937 2:46 3:39.25 4:16.125 5:59.25 6:51 7:23 8:81.5 9:27.375 10:39.75 
-1 2:46.25 3:39.625 4:15.875 5:57.375 6:50.75 7:22.625 8:82 9:27.375 10:40.125 
-1 2:46.75 3:39.625 4:16 5:56.875 6:49.625 7:22.75 8:82.375 9:27.125 10:40 
-1 2:46 3:38.875 4:16.375 5:57 6:50 7:22.5 8:81.625 9:26.125 10:39.875 
0.5194515953027437 2:46.375 3:39 4:16.5 5:57.625 6:49.875 7:22.625 8:81.625 9:26.875 10:40.125 
-1 2:46.75 3:39.25 4:16.75 5:59.25 6:51.375 7:22.75 8:82.125 9:27 10:39.875 
-1 2:48.375 3:38.125 4:17.375 5:60.125 6:51.375 7:23.625 8:83.25 9:27.75 10:41.125 
-1 2:45.625 3:41.625 4:17.5 5:55.625 6:50 7:25 8:79.625 9:26.875 10:41.375 
-0.9464966449082974 2:45.375 3:40.875 4:18.125 5:55.625 6:52.625 7:25.875 8:80.25 9:27.125 10:41.5 
-0.1478246921584205 2:45.5 3:40.75 4:17.75 5:55.875 6:52 7:25.5 8:80 9:27.75 10:42.375 
-0.2577856153650034 2:45.75 3:41.875 4:17.875 5:55.875 6:50.375 7:25.375 8:80 9:27.875 10:42.125 
-1 2:46 3:42.75 4:18 5:56.375 6:52.625 7:25.5 8:79.75 9:27.625 10:42.375 
-1 2:44.625 3:42.25 4:17.625 5:56.5 6:54 7:24.75 8:80.125 9:27.75 10:42.25 
-1 2:44.25 3:42.875 4:18.375 5:56.5 6:54.5 7:25 8:79.5 9:27.5 10:42.125 
0.02015365678363301 2:44.375 3:41.75 4:18.25 5:56.125 6:54.5 7:25.375 8:79.75 9:26.875 10:42.5 
-1 2:45.125 3:42 4:17.75 5:56.375 6:55.625 7:26.125 8:80 9:26.875 10:42.125 
-1 2:45.375 3:44.25 4:18.125 5:57.125 6:51.25 7:30.125 8:87 9:25.625 10:42.5 
-1 2:45.875 3:46.75 4:19 5:58.625 6:55.5 7:30.5 8:87.25 9:25.5 10:42.75 
-1 2:50 3:41.125 4:19.125 5:51.75 6:54.125 7:26.875 8:81 9:26.75 10:42.125 
-1 2:50.375 3:46.25 4:19.375 5:52.25 6:61.875 7:23.5 8:78.625 9:26.625 10:41.875 
-1 2:50.75 3:46.375 4:19.625 5:50.875 6:64.625 7:23.25 8:77.625 9:26.5 10:40.75 
-0.7057686836610718 2:50.625 3:46.625 4:19.625 5:50.875 6:64.625 7:23.25 8:75 9:26.25 10:41.25 
-1 2:50.125 3:47 4:19.875 5:50.75 6:62.75 7:22.875 8:74.5 9:25.25 10:40.625 
1 2:27.938 3:51.25 4:20.125 5:42.5 6:85.625 7:26.75 8:70.5 9:21.625 10:44.375 
1 2:28.063 3:51.5 4:20.25 5:44.375 6:91.25 7:27.75 8:71.125 9:22.25 10:44.75 
1 2:28.891 3:53.25 4:21.5 5:44.125 6:89.5 7:29.625 8:68.25 9:22 10:45.125 
0.2391853811264928 2:30.781 3:54 4:22.125 5:45.875 6:92.625 7:28.125 8:69 9:22.5 10:45.25 
1 2:30.328 3:54.25 4:22 5:45.5 6:91.875 7:27.5 8:68.625 9:22.25 10:44.5 
-0.1073160340985285 2:30.5 3:53.875 4:21.375 5:44.625 6:91.875 7:27.25 8:69 9:22 10:45.125 
1 2:30.719 3:53.75 4:21.125 5:45 6:91.125 7:28 8:67.875 9:21.875 10:44.5 
1 2:30.781 3:54 4:20.75 5:45.125 6:91.25 7:28.125 8:67.875 9:21.625 10:44.125 
0.6916028287129956 2:31.063 3:54.5 4:21 5:45.125 6:91.375 7:28.5 8:67.75 9:21.5 10:44.375 
-1 2:31.172 3:55 4:21.375 5:45.125 6:92.5 7:27.75 8:67.625 9:21.875 10:44.75 
-0.6861024353033496 2:31.781 3:55 4:21.375 5:45.625 6:92 7:27.75 8:67.625 9:22 10:45.25 
0.409427003119956 2:31.891 3:55.125 4:21.25 5:45.75 6:93 7:27.5 8:67.375 9:21.875 10:45 
0.06134103227282917 2:32.328 3:56.5 4:21 5:46.125 6:93.75 7:27.125 8:68.875 9:22.125 10:44.875 
0.222936947887869 2:32.438 3:56.875 4:21.25 5:45.5 6:88.125 7:27.375 8:68.625 9:22.5 10:45.125 
-1 2:32.219 3:56.375 4:20.75 5:45.75 6:85.125 7:27.375 8:68.75 9:22.125 10:45.25 
-0.1149952810964934 2:32.109 3:56.625 4:20.625 5:45.25 6:85.875 7:26.75 8:69 9:22 10:45.25 
-1 2:32.891 3:56.375 4:20.25 5:45.25 6:84.125 7:26.625 8:69.375 9:21.875 10:45.25 
-1 2:34.063 3:56.875 4:20.625 5:44 6:80.375 7:26.75 8:70.125 9:22 10:44.75 
-0.3111781412554685 2:33.719 3:57 4:20.375 5:43.75 6:78.75 7:26.25 8:68.875 9:21.875 10:43.875 
-1 2:33.609 3:56.375 4:20.625 5:43.875 6:78.75 7:26.375 8:68.375 9:21.875 10:43.25 
1 2:33.5 3:56.25 4:20.75 5:43.5 6:78.625 7:26.25 8:68.375 9:21.875 10:42.875 
-1 2:33.609 3:57.125 4:22 5:44.875 6:78.875 7:25.25 8:72 9:21.875 10:45.125 
-1 2:34.672 3:57.625 4:21.875 5:44.875 6:79 7:26 8:73.125 9:22.25 10:45.5 
-1 2:33.922 3:57.5 4:21.5 5:45.5 6:79.125 7:26.5 8:73.125 9:22.25 10:45.125 
-0.9324777893982326 2:32.422 3:57.875 4:21 5:46.75 6:72.875 7:26 8:73.5 9:22.125 10:43.875 
0.6138294275341081 2:32 3:58.25 4:20.5 5:46.375 6:73.625 7:26.125 8:72.625 9:22 10:43 
0.1946138478778409 2:32.672 3:58.625 4:20.5 5:46.25 6:74.75 7:26.125 8:72.75 9:22 10:43.75 
-0.2784652434976005 2:32.578 3:58.375 4:20.375 5:46.375 6:75.25 7:26.375 8:72.75 9:22.125 10:44.75 
-1 2:32.422 3:58.5 4:20.5 5:47.25 6:75.5 7:26.125 8:73.875 9:22 10:45.75 
-1 2:39.672 3:44.125 4:17.125 5:39.5 6:68.25 7:17.625 8:68.625 9:21.375 10:45.875 
-0.9710747590478406 2:38.672 3:39.25 4:13.25 5:42 6:58.25 7:17.5 8:65 9:22.375 10:46.875 
0.3345029735243692 2:38.25 3:39.375 4:13.125 5:41.5 6:54.875 7:17.75 8:65.125 9:22.25 10:46 
0.2912748304815361 2:42.078 3:39.375 4:13 5:39.625 6:52.5 7:17.5 8:64.125 9:22.125 10:47.625 
-1 2:42.328 3:38 4:12.875 5:39.25 6:52.125 7:17 8:62.625 9:21.75 10:47.625 
-1 2:41.672 3:37.25 4:12.875 5:40.25 6:54.875 7:17.625 8:60.75 9:21 10:47.75 
-1 2:41.5 3:36.25 4:13.375 5:39.625 6:53.5 7:17.875 8:60.125 9:21.125 10:47.375 
-0.991777163546937 2:41 3:36.625 4:13.625 5:39.375 6:55.125 7:17 8:62.25 9:21.125 10:46.875 
0.6161563997660831 2:40.328 3:36.5 4:13.875 5:38.75 6:55.25 7:17 8:61.375 9:21.25 10:47.125 
0.2746382788536468 2:40.422 3:36.375 4:14.5 5:38.875 6:55.25 7:16.5 8:60.75 9:21 10:47 
0.2984780923672907 2:40 3:36.25 4:14.75 5:38.25 6:54.25 7:16.25 8:61.125 9:20.875 10:47.375 
-0.4126885321766357 2:40.75 3:36.5 4:14.875 5:38.625 6:55.125 7:15.625 8:61.25 9:21.625 10:48.25 
-1 2:41.078 3:36.75 4:14.125 5:38.625 6:54.5 7:15.75 8:61.5 9:21.375 10:49 
-1 2:52.375 3:27 4:15.625 5:36 6:43.5 7:15 8:61 9:25.875 10:41.75 
-0.6068292529174431 2:50.625 3:26.875 4:15.375 5:35.75 6:43.625 7:14.875 8:60.375 9:23.875 10:39.75 
0.3507915209823584 2:48.5 3:26.125 4:15.375 5:35.125 6:43.75 7:15.125 8:60 9:22.875 10:39.5 
0.02803431512935384 2:46.125 3:27.25 4:15.75 5:35.5 6:44.375 7:16 8:62.5 9:21 10:38 
0.07970158973616237 2:45 3:27.5 4:15.625 5:35.375 6:43.375 7:16.5 8:63.875 9:21.625 10:37.625 
0.124657187219586 2:42.5 3:26.875 4:15.25 5:34.625 6:41.25 7:16.375 8:62.375 9:21.5 10:36.375 
0.07460594854467303 2:48.375 3:26.25 4:15.125 5:34.75 6:41 7:16.25 8:62.125 9:23 10:38 
-0.01428980121873058 2:47.875 3:26.375 4:15 5:34.5 6:40.75 7:16.125 8:61.375 9:23 10:38.5 
0.02204359310366855 2:48.75 3:26.25 4:15 5:34.625 6:41.75 7:17 8:61.75 9:23.5 10:39 
0.03442134844848721 2:48.25 3:25.25 4:14.5 5:34.5 6:41.375 7:16.75 8:61 9:23.375 10:38.25 
-0.04130654043869314 2:48.75 3:25.5 4:15.25 5:35.25 6:44.25 7:17.125 8:62.625 9:23.875 10:38.625 
0.1177175580918741 2:47.25 3:25.25 4:14.875 5:35.125 6:45.5 7:16.5 8:63.125 9:24 10:38.5 
0.1139882303644807 2:47.625 3:24.875 4:15 5:36.625 6:49.625 7:17.25 8:63.625 9:25.25 10:39.5 
0.07973679405922679 2:47.625 3:25.25 4:15.5 5:37.125 6:50.875 7:17.25 8:64 9:25.5 10:39.5 
0.1959448479414009 2:46.875 3:25.375 4:15.875 5:37.625 6:53.75 7:17.25 8:63.875 9:25.375 10:39 
-0.2591419781856456 2:46.125 3:25.375 4:16 5:37.75 6:51.875 7:16.75 8:64.5 9:24.875 10:39 
-0.03810348254978146 2:45.625 3:25.125 4:16.5 5:37.75 6:50 7:16.5 8:63.75 9:25.25 10:39 
0.2449773530198548 2:44 3:25.25 4:16.375 5:38 6:48.875 7:16.5 8:63.625 9:25.5 10:39 
1 2:40.75 3:24.25 4:15.75 5:38.375 6:47.375 7:15.875 8:64.625 9:24.375 10:37.625 
1 2:44.375 3:24.625 4:15.125 5:39.25 6:51 7:16.375 8:65.75 9:25.125 10:36.75 
0.6718428605884576 2:46 3:22.375 4:14.375 5:39 6:49.625 7:15.375 8:64.875 9:23.5 10:35.25 
0.1343975736731685 2:45.375 3:21 4:14.25 5:38.125 6:48.375 7:15 8:64.375 9:22.75 10:33.25 
0.0629022763085747 2:48.25 3:19.25 4:14.375 5:38.5 6:48.875 7:15.75 8:65.625 9:22.75 10:32.25 
0.1146381236702179 2:48.5 3:20.75 4:14.625 5:39.25 6:50.25 7:16.25 8:67.375 9:25 10:31.875 
-0.0702007459659853 2:47.375 3:20.125 4:15 5:39.375 6:51.75 7:15.875 8:66.25 9:25 10:32.375 
0.08501143682234436 2:47.875 3:22.125 4:15.125 5:38.5 6:51.625 7:15.5 8:66.75 9:24.75 10:33.5 
0.4901549413702009 2:46.125 3:22.375 4:15.125 5:38.875 6:50.625 7:15.375 8:66 9:24.5 10:33.375 
-0.5846953617476832 2:46.125 3:22.125 4:15.25 5:38 6:50 7:15.125 8:65.375 9:24.25 10:33.125 
1 2:44.5 3:22.25 4:15.5 5:38.25 6:49.375 7:15.125 8:67.375 9:24.625 10:32.75 
1 2:46.375 3:22.625 4:17.25 5:41 6:51.75 7:16.125 8:70.125 9:26.375 10:35.125 
1 2:44.25 3:23.125 4:17.375 5:42 6:49.375 7:16.75 8:67 9:26.125 10:34.625 
1 2:45 3:23.375 4:17.75 5:42.25 6:42.25 7:17.25 8:68.375 9:26.875 10:33.125 
0.01084736245047135 2:45.5 3:23.125 4:17.875 5:43.375 6:42.5 7:18 8:67.875 9:27.25 10:33.875 
0.104112512762113 2:46.25 3:23.625 4:18.25 5:43.375 6:44.375 7:18.5 8:68.75 9:27.125 10:33.5 
0.4624894366123588 2:46.125 3:23.75 4:19.125 5:43.75 6:44.75 7:17.75 8:68 9:26.625 10:34 
-0.07352844023733218 2:45.5 3:24.625 4:19.875 5:45.125 6:45 7:18 8:66.5 9:26.875 10:34.125 
0.1447053791837036 2:45.125 3:24.125 4:20.5 5:44.75 6:43.75 7:18.5 8:66.75 9:26.25 10:35 
-0.1525811644083729 2:45.75 3:24.375 4:19.875 5:45.875 6:43.75 7:18.875 8:67.25 9:25.875 10:35.125 
0.1442943274958903 2:44.875 3:25.375 4:19.25 5:46 6:43.75 7:18.875 8:68 9:26.625 10:36.5 
-0.01902714795739258 2:44.5 3:25.75 4:19.375 5:46.5 6:43.875 7:19 8:68 9:26.875 10:35.5 
0.166251150274934 2:44.875 3:26.125 4:19.625 5:47.875 6:43.25 7:18.5 8:68 9:27.25 10:35 
-0.0812844866791857 2:45.25 3:25.75 4:19.625 5:47 6:42.5 7:18.5 8:68 9:27.375 10:35.75 
0.001578543558164253 2:45.875 3:25.25 4:19.125 5:46.125 6:42.5 7:18.75 8:68.625 9:27.375 10:36.625 
0.08599872322439583 2:46.5 3:26 4:19.875 5:45.625 6:42.5 7:18.875 8:68.875 9:27.625 10:37.75 
-0.05957664904455825 2:46.125 3:25.375 4:19.5 5:45 6:42.25 7:19.25 8:68.75 9:27.625 10:37.5 
0.08678575164411317 2:46.25 3:25.125 4:20.25 5:44.5 6:40.875 7:19.25 8:69.75 9:27.625 10:38.5 
0.09233662962807915 2:45.375 3:25.25 4:19.625 5:44 6:38.875 7:17.375 8:70.125 9:27.75 10:37.875 
0.08023322881348016 2:44.75 3:25 4:18.375 5:43.375 6:38 7:17.375 8:67.875 9:26.625 10:35.5 
0.02995163833077208 2:46.375 3:25.375 4:18.625 5:43.75 6:39.75 7:17.5 8:66.5 9:26.625 10:35.5 
0.218096632248297 2:48.25 3:23.375 4:20 5:45.625 6:30.125 7:19 8:68.5 9:26.375 10:37 
0.1161870198012833 2:49.25 3:25.25 4:19.75 5:46.375 6:31.875 7:19.375 8:70.125 9:26.5 10:40 
0.5514450462829798 2:48.5 3:29.25 4:20.5 5:50 6:36.25 7:20.625 8:74.625 9:27 10:38.625 
0.08792132454821733 2:47.25 3:28.875 4:19.5 5:52.75 6:37.125 7:21 8:75 9:27.5 10:38.75 
0.1769992558304224 2:47.875 3:29.875 4:19.75 5:51.75 6:37.375 7:21 8:75.25 9:28.125 10:38.875 
0.04769759915813188 2:49.75 3:28.5 4:18.375 5:50.625 6:38.75 7:21.125 8:73.875 9:28.5 10:39.25 
0.1309308737711677 2:51.125 3:26.5 4:16.625 5:50.375 6:40.125 7:25.125 8:76 9:29.25 10:38.375 
0.1091187989992868 2:52 3:28 4:17.25 5:52.625 6:45.5 7:23.75 8:77.75 9:29 10:40.875 
0.09136970258868871 2:51 3:27 4:17.5 5:52 6:43.875 7:23.125 8:76 9:27.5 10:41.5 
0.1224662799985065 2:48.25 3:25.375 4:18.125 5:52.375 6:49.75 7:26.25 8:75.875 9:27.75 10:41.25 
0.08522870050193676 2:48 3:26.375 4:18.875 5:50.625 6:47.125 7:24.875 8:77 9:27.625 10:41.25 
0.05389190763177021 2:48 3:25.125 4:17.75 5:49.625 6:44.875 7:25 8:75.125 9:27.375 10:42.375 
0.06322491264218455 2:47.5 3:25.5 4:17 5:49.75 6:43.5 7:25 8:75.75 9:26.5 10:42.375 
0.04817491484570924 2:46.875 3:26.25 4:16.125 5:49.125 6:42.75 7:25 8:74.25 9:27.125 10:40.375 
0.09317889215072295 2:46.125 3:24.75 4:15.75 5:48.125 6:41.625 7:24.125 8:74.125 9:26.5 10:40.375 
0.2791750821744138 2:49.25 3:24.5 4:14.5 5:46.5 6:41 7:25.75 8:75.25 9:27.5 10:40.75 
-0.2132942341698037 2:49.5 3:24.375 4:14.875 5:46.875 6:40.875 7:26 8:75.5 9:27.625 10:41.125 
-0.6632854724984201 2:50.25 3:24.5 4:15.25 5:49.375 6:40.75 7:26.75 8:76.375 9:27.875 10:42.125 
-0.1808311198381502 2:49.5 3:23.625 4:15.375 5:49.125 6:40.5 7:26.125 8:77.75 9:28.5 10:41.25 
0.1428963200687046 2:47.75 3:23.75 4:15.625 5:49.375 6:40.125 7:26.125 8:79.375 9:28.125 10:39.25 
0.07673688190284067 2:48.375 3:28.5 4:15.625 5:50.25 6:39.75 7:26.125 8:79.25 9:27.875 10:39.75 
0.09920096292427816 2:47.125 3:29.375 4:15.5 5:52.125 6:38.375 7:26.25 8:79.25 9:27 10:39.625 
-0.07318523536352228 2:47.25 3:29.125 4:15.375 5:52.875 6:37.25 7:27 8:79.75 9:27 10:39.25 
0.1168285788324556 2:47.125 3:29.25 4:15.375 5:53.375 6:36.25 7:27.5 8:80.625 9:26.875 10:38.625 
0.05226139342208402 2:47.75 3:29.5 4:15.625 5:54.25 6:37.125 7:28.75 8:81 9:27 10:39.125 
0.1108263870137953 2:48.125 3:32.125 4:15.875 5:58.25 6:38.5 7:29.625 8:83.375 9:28 10:40.375 
0.001238019806522273 2:47.625 3:32.75 4:16 5:57.875 6:38.625 7:29.25 8:83.375 9:27.875 10:40.875 
0.03693449251622344 2:47 3:33.5 4:16 5:56.25 6:37.5 7:28.875 8:81.875 9:27.75 10:40.625 
0.1006304596428314 2:46.875 3:34.375 4:16.25 5:56.5 6:37.75 7:28.125 8:80.5 9:27.125 10:39.5 
-0.04193800987672292 2:47.25 3:34.375 4:16.25 5:54.875 6:40.5 7:28.25 8:81.75 9:28 10:39.25 
0.03491169780270637 2:47.625 3:34.375 4:16.25 5:57.25 6:41 7:28 8:82.5 9:27.625 10:37.75 
0.0428375256653665 2:49.125 3:33.375 4:16.25 5:56.75 6:41.375 7:27.75 8:82.25 9:27.875 10:38 
0.09419703762526072 2:48.875 3:32 4:15.75 5:55 6:41.125 7:27.625 8:80.75 9:26.875 10:37.375 
-0.03166992792402701 2:48.875 3:32.5 4:15.5 5:55.75 6:40.625 7:28.5 8:80.75 9:26.875 10:38.875 
0.08501764043507418 2:47.75 3:31.125 4:15.25 5:54.125 6:40.75 7:28 8:81 9:26.25 10:39.625 
-0.09509152658041564 2:47 3:33.5 4:15.375 5:55 6:42.75 7:27.75 8:80.5 9:27.5 10:39.75 
0.1195037915854593 2:46.625 3:33.25 4:15.875 5:55.125 6:42.75 7:27.625 8:82 9:27.75 10:40.75 
-0.1248331279978554 2:46.5 3:33.375 4:15.875 5:55.625 6:43.375 7:28 8:82 9:27.75 10:40.5 
0.5516426879898739 2:47 3:35 4:16.25 5:55.625 6:44.125 7:28.875 8:81.25 9:27.625 10:39.625 
0.09590512918719163 2:47.625 3:37 4:15.125 5:55 6:47.25 7:23 8:79 9:27.375 10:39.125 
0.4895290353765669 2:46.125 3:36.5 4:15.625 5:55.125 6:48.75 7:23.625 8:79.25 9:27.625 10:39.125 
-0.1493894913763019 2:45.875 3:37.25 4:15.875 5:54.5 6:47.75 7:24 8:80 9:27.5 10:39.25 
0.3557931670035457 2:45.75 3:37.625 4:16.125 5:54 6:48.75 7:24.5 8:79.25 9:27.25 10:39.625 
0.7691703951134064 2:45.875 3:38.375 4:17.5 5:54.875 6:47.25 7:24 8:81.25 9:27.125 10:40.75 
1 2:47.125 3:40 4:17.375 5:56.5 6:49.125 7:22.875 8:81.125 9:25.875 10:39.875 
1 2:48.125 3:39.625 4:16.625 5:57.25 6:49.75 7:22.5 8:82.125 9:27.125 10:40 
1 2:47 3:38.5 4:16.125 5:55.875 6:51.375 7:22.5 8:80.25 9:26.25 10:39.75 
1 2:47 3:39 4:16.25 5:56 6:50.125 7:22.75 8:81.625 9:26.75 10:39.625 
0.8264700427707391 2:48.875 3:38.375 4:17.75 5:59.5 6:52.875 7:24.625 8:84.75 9:28 10:42 
-0.2973174765223863 2:48.375 3:39.75 4:17.625 5:59.125 6:54.375 7:25.125 8:85.125 9:27.75 10:43.25 
0.1782612969774534 2:48.25 3:39.875 4:17.625 5:58.375 6:56.375 7:25.25 8:85 9:27.75 10:43.25 
0.05461984565942257 2:48.125 3:39.875 4:17.125 5:57.75 6:55.125 7:25.125 8:85.25 9:27.625 10:42.5 
-0.05103004506063913 2:47.75 3:39 4:17.5 5:57.875 6:53.5 7:25.875 8:84 9:27.5 10:42.75 
0.2830697728522298 2:48 3:39.25 4:17.375 5:56.375 6:52.5 7:26.5 8:81.75 9:26.75 10:41.5 
0.8177046085653992 2:47.75 3:38.875 4:17.75 5:56.25 6:53 7:26.25 8:81.125 9:26.375 10:41.625 
-0.2108959677548041 2:48.125 3:38.875 4:17.875 5:56.375 6:53.875 7:27 8:80.875 9:26.375 10:41.75 
0.00530305238893225 2:47.875 3:38.5 4:17.25 5:56.5 6:53.75 7:27 8:80.875 9:26.375 10:41.375 
-0.2201498294607085 2:48.375 3:38.25 4:17.625 5:56 6:54.5 7:26.375 8:82 9:26.5 10:41.375 
-0.07451136453191598 2:49.375 3:38.75 4:17.75 5:56.75 6:54.25 7:26.25 8:82.625 9:26.875 10:41.25 
-0.05975775356610136 2:49.5 3:40 4:17.75 5:56.5 6:53.75 7:25.75 8:82.125 9:26.875 10:41 
1 2:45.75 3:42.5 4:17.875 5:56.625 6:53.375 7:25.375 8:80 9:27.75 10:42 
1 2:45 3:42.125 4:17.5 5:56.5 6:53.75 7:24.75 8:79.375 9:27.5 10:41.75 
0.8658732156216193 2:45.5 3:42.25 4:17.875 5:56.625 6:57 7:27.125 8:81.75 9:26.75 10:42.25 
0.08822269081009312 2:43.75 3:44.375 4:18.75 5:59.875 6:57.25 7:29.75 8:84.25 9:27.375 10:44.375 
0.1088318349390606 2:43.25 3:44.5 4:19.25 5:59.375 6:55.625 7:29 8:84.375 9:27 10:44 
0.1050962021316555 2:43.875 3:44.5 4:19.125 5:57.5 6:50.875 7:29.375 8:83.5 9:26.625 10:44.5 
0.08868216518583119 2:44 3:44.5 4:19.125 5:58.5 6:51.5 7:29.75 8:84.25 9:26.75 10:45.125 
0.0213556532002859 2:43.625 3:43.375 4:19.125 5:57.375 6:54 7:29.75 8:83.5 9:26.125 10:45.125 
0.3203123531163659 2:46.5 3:44.625 4:19.75 5:57.25 6:57 7:30 8:85 9:26.625 10:45.25 
-0.05398088723819783 2:46.375 3:45 4:19.75 5:57.625 6:57.125 7:29.75 8:84.75 9:27.125 10:45.625 
-0.2556588189286065 2:45.25 3:44 4:19.5 5:56.75 6:56.375 7:29 8:84.75 9:27 10:44.75 
0.389570189347745 2:45.5 3:44 4:19.5 5:56.75 6:54.25 7:29.125 8:84.875 9:27.125 10:44.875 
-0.03791103036919208 2:46.25 3:43.5 4:19.375 5:57.625 6:53.625 7:29.5 8:84.125 9:27.5 10:44.25 
-0.1160877692664547 2:46.5 3:43.75 4:19.5 5:56.625 6:53.75 7:29.375 8:83 9:27 10:44.5 
0.278859351827103 2:46.75 3:44 4:19.625 5:56.625 6:53.25 7:29.25 8:82.875 9:26.25 10:44.875 
-0.1897835028173974 2:46.375 3:44.125 4:19.75 5:56.75 6:52.75 7:29.25 8:84 9:26.25 10:45 
-0.08696031977812391 2:46 3:44.125 4:19.75 5:57 6:53.375 7:29 8:84.625 9:26.875 10:45 
-0.1437372989058645 2:46.25 3:44.25 4:20 5:56.875 6:52 7:29 8:84.375 9:26.875 10:44.125 
0.5823763170012554 2:46.75 3:44.25 4:19.625 5:57.375 6:50.5 7:29 8:85.5 9:26.375 10:43.375 
0.1018388634735643 2:48.625 3:42.375 4:19 5:58 6:53.25 7:30.125 8:84.625 9:26.75 10:44.125 
-0.003377370168484717 2:48.75 3:41.75 4:19 5:55.75 6:51.125 7:29.25 8:83.5 9:26.5 10:43.625 
0.1065730767424019 2:49 3:40.125 4:18.875 5:54.5 6:51 7:28 8:83.375 9:26.375 10:42.875 
0.06599135378685062 2:50.125 3:41.5 4:18.875 5:53.625 6:54.5 7:27.75 8:83.625 9:26.25 10:43.375 
0.2885595118090464 2:50 3:41 4:18.375 5:53.25 6:55.25 7:27.875 8:82.125 9:26.5 10:43.5 
0.1519780303554565 2:49.625 3:42.5 4:18.5 5:52.875 6:56 7:27.5 8:80.25 9:26.375 10:43 
0.01445112281038019 2:50.5 3:42.375 4:18.625 5:52.375 6:56.125 7:27.625 8:80.125 9:26.375 10:43.5 
-0.03365289712260733 2:52.125 3:42.125 4:19.125 5:53.125 6:57.75 7:27.375 8:81.25 9:26.375 10:43.25 
0.2444750879075417 2:52.375 3:42.25 4:19 5:54 6:59.75 7:27 8:81.25 9:26.625 10:43.625 
-0.2652818766492069 2:51.75 3:42.25 4:19.125 5:53.625 6:57.875 7:26.375 8:81.375 9:26.875 10:43.25 
0.3333135745787627 2:51.125 3:41.875 4:18.875 5:52.625 6:56.125 7:26.375 8:80.875 9:26.375 10:42.375 
0.4284427938045697 2:49.875 3:41.125 4:19 5:52 6:54.75 7:24.375 8:80.375 9:27.125 10:42.375 
0.0688588018866082 2:49 3:41.125 4:19.75 5:53 6:57.625 7:21.625 8:81.875 9:26.875 10:42.375 
0.02412461403907773 2:50 3:40.75 4:19.75 5:53.125 6:58.625 7:22.5 8:80 9:26 10:42.25 
0.03226948023430154 2:49.75 3:40.875 4:19.875 5:52.75 6:57.625 7:23 8:77.75 9:26.625 10:42.375 
0.549583596691029 2:50.25 3:45.625 4:19.75 5:52.5 6:59.125 7:24 8:79 9:26.75 10:42.25 
0.192108225792657 2:50.875 3:49.5 4:19.75 5:52.5 6:59.5 7:24.75 8:80 9:26.625 10:42 
1 2:33.672 3:56.25 4:20.625 5:45.875 6:84.375 7:26.75 8:69.875 9:21.75 10:45.125 
1 2:33.719 3:55.875 4:20.5 5:45.25 6:84.75 7:26.875 8:69.875 9:22.125 10:44.875 
1 2:34.281 3:56.75 4:20.625 5:45.25 6:84.5 7:27.125 8:69.625 9:22.125 10:44.75 
0.07774331861046413 2:34.828 3:56.875 4:20.75 5:45.125 6:83.5 7:26.75 8:69.875 9:22 10:44.125 
1 2:34.563 3:56.625 4:20.625 5:45 6:82 7:26.75 8:70 9:22.25 10:44.25 
1 2:36.281 3:56.5 4:20.875 5:45.125 6:78.875 7:26.25 8:69.25 9:22.25 10:44 
1 2:36.609 3:56.75 4:20.875 5:45.625 6:78.625 7:26.125 8:69.625 9:22.25 10:43.75 
-0.1148679240851432 2:35.781 3:57.25 4:21.125 5:46.125 6:78.875 7:26.125 8:70.75 9:22 10:44.25 
-0.2122965910871152 2:35.563 3:57.75 4:21.375 5:46.5 6:78.75 7:26 8:71.375 9:22.375 10:45.625 
0.8556201338728865 2:35.063 3:57.75 4:21.5 5:45.875 6:78.625 7:25.875 8:71.125 9:22.125 10:45.75 
-0.5878595163509097 2:35.172 3:58 4:21.875 5:46 6:80.125 7:25.875 8:71.75 9:22.25 10:46.25 
0.9594272531192069 2:35.219 3:58.25 4:22 5:45.625 6:80.5 7:25.875 8:71.625 9:22.375 10:45.75 
-0.934100196672799 2:36 3:57.625 4:22 5:45.5 6:79.5 7:25.125 8:71.375 9:22.25 10:44.75 
0.4275483149616183 2:35.719 3:57.375 4:22.25 5:45.5 6:79.625 7:24.75 8:71.25 9:22.375 10:45.5 
1 2:35.563 3:57.5 4:22.5 5:45.25 6:79.75 7:25 8:71.25 9:22.375 10:45 
1 2:35 3:58.25 4:22.375 5:45.125 6:79.375 7:25.375 8:71.375 9:22 10:46 
1 2:34.5 3:57 4:21.75 5:45.375 6:79.375 7:26.375 8:74.5 9:22.375 10:45.5 
1 2:33.672 3:56.75 4:21.5 5:44.875 6:79 7:26.375 8:73 9:22.25 10:45.375 
1 2:33.5 3:57.25 4:21.625 5:45.375 6:78.875 7:26.625 8:73.125 9:22.125 10:45.25 
0.4469851742440248 2:34 3:57.125 4:21.75 5:46.875 6:78.125 7:26.5 8:73.75 9:22.5 10:45.125 
0.9800697346987162 2:34.5 3:57.5 4:21.75 5:47.75 6:77.375 7:27.125 8:74 9:22.75 10:46.125 
1 2:32.922 3:58 4:21.25 5:47.75 6:73.25 7:26 8:74.125 9:22.5 10:44.875 
1 2:33.078 3:59 4:20.625 5:47.875 6:76.25 7:26 8:75.875 9:22 10:46.375 
0.3342196076699007 2:33.172 3:59.75 4:21 5:47.75 6:77.25 7:26.25 8:75.875 9:22.25 10:46.375 
0.08731924582892348 2:33.578 3:59.75 4:21.125 5:48 6:78.125 7:26.375 8:77 9:22 10:46.375 
1 2:33.75 3:60.25 4:21.5 5:47.75 6:79.25 7:26.625 8:77 9:22.125 10:46.125 
-1 2:33.75 3:59.875 4:21.625 5:47.625 6:78.75 7:26 8:76.625 9:22.125 10:46.875 
1 2:33.75 3:60 4:21.875 5:47.75 6:79.625 7:26.5 8:76.875 9:22.375 10:48 
0.8307862120881879 2:34.078 3:60 4:22.25 5:47 6:77.75 7:26.875 8:76.5 9:22.25 10:47.875 
1 2:35 3:58.25 4:22.125 5:45.75 6:72.25 7:25.75 8:75.75 9:22.5 10:48.625 
0.6438773973480101 2:34.75 3:57.5 4:21.75 5:46.25 6:73.25 7:25.75 8:75.875 9:22.75 10:48.375 
-0.01469642656199277 2:34.25 3:57.125 4:21.5 5:47 6:73.375 7:25 8:77.25 9:22.75 10:48.5 
0.3238716439944519 2:35 3:57.375 4:21.25 5:48.125 6:73.25 7:25.25 8:79.5 9:22.5 10:48.375 
0.7586083154236071 2:33.422 3:58.125 4:19.875 5:47.625 6:73 7:25.5 8:77.875 9:22.75 10:48.375 
0.581409783230732 2:34.25 3:58.25 4:20.25 5:48.25 6:73.875 7:25.75 8:79 9:23.625 10:49 
0.6508795994206997 2:35.922 3:58.375 4:20.375 5:48.875 6:73.875 7:25.625 8:79.5 9:23.25 10:49.125 
-0.3837024451656411 2:35.422 3:58.875 4:20.125 5:48.875 6:73.875 7:25.5 8:79.125 9:22.75 10:48.5 
-1 2:35.328 3:58.625 4:20.125 5:48.75 6:73.25 7:25.25 8:79 9:23 10:47.875 
0.9574396176431289 2:35.422 3:59.25 4:20.25 5:48.375 6:73.125 7:25.25 8:79.625 9:22.75 10:48 
0.3335851690677501 2:35.672 3:59.125 4:20.125 5:49.375 6:73.25 7:25.5 8:79.5 9:23 10:48 
0.1073719694354137 2:35.828 3:57.625 4:20.125 5:48.875 6:72.25 7:25.125 8:77.875 9:22.25 10:47.75 
-0.3278559247240607 2:35.172 3:57.5 4:19.75 5:48.375 6:71.75 7:24.625 8:78.375 9:22.5 10:47.5 
1 2:35.422 3:57.375 4:20 5:48.625 6:70.625 7:24.875 8:78.25 9:22.625 10:47.625 
0.6383255551032235 2:36.828 3:57.625 4:20.375 5:49.5 6:71.25 7:25.25 8:80.5 9:23 10:48.125 
-0.5077841902528901 2:36.828 3:58 4:20.375 5:50.125 6:70.75 7:25 8:80.375 9:23.375 10:48.25 
0.7011926317197975 2:36.172 3:58 4:20 5:51.125 6:70.75 7:24.125 8:80 9:23.5 10:47.875 
-0.565437884977646 2:36.5 3:58 4:20.125 5:51.875 6:71 7:24.25 8:80 9:23.625 10:48.125 
-1 2:37 3:57.5 4:20.75 5:50.875 6:72 7:23.625 8:79.5 9:23.625 10:47.5 
1 2:36.078 3:56.875 4:20.5 5:49.75 6:72.75 7:23.75 8:78.5 9:24.25 10:46.875 
-0.3416176777715932 2:37 3:57.25 4:21.125 5:49.75 6:73 7:23.625 8:79 9:24.5 10:47.125 
-0.8242563746182967 2:37.422 3:57.125 4:21 5:49.5 6:72.625 7:23.75 8:78.25 9:24.375 10:47.375 
1 2:37.672 3:57.375 4:21.125 5:49.75 6:72.75 7:23.625 8:78.375 9:25 10:47.875 
1 2:38.75 3:57 4:21.5 5:50.25 6:72.5 7:23.625 8:78.875 9:24.625 10:47.625 
-0.2445205036195299 2:39.078 3:57.375 4:21.5 5:50.75 6:72.25 7:23.625 8:78.75 9:24.625 10:47.5 
-1 2:39 3:57.375 4:21 5:50.625 6:72.625 7:23.25 8:79.125 9:24.25 10:47.625 
1 2:39.25 3:57.625 4:21.125 5:50.625 6:72.625 7:23.25 8:78.75 9:24.125 10:47.25 
0.0249098238999329 2:38.672 3:57.125 4:20.875 5:50.375 6:72.125 7:23 8:78.5 9:23.75 10:47 
0.5232407097347522 2:38.422 3:57.5 4:20.625 5:50.75 6:71.25 7:22.375 8:78.625 9:23.75 10:46.75 
0.9861326967660409 2:37.75 3:58.25 4:20.625 5:53 6:69.625 7:22.875 8:80 9:23.5 10:47.125 
-0.01588779714909505 2:39.172 3:59 4:20.5 5:52.75 6:70.5 7:21.25 8:82.5 9:24.375 10:47.625 
-0.1926814620153105 2:39 3:58.25 4:20.625 5:52.5 6:71.5 7:21.625 8:83.625 9:24.625 10:47.875 
1 2:38.922 3:58.375 4:20.375 5:52.5 6:71 7:21.625 8:84.25 9:24.75 10:48.375 
0.8119106603509695 2:39.672 3:58.75 4:20.125 5:52.25 6:71 7:22.125 8:84.125 9:24.5 10:48.125 
1 2:38.25 3:55.5 4:19.5 5:48 6:69.625 7:21.5 8:81.25 9:22.375 10:45.5 
1 2:39.5 3:54 4:19.375 5:49.5 6:68.5 7:21.75 8:80.875 9:23.5 10:47 
1 2:39 3:54.875 4:19.625 5:51 6:68.75 7:21.125 8:85 9:24.625 10:47.375 
0.156688423050416 2:38.422 3:54.25 4:19.5 5:50.125 6:68.25 7:21.375 8:83.125 9:24.375 10:47.5 
1 2:38.422 3:53.625 4:19 5:49.875 6:67.5 7:21.125 8:81.875 9:27.125 10:46.875 
0.3977366878894935 2:37.078 3:52.5 4:19.125 5:49.5 6:67.125 7:20.875 8:81.375 9:25.125 10:46.5 
1 2:36.422 3:52.25 4:18.875 5:49.125 6:66.5 7:20.25 8:80.5 9:25.25 10:46.875 
-0.3596021736285553 2:36.328 3:52.25 4:18.75 5:48.5 6:67.875 7:19.625 8:80.375 9:24.75 10:46.5 
-1 2:37.5 3:52.5 4:18.375 5:48.875 6:68.625 7:19.75 8:80.75 9:24.25 10:46.875 
1 2:37.422 3:53 4:18.25 5:48.75 6:68.75 7:19.5 8:81.875 9:24.25 10:46.875 
0.4160265388735923 2:37.578 3:52.25 4:18.75 5:48.5 6:68.625 7:19.25 8:80.5 9:23.5 10:46.875 
0.4226913910257448 2:36.328 3:52.125 4:18.625 5:47.375 6:68.375 7:18 8:79.625 9:23.25 10:46.875 
1 2:35.75 3:52.25 4:18.625 5:47.5 6:68.625 7:18.375 8:79.75 9:24.25 10:46.875 
-0.5245324580616915 2:37.328 3:52 4:18.375 5:47.875 6:68.625 7:18.75 8:80.625 9:24.375 10:47.125 
1 2:37.25 3:51.375 4:18.25 5:47.375 6:69.125 7:18.75 8:80.25 9:23.875 10:46.875 
1 2:37.422 3:50.625 4:18.25 5:45.875 6:69.125 7:18.625 8:76.75 9:23.25 10:47.125 
1 2:38.672 3:49 4:18.125 5:44 6:69.375 7:18.875 8:75.375 9:22.875 10:46.875 
1 2:38.5 3:43.125 4:17 5:38.5 6:67.625 7:16.375 8:68.5 9:21 10:44.5 
0.5765888801583452 2:38.922 3:43.25 4:17.125 5:39.75 6:67.5 7:16 8:69.25 9:20.875 10:44.375 
1 2:39.328 3:43.25 4:17.125 5:40.125 6:67.75 7:16.375 8:68.5 9:21.125 10:45.25 
1 2:39.828 3:44 4:17.125 5:39.875 6:65.5 7:17.25 8:68.25 9:21.125 10:45.5 
0.3536806744347564 2:39.828 3:43.5 4:17.125 5:40.375 6:63.5 7:17.625 8:66.75 9:21.125 10:45.5 
0.940701357119106 2:40 3:43.625 4:17.125 5:40 6:62.75 7:17.25 8:65.5 9:21.125 10:45.875 
-0.1004002147745667 2:40.828 3:43.625 4:16.375 5:39.875 6:62.75 7:17.125 8:65.5 9:20.75 10:47.375 
1 2:40.5 3:43.75 4:16.375 5:39.125 6:61.625 7:17.25 8:65.125 9:20.125 10:48.125 
0.602401339507775 2:40.328 3:44.75 4:16.125 5:39.125 6:61.375 7:16.875 8:66.25 9:20.25 10:48.25 
-0.4221209767916794 2:40 3:44.625 4:16 5:40.25 6:62 7:17.125 8:67.375 9:21.125 10:49.25 
-0.6014822287880502 2:39.25 3:45.125 4:16.125 5:39.75 6:61.5 7:17.5 8:68.625 9:21 10:49.375 
1 2:39.172 3:45.25 4:16.125 5:39.375 6:61.875 7:17.5 8:69.625 9:21 10:49.75 
1 2:39.25 3:45.375 4:16.125 5:40 6:62 7:17.5 8:69.375 9:21.5 10:49.25 
0.8734257748887233 2:38.172 3:46.125 4:15.625 5:40.125 6:60.875 7:17.75 8:66.875 9:23 10:49.25 
0.7851594275828311 2:38.328 3:45.5 4:14.875 5:40.125 6:60.125 7:17 8:66 9:22.5 10:48.75 
0.6782450430914343 2:39 3:46.25 4:15.25 5:41.25 6:60.25 7:17.375 8:67.25 9:21.625 10:48.375 
-0.8281554849840426 2:38.328 3:46.125 4:15.75 5:41.875 6:60.75 7:17.25 8:67.375 9:22.375 10:48.75 
0.6807968117249459 2:38.922 3:45.625 4:15.625 5:42.625 6:61 7:17.125 8:66.875 9:22.5 10:48.625 
1 2:38 3:44.875 4:15.5 5:44.25 6:61.5 7:17.25 8:68.875 9:23 10:49.25 
0.1625791553251883 2:38.672 3:44.625 4:15.375 5:44 6:61.75 7:17.5 8:69.5 9:23.25 10:49.375 
-0.06547277036157484 2:39.578 3:44.875 4:15.375 5:44.375 6:61.25 7:17.5 8:69.5 9:23.75 10:49.375 
0.9217731799871549 2:41 3:45.375 4:16.125 5:44.25 6:61.75 7:18 8:69.75 9:24.25 10:49.875 
0.9861111891622001 2:42 3:46.125 4:16 5:45.25 6:63.375 7:18 8:70 9:23.375 10:51.25 
1 2:41.828 3:45.875 4:15.75 5:46.25 6:63 7:17.875 8:71 9:22.875 10:50.75 
-1 2:41.25 3:45.5 4:15.75 5:45.875 6:62.5 7:18 8:70 9:23.25 10:50.5 
0.9341756754140633 2:41.75 3:45.25 4:15.375 5:46.375 6:62.875 7:18.5 8:69.875 9:23.375 10:50 
1 2:41.422 3:42.75 4:15.25 5:45.125 6:62.25 7:17.75 8:67.25 9:22.25 10:48.75 
0.08951446226625492 2:40.828 3:42.25 4:15.625 5:43.875 6:62.25 7:18 8:67.25 9:22.625 10:49.375 
-0.8078425911260516 2:40 3:41.625 4:15.5 5:42.75 6:61.5 7:17.625 8:66.625 9:22.125 10:48.375 
1 2:39.578 3:41.375 4:15.25 5:43.25 6:62.25 7:18 8:66.625 9:21.875 10:48 
0.3546234357905679 2:40.172 3:41.125 4:15.125 5:42.375 6:63 7:17.625 8:67.5 9:22.5 10:47.875 
0.949411948520635 2:40.578 3:41.5 4:14.375 5:42.375 6:62.25 7:18.25 8:68.25 9:23.875 10:48.375 
1 2:39.328 3:40.5 4:13.5 5:41.625 6:59.875 7:17.75 8:66.625 9:23.125 10:47.625 
1 2:39.672 3:40.375 4:13.375 5:41.75 6:59.875 7:17.625 8:65.375 9:23 10:47 
1 2:41.422 3:36.25 4:13.5 5:39.75 6:52.875 7:17.875 8:60.625 9:21.5 10:47.875 
1 2:42.328 3:36.875 4:13.375 5:39.75 6:53.125 7:17.625 8:61 9:21.625 10:47.625 
1 2:41.922 3:36.75 4:13.25 5:39.75 6:54.5 7:17.5 8:62.125 9:21.625 10:47.375 
1 2:42.578 3:37.25 4:13.875 5:39.375 6:54.5 7:16.125 8:61.25 9:21.625 10:49.5 
0.7826574192000377 2:43.328 3:37.875 4:13.875 5:38.75 6:54.5 7:16.25 8:60.5 9:21.25 10:50 
0.6687816321593153 2:43.25 3:38 4:13.75 5:38.75 6:54.5 7:16.25 8:61 9:21.5 10:50.5 
0.0126903514621064 2:43.328 3:37.625 4:13.5 5:39.5 6:54.625 7:16.25 8:61.625 9:21 10:49.75 
0.2392243142189396 2:43.5 3:38 4:13.625 5:40.25 6:55 7:17 8:62 9:21.5 10:49.75 
0.1934407359197845 2:44.078 3:37.75 4:13.875 5:40.75 6:55.25 7:17 8:61.125 9:20.875 10:49.75 
0.1509634950888687 2:44.75 3:38 4:14.375 5:42.75 6:56.625 7:17.625 8:61.875 9:21.625 10:50.5 
0.8254956748725775 2:45.172 3:37.75 4:14.5 5:43 6:58 7:17.125 8:62 9:21.75 10:49.625 
0.781135497120123 2:44.672 3:37.5 4:14.375 5:43.75 6:57.25 7:17.125 8:61.75 9:21.625 10:50.25 
0.4126552847156532 2:44.328 3:37.125 4:14.125 5:42.625 6:55.875 7:16.875 8:61.75 9:21.5 10:49.75 
0.06232338933221804 2:44.922 3:37.5 4:14.375 5:41.375 6:56 7:17 8:61.875 9:21.875 10:49.625 
-0.4585586190928055 2:46.5 3:37.875 4:14.5 5:41.625 6:56.75 7:16.625 8:62.625 9:22.375 10:50.5 
-1 2:47.672 3:37.5 4:15.125 5:41.875 6:56.5 7:16 8:63.875 9:22.25 10:51.25 
-1 2:47.578 3:37 4:16 5:42 6:55.375 7:14.75 8:63.375 9:22.25 10:50.25 
-1 2:47.422 3:37.375 4:14.875 5:42.25 6:56.25 7:16.5 8:65.125 9:24 10:48 
1 2:46.672 3:36.5 4:13.625 5:40.75 6:51.25 7:16.125 8:65 9:24 10:46.75 
0.7499021605283668 2:46.578 3:36.75 4:13.625 5:40.5 6:50 7:15.625 8:64.5 9:23.75 10:46.5 
0.3006187742454441 2:46.578 3:36.625 4:13.625 5:40.75 6:51 7:16 8:64 9:24 10:46.75 
1 2:46.5 3:34.75 4:13.875 5:40.25 6:46.75 7:15.375 8:62.5 9:24.625 10:46.75 
0.9240233882663457 2:48.672 3:34.75 4:13.875 5:41.25 6:48.875 7:15.625 8:62.25 9:25 10:47.75 
1 2:50.5 3:30 4:15.5 5:38.125 6:43.75 7:15.375 8:62.75 9:25.25 10:41.25 
1 2:54.5 3:28 4:14.875 5:37.125 6:42.75 7:15 8:60.375 9:26.125 10:40.125 
1 2:52.625 3:27 4:15.75 5:36.5 6:43.75 7:14.75 8:62 9:26 10:40.25 
1 2:52 3:26.875 4:15.75 5:35.75 6:43.5 7:15 8:61.25 9:26.5 10:40.375 
1 2:50.25 3:24.5 4:15.25 5:48.875 6:40.875 7:27.25 8:77 9:28.25 10:42 
1 2:37.578 3:58.25 4:20 5:51.5 6:72.375 7:24.375 8:80.75 9:23.875 10:48.375 
1 2:37.672 3:57.75 4:20.25 5:51.25 6:72.25 7:24 8:80 9:24 10:47.625 
1 2:39.828 3:58.625 4:20.5 5:53.25 6:70.375 7:22.5 8:81 9:24.375 10:47.625 
1 2:47.422 3:37.125 4:15.5 5:41.875 6:56 7:16 8:63.875 9:21.875 10:50.75 
1 2:48.828 3:37.625 4:15.5 5:42.25 6:55.375 7:15.875 8:63.25 9:22.25 10:50.25 
0.1265335967025313 2:48 3:38 4:15.625 5:42.75 6:55.625 7:15.75 8:63.5 9:22.375 10:50.75 
1 2:48.5 3:38.875 4:16.25 5:43.75 6:56.125 7:15.375 8:64.125 9:22.75 10:50.875 
0.9726035445914012 2:48.578 3:38.5 4:16.375 5:43.125 6:56 7:15 8:63.625 9:22.5 10:51 
0.3327180863186667 2:48.25 3:37.75 4:16.5 5:43.375 6:56.125 7:14.875 8:64 9:22.375 10:51.125 
0.447695123978165 2:48.828 3:37.375 4:16.125 5:42.5 6:55.875 7:15 8:64.5 9:22.5 10:51.25 
1 2:48 3:37.25 4:15.75 5:42 6:57.125 7:15 8:65.125 9:22.125 10:50.875 
1 2:48.578 3:37.25 4:15.5 5:42 6:57 7:15.625 8:65.375 9:22.25 10:51 
1 2:48.25 3:38.125 4:15.375 5:43.375 6:56.5 7:16.75 8:64.75 9:22.25 10:49.75 
1.966691546704756 2:47.672 3:37.375 4:15.125 5:42.75 6:56.5 7:16.75 8:65.375 9:24.125 10:47.625 
1 2:49.328 3:34.5 4:14 5:42.5 6:47.5 7:16.75 8:64.125 9:24.875 10:49 
1 2:49.172 3:34 4:13.875 5:43.625 6:47.875 7:17.25 8:64.375 9:25.125 10:48.875 
1 2:52 3:33.5 4:13.875 5:44.75 6:48.875 7:17.75 8:64.625 9:25 10:50.875 
1 2:52 3:33.75 4:14 5:44.625 6:47.875 7:17.5 8:64.75 9:25.375 10:51 
0.9243421464311705 2:51.328 3:34.125 4:14.125 5:44.875 6:46 7:17.375 8:64.25 9:25.25 10:50 
1 2:51 3:34.25 4:14.25 5:43.875 6:44.875 7:17.5 8:64.375 9:25.375 10:50 
1 2:51.922 3:34.625 4:14.75 5:43.125 6:45.375 7:18.125 8:64.75 9:25.875 10:49.75 
0.4915682699864782 2:54.078 3:34 4:15 5:43 6:46 7:17.75 8:63.875 9:26.375 10:49.875 
1 2:55.078 3:34.375 4:15 5:42 6:46 7:17.75 8:62.875 9:26.5 10:49.75 
1 2:54.5 3:34.375 4:15.375 5:43 6:46 7:17.5 8:61.25 9:26.625 10:49.625 
0.02915976369801283 2:54.578 3:35 4:15.625 5:42.5 6:45.75 7:18.125 8:63.5 9:27.125 10:50 
1 2:57.578 3:35.375 4:15.75 5:43.125 6:46.125 7:17.75 8:62.5 9:27.375 10:50 
0.9618885957058067 2:56.828 3:35.75 4:16 5:43 6:45.875 7:17.75 8:62.25 9:27.25 10:49.875 
1 2:55 3:36 4:15.75 5:42.625 6:45.875 7:17.625 8:64.5 9:27.625 10:49.625 
1 2:58.5 3:35.875 4:15.875 5:43.125 6:45.25 7:17.875 8:64.25 9:27.5 10:50 
1 2:58.875 3:35.875 4:16.125 5:44.5 6:44.125 7:18.125 8:64.375 9:27.625 10:50.75 
1 2:59.75 3:35.75 4:15.75 5:43.75 6:42.5 7:18.375 8:64.375 9:27.875 10:50.375 
1 2:60.125 3:35.5 4:16 5:45 6:39.375 7:19.375 8:64.75 9:27.875 10:50.125 
1 2:60.125 3:35.625 4:16.125 5:45.75 6:38.625 7:18.875 8:65 9:27.875 10:50 
1 2:59 3:35.125 4:15.75 5:45.25 6:38.25 7:18.875 8:64.75 9:27.375 10:49.75 
1 2:58.125 3:34.5 4:15.875 5:45.625 6:39.5 7:19.75 8:64.75 9:27.5 10:49.125 
1 2:59 3:32.125 4:17.75 5:42.75 6:35.875 7:18.875 8:62.5 9:27.5 10:47 
1 2:58.5 3:32 4:19 5:42.875 6:36.5 7:18.5 8:62.375 9:27.375 10:46.5 
1 2:59.125 3:32 4:18 5:42.375 6:38.125 7:18.25 8:61.875 9:27.625 10:45.625 
1 2:59.75 3:32.125 4:17.75 5:41.625 6:39 7:18.5 8:61.625 9:27.625 10:45.125 
0.07632907703424474 2:60.5 3:32.125 4:16.25 5:40.375 6:43.375 7:17.875 8:61.375 9:27.625 10:46.125 
1 2:60.375 3:33 4:16.5 5:40.25 6:44 7:17.875 8:61.75 9:27.625 10:46.5 
1 2:60 3:32.625 4:16.125 5:39.875 6:43.875 7:17.875 8:61 9:27.25 10:47.125 
1 2:61.5 3:31.875 4:16.375 5:40.5 6:43.5 7:18.125 8:60.875 9:27.125 10:47.625 
1 2:61.125 3:31.75 4:16.375 5:40.75 6:43.625 7:18.125 8:62.5 9:27.5 10:48.125 
1 2:61.125 3:31.625 4:16 5:41.625 6:44.875 7:18 8:63.625 9:28.125 10:47.125 
1 2:59.5 3:31.5 4:15.25 5:41.125 6:43 7:18.625 8:63.75 9:28.25 10:45.625 
1 2:59 3:32 4:15 5:41.125 6:42.5 7:18 8:64.375 9:28.375 10:46 
1 2:55.875 3:30.5 4:14.125 5:39.875 6:41.375 7:17 8:61.875 9:27.5 10:42.875 
1 2:56.875 3:30.625 4:14.25 5:39.75 6:41.625 7:17 8:61 9:26.875 10:44.25 
1 2:58.25 3:30 4:14.75 5:39.875 6:42.25 7:16.375 8:59.875 9:26.5 10:42.75 
1.089007969398336 2:58.625 3:26.75 4:16 5:38.5 6:42.75 7:14.125 8:58.875 9:26.625 10:43.625 
1 2:57.75 3:26.75 4:15.75 5:38.125 6:43.375 7:14.375 8:58.375 9:26.625 10:43.75 
1.355668326774866 2:53.5 3:28.25 4:16.25 5:38.625 6:44 7:14.625 8:60.75 9:27 10:41.875 
