svm_type svorim
kernel_type rbf
gamma 0.030303
nr_class 5
total_sv 135
rho 0 -0.295147 -0.294562 0.925 1.70517
SV
-1.294114833551385 2:0 3:15.34 4:14.26 5:102.5 6:704.4 7:0.1073 8:0.2135 9:0.2077 10:0.09756 11:0.2521 12:0.07032 13:0.4388 14:0.7096 15:3.384 16:44.91 17:0.00679 18:0.05328 19:0.06446 20:0.02252 21:0.03672 22:0.00439 23:18.07 24:19.08 25:125.1 26:980.9 27:0.139 28:0.5954 29:0.6305 30:0.2393 31:0.4667 32:0.09946 33:1.3 
-1.294609807516615 2:1 3:21.16 4:23.04 5:137.2 6:1404 7:0.09428 8:0.1022 9:0.1097 10:0.08632 11:0.1769 12:0.05278 13:0.6917 14:1.127 15:4.303 16:93.99 17:0.00473 18:0.01259 19:0.01715 20:0.01038 21:0.01083 22:0.00199 23:29.17 24:35.59 25:188 26:2615 27:0.1401 28:0.26 29:0.3155 30:0.2009 31:0.2822 32:0.07526 33:4 
-1.29462647792877 2:13 3:18.61 4:20.25 5:122.1 6:1094 7:0.0944 8:0.1066 9:0.149 10:0.07731 11:0.1697 12:0.05699 13:0.8529 14:1.849 15:5.632 16:93.54 17:0.01075 18:0.02722 19:0.05081 20:0.01911 21:0.02293 22:0.00422 23:21.31 24:27.26 25:139.9 26:1403 27:0.1338 28:0.2117 29:0.3446 30:0.149 31:0.2341 32:0.07421 33:3.4 
-1.294715198688722 2:0 3:18.65 4:17.6 5:123.7 6:1076 7:0.1099 8:0.1686 9:0.1974 10:0.1009 11:0.1907 12:0.06049 13:0.6289 14:0.6633 15:4.293 16:71.56 17:0.00629 18:0.03994 19:0.05554 20:0.01695 21:0.02428 22:0.00353 23:22.82 24:21.32 25:150.6 26:1567 27:0.1679 28:0.509 29:0.7345 30:0.2378 31:0.3799 32:0.09185 33:1.8 
-1.294653313034848 2:13 3:19.21 4:18.57 5:125.5 6:1152 7:0.1053 8:0.1267 9:0.1323 10:0.08994 11:0.1917 12:0.05961 13:0.7275 14:1.193 15:4.837 16:102.5 17:0.00646 18:0.02306 19:0.02945 20:0.01538 21:0.01852 22:0.00261 23:26.14 24:28.14 25:170.1 26:2145 27:0.1624 28:0.3511 29:0.3879 30:0.2091 31:0.3537 32:0.08294 33:3.2 
-1.294722057572888 2:1 3:12.68 4:23.84 5:82.69 6:499 7:0.1122 8:0.1262 9:0.1128 10:0.06873 11:0.1905 12:0.0659 13:0.4255 14:1.178 15:2.927 16:36.46 17:0.00778 18:0.02648 19:0.02973 20:0.0129 21:0.01635 22:0.0036 23:17.09 24:33.47 25:111.8 26:888.3 27:0.1851 28:0.4061 29:0.4024 30:0.1716 31:0.3383 32:0.1031 33:1.2 
-1.294729188912111 2:2 3:20.77 4:22.83 5:137.4 6:1336 7:0.1033 8:0.1515 9:0.1637 10:0.1015 11:0.18 12:0.05641 13:0.7569 14:1.458 15:5.095 16:92.99 17:0.00685 18:0.04575 19:0.03694 20:0.01598 21:0.02958 22:0.00407 23:24.22 24:29.43 25:159.9 26:1816 27:0.1385 28:0.4107 29:0.3757 30:0.1881 31:0.3371 32:0.07651 33:4 
-1.294772827440315 2:0 3:24.25 4:20.2 5:166.2 6:1761 7:0.1447 8:0.2867 9:0.4268 10:0.2012 11:0.2655 12:0.06877 13:1.509 14:3.12 15:9.807 16:233 17:0.02333 18:0.09806 19:0.1278 20:0.01822 21:0.04547 22:0.00988 23:26.02 24:23.99 25:180.9 26:2073 27:0.1696 28:0.4244 29:0.5803 30:0.2248 31:0.3222 32:0.08009 33:3.5 
-1.29462699105056 2:9 3:20.29 4:21.49 5:132.8 6:1291 7:0.09258 8:0.1205 9:0.1523 10:0.08636 11:0.2356 12:0.05635 13:0.8309 14:1.14 15:5.459 16:115.5 17:0.00493 18:0.02833 19:0.04284 20:0.01587 21:0.03187 22:0.00327 23:26.51 24:28.07 25:171.6 26:2196 27:0.1225 28:0.3449 29:0.4509 30:0.1943 31:0.4416 32:0.07863 33:2.5 
-1.294620777392577 2:0 3:12.77 4:22.47 5:81.72 6:506.3 7:0.09055 8:0.05761 9:0.04711 10:0.02704 11:0.1585 12:0.06065 13:0.2367 14:1.38 15:1.457 16:19.87 17:0.0075 18:0.01202 19:0.02332 20:0.00892 21:0.01647 22:0.00263 23:14.49 24:33.37 25:92.04 26:653.6 27:0.1419 28:0.1523 29:0.2177 30:0.09331 31:0.2829 32:0.08067 33:1 
-1.294630091676988 2:0 3:19.59 4:18.15 5:130.7 6:1214 7:0.112 8:0.1666 9:0.2508 10:0.1286 11:0.2027 12:0.06082 13:0.7364 14:1.048 15:4.792 16:97.07 17:0.00406 18:0.02277 19:0.04029 20:0.01303 21:0.01686 22:0.00332 23:26.73 24:26.39 25:174.9 26:2232 27:0.1438 28:0.3846 29:0.681 30:0.2247 31:0.3643 32:0.09223 33:3.5 
-1.294619058048197 2:1 3:16.78 4:18.8 5:109.3 6:886.3 7:0.08865 8:0.09182 9:0.08422 10:0.06576 11:0.1893 12:0.05534 13:0.599 14:1.391 15:4.129 16:67.34 17:0.00612 18:0.0247 19:0.02626 20:0.01604 21:0.02091 22:0.00349 23:20.05 24:26.3 25:130.7 26:1260 27:0.1168 28:0.2119 29:0.2318 30:0.1474 31:0.281 32:0.07228 33:3 
-1.294684606445774 2:1 3:19.18 4:22.49 5:127.5 6:1148 7:0.08523 8:0.1428 9:0.1114 10:0.06772 11:0.1767 12:0.05529 13:0.4357 14:1.073 15:3.833 16:54.22 17:0.00552 18:0.03698 19:0.02706 20:0.01221 21:0.01415 22:0.0034 23:23.36 24:32.06 25:166.4 26:1688 27:0.1322 28:0.5601 29:0.3865 30:0.1708 31:0.3193 32:0.09221 33:3 
-1.294685968665447 2:14 3:23.29 4:26.67 5:158.9 6:1685 7:0.1141 8:0.2084 9:0.3523 10:0.162 11:0.22 12:0.06229 13:0.5539 14:1.56 15:4.667 16:83.16 17:0.00933 18:0.05121 19:0.08958 20:0.02465 21:0.02175 22:0.0052 23:25.12 24:32.68 25:177 26:1986 27:0.1536 28:0.4167 29:0.7892 30:0.2733 31:0.3198 32:0.08762 33:9 
-1.294773339711129 2:0 3:15.12 4:16.68 5:98.78 6:716.6 7:0.08876 8:0.09588 9:0.0755 10:0.04079 11:0.1594 12:0.05986 13:0.2711 14:0.3621 15:1.974 16:26.44 17:0.00547 18:0.01919 19:0.02039 20:0.00826 21:0.01523 22:0.00288 23:17.77 24:20.24 25:117.7 26:989.5 27:0.1491 28:0.3331 29:0.3327 30:0.1252 31:0.3415 32:0.0974 33:1.5 
-1.294722349635417 2:15 3:19.55 4:28.77 5:133.6 6:1207 7:0.0926 8:0.2063 9:0.1784 10:0.1144 11:0.1893 12:0.06232 13:0.8426 14:1.199 15:7.158 16:106.4 17:0.00636 18:0.04765 19:0.03863 20:0.01519 21:0.01936 22:0.00525 23:25.05 24:36.27 25:178.6 26:1926 27:0.1281 28:0.5329 29:0.4251 30:0.1941 31:0.2818 32:0.1005 33:6 
-1.294722938971652 2:15 3:19.71 4:19.06 5:129.5 6:1192 7:0.1018 8:0.1352 9:0.1696 10:0.1043 11:0.1895 12:0.05863 13:0.4352 14:1.049 15:3.157 16:52.6 17:0.005 18:0.02395 19:0.02867 20:0.01117 21:0.02266 22:0.00267 23:23.33 24:29.87 25:157.6 26:1659 27:0.1411 28:0.3993 29:0.4645 30:0.1925 31:0.4054 32:0.08621 33:4 
-1.294608726694688 2:0 3:16.24 4:18.77 5:108.8 6:805.1 7:0.1066 8:0.1802 9:0.1948 10:0.09052 11:0.1876 12:0.06684 13:0.2873 14:0.9173 15:2.464 16:28.09 17:0.00456 18:0.03481 19:0.03872 20:0.01209 21:0.01388 22:0.00408 23:18.55 24:25.09 25:126.9 26:1031 27:0.1365 28:0.4706 29:0.5026 30:0.1732 31:0.277 32:0.1063 33:1 
-1.294093701190798 2:18 3:11.76 4:18.14 5:75 6:431.1 7:0.09968 8:0.05914 9:0.02685 10:0.03515 11:0.1619 12:0.06287 13:0.645 14:2.105 15:4.138 16:49.11 17:0.0056 18:0.01005 19:0.01272 20:0.01432 21:0.01575 22:0.00276 23:13.36 24:23.39 25:85.1 26:553.6 27:0.1137 28:0.07974 29:0.0612 30:0.0716 31:0.1978 32:0.06915 33:10 
-1.294773344273077 2:4 3:23.51 4:24.27 5:155.1 6:1747 7:0.1069 8:0.1283 9:0.2308 10:0.141 11:0.1797 12:0.05506 13:1.009 14:0.9245 15:6.462 16:164.1 17:0.00629 18:0.01971 19:0.03582 20:0.01301 21:0.01479 22:0.00312 23:30.67 24:30.73 25:202.4 26:2906 27:0.1515 28:0.2678 29:0.4819 30:0.2089 31:0.2593 32:0.07738 33:3.5 
-1.298227649620939 2:0 3:11.08 4:18.83 5:73.3 6:361.6 7:0.1216 8:0.2154 9:0.1689 10:0.06367 11:0.2196 12:0.0795 13:0.2114 14:1.027 15:1.719 16:13.99 17:0.00741 18:0.04549 19:0.04588 20:0.01339 21:0.01738 22:0.00443 23:13.24 24:32.82 25:91.76 26:508.1 27:0.2184 28:0.9379 29:0.8402 30:0.2524 31:0.4154 32:0.1403 33:2 
-1.294224488878112 2:13 3:19.55 4:23.21 5:128.9 6:1174 7:0.101 8:0.1318 9:0.1856 10:0.1021 11:0.1989 12:0.05884 13:0.6107 14:2.836 15:5.383 16:70.1 17:0.01124 18:0.04097 19:0.07469 20:0.03441 21:0.02768 22:0.00624 23:20.82 24:30.44 25:142 26:1313 27:0.1251 28:0.2414 29:0.3829 30:0.1825 31:0.2576 32:0.07602 33:4 
-1.294202353421537 2:27 3:20.18 4:19.54 5:133.8 6:1250 7:0.1133 8:0.1489 9:0.2133 10:0.1259 11:0.1724 12:0.06053 13:0.4331 14:1.001 15:3.008 16:52.49 17:0.00909 18:0.02715 19:0.05546 20:0.0191 21:0.02451 22:0.004 23:22.03 24:25.07 25:146 26:1479 27:0.1665 28:0.2942 29:0.5308 30:0.2173 31:0.3032 32:0.08075 33:4.5 
-1.294552912423316 2:4 3:13.98 4:19.62 5:91.12 6:599.5 7:0.106 8:0.1133 9:0.1126 10:0.06463 11:0.1669 12:0.06544 13:0.2208 14:0.9533 15:1.602 16:18.85 17:0.00531 18:0.01791 19:0.02185 20:0.00957 21:0.01223 22:0.00285 23:17.04 24:30.8 25:113.9 26:869.3 27:0.1613 28:0.3568 29:0.4069 30:0.1827 31:0.3179 32:0.1055 33:3.5 
-1.294608026875195 2:0 3:17.27 4:25.42 5:112.4 6:928.8 7:0.08331 8:0.1109 9:0.1204 10:0.05736 11:0.1467 12:0.05407 13:0.51 14:1.679 15:3.283 16:58.38 17:0.00811 18:0.04308 19:0.04942 20:0.01742 21:0.01594 22:0.00374 23:20.38 24:35.46 25:132.8 26:1284 27:0.1436 28:0.4122 29:0.5036 30:0.1739 31:0.25 32:0.07944 33:9 
-1.294613302243607 2:0 3:18.03 4:16.85 5:117.5 6:990 7:0.08947 8:0.1232 9:0.109 10:0.06254 11:0.172 12:0.0578 13:0.2986 14:0.5906 15:1.921 16:35.77 17:0.00412 18:0.0156 19:0.02975 20:0.00975 21:0.01295 22:0.00244 23:20.38 24:22.02 25:133.3 26:1292 27:0.1263 28:0.2666 29:0.429 30:0.1535 31:0.2842 32:0.08225 33:2.7 
-1.294114838113719 2:7 3:17.75 4:28.03 5:117.3 6:981.6 7:0.09997 8:0.1314 9:0.1698 10:0.08293 11:0.1713 12:0.05916 13:0.3897 14:1.077 15:2.873 16:43.95 17:0.00471 18:0.02015 19:0.03697 20:0.0111 21:0.01237 22:0.00256 23:21.53 24:38.54 25:145.4 26:1437 27:0.1401 28:0.3762 29:0.6399 30:0.197 31:0.2972 32:0.09075 33:1.5 
-1.294658086799788 2:7 3:19.59 4:25 5:127.7 6:1191 7:0.1032 8:0.09871 9:0.1655 10:0.09063 11:0.1663 12:0.05391 13:0.4674 14:1.375 15:2.916 16:56.18 17:0.0119 18:0.01929 19:0.04907 20:0.01499 21:0.01641 22:0.00181 23:21.44 24:30.96 25:139.8 26:1421 27:0.1528 28:0.1845 29:0.3977 30:0.1466 31:0.2293 32:0.06091 33:2 
-1.294602508342884 2:9 3:19.44 4:18.82 5:128.1 6:1167 7:0.1089 8:0.1448 9:0.2256 10:0.1194 11:0.1823 12:0.06115 13:0.5659 14:1.408 15:3.631 16:67.74 17:0.00529 18:0.02833 19:0.04256 20:0.01176 21:0.01717 22:0.00321 23:23.96 24:30.39 25:153.9 26:1740 27:0.1514 28:0.3725 29:0.5936 30:0.206 31:0.3266 32:0.09009 33:7 
-1.294620255692666 2:2 3:18.01 4:20.56 5:118.4 6:1007 7:0.1001 8:0.1289 9:0.117 10:0.07762 11:0.2116 12:0.06077 13:0.7548 14:1.288 15:5.353 16:89.74 17:0.008 18:0.027 19:0.03737 20:0.01648 21:0.02897 22:0.004 23:21.53 24:26.06 25:143.4 26:1426 27:0.1309 28:0.2327 29:0.2544 30:0.1489 31:0.3251 32:0.07625 33:3.5 
-1.294514325905847 2:20 3:20.59 4:21.24 5:137.8 6:1320 7:0.1085 8:0.1644 9:0.2188 10:0.1121 11:0.1848 12:0.06222 13:0.5904 14:1.216 15:4.206 16:75.09 17:0.00667 18:0.02791 19:0.04062 20:0.01479 21:0.01117 22:0.00373 23:23.86 24:30.76 25:163.2 26:1760 27:0.1464 28:0.3597 29:0.5179 30:0.2113 31:0.248 32:0.08999 33:5.5 
-1.294606573982772 2:1 3:18.45 4:31.39 5:120.8 6:1051 7:0.09889 8:0.1108 9:0.1275 10:0.07493 11:0.1855 12:0.05593 13:0.3729 14:2.183 15:2.922 16:43.45 17:0.00596 18:0.02474 19:0.04066 20:0.01499 21:0.01703 22:0.00346 23:20.36 24:44.46 25:136.5 26:1286 27:0.1289 28:0.249 29:0.3641 30:0.1555 31:0.2847 32:0.07684 33:2 
-1.294605239326105 2:0 3:24.29 4:25.48 5:161.8 6:1715 7:0.09374 8:0.2284 9:0.2702 10:0.1369 11:0.2307 12:0.06308 13:0.55 14:0.7052 15:3.853 16:76.08 17:0.00403 18:0.02513 19:0.04598 20:0.01184 21:0.02346 22:0.0024 23:27.53 24:30.44 25:184.8 26:2213 27:0.1247 28:0.3935 29:0.6118 30:0.2063 31:0.3983 32:0.07978 33:1.2 
-1.29462844708504 2:2 3:15.6 4:26.79 5:99.85 6:760 7:0.07885 8:0.0524 9:0.03778 10:0.02876 11:0.158 12:0.05395 13:0.3292 14:0.9247 15:2.252 16:33.37 17:0.00451 18:0.00735 19:0.01094 20:0.00772 21:0.01673 22:0.00131 23:18.16 24:33.64 25:117.2 26:1027 27:0.1097 28:0.09745 29:0.1263 30:0.08222 31:0.2805 32:0.06378 33:2 
-1.294559366839483 2:0 3:15.78 4:17.1 5:102.2 6:769 7:0.09668 8:0.0903 9:0.07268 10:0.04475 11:0.189 12:0.0569 13:0.2059 14:0.6052 15:1.153 16:20.04 17:0.00475 18:0.01527 19:0.01893 20:0.0083 21:0.01477 22:0.00203 23:17.37 24:22.52 25:111.7 26:921.4 27:0.1386 28:0.264 29:0.2901 30:0.1234 31:0.3261 32:0.07752 33:0.8 
-1.294604178631531 2:0 3:19.28 4:20.88 5:124.9 6:1127 7:0.09033 8:0.1197 9:0.06435 10:0.0887 11:0.1971 12:0.05417 13:1.347 14:1.874 15:9.142 16:167.9 17:0.00289 18:0.00959 19:0.02836 20:0.0366 21:0.02385 22:0.00386 23:20.03 24:22.43 25:130 26:1214 27:0.09273 28:0.1259 29:0.08201 30:0.1116 31:0.2147 32:0.05644 33:2.5 
-1.294753005912915 2:4 3:15.66 4:24.51 5:102 6:771.1 7:0.08886 8:0.08731 9:0.09483 10:0.04286 11:0.1995 12:0.05626 13:0.5016 14:1.824 15:4.013 16:52.6 17:0.00516 18:0.0231 19:0.03871 20:0.0129 21:0.01923 22:0.0019 23:18.47 24:35.09 25:124 26:1066 27:0.1182 28:0.2486 29:0.3508 30:0.1273 31:0.2964 32:0.06591 33:2 
-1.294620848316895 2:0 3:22.44 4:27.42 5:150.6 6:1504 7:0.1211 8:0.2082 9:0.3579 10:0.1842 11:0.2524 12:0.05848 13:1.083 14:3.503 15:7.164 16:123.9 17:0.00877 18:0.03241 19:0.07453 20:0.02372 21:0.03172 22:0.00329 23:23.99 24:32.51 25:161.2 26:1689 27:0.133 28:0.258 29:0.4741 30:0.2135 31:0.2809 32:0.06318 33:1 
-1.294610717798214 2:0 3:17.98 4:23.96 5:120 6:995 7:0.1157 8:0.1739 9:0.1954 10:0.1219 11:0.1981 12:0.06306 13:0.7937 14:2.595 15:5.639 16:90.08 17:0.00729 18:0.03164 19:0.04003 20:0.0205 21:0.02609 22:0.00537 23:20.05 24:32.23 25:135.2 26:1225 27:0.134 28:0.2606 29:0.3124 30:0.1753 31:0.2746 32:0.0783 33:2.5 
-1.294715770185173 2:0 3:13.63 4:24.7 5:89.65 6:569.2 7:0.1055 8:0.1312 9:0.1161 10:0.06403 11:0.1791 12:0.07058 13:0.3223 14:1.148 15:2.797 16:25.79 17:0.00725 18:0.03085 19:0.03225 20:0.01585 21:0.01783 22:0.00436 23:15.33 24:31.96 25:107.7 26:712.2 27:0.1554 28:0.3515 29:0.3409 30:0.1689 31:0.2739 32:0.09945 33:2 
-1.294607427970536 2:1 3:22.41 4:29.95 5:145.5 6:1528 7:0.1119 8:0.1699 9:0.3076 10:0.1594 11:0.2099 12:0.06803 13:1.463 14:1.717 15:9.939 16:233.7 17:0.00368 18:0.04185 19:0.06688 20:0.01772 21:0.01538 22:0.00566 23:29.27 24:38.4 25:194.5 26:2690 27:0.1251 28:0.3832 29:0.5842 30:0.2422 31:0.2729 32:0.09391 33:1 
-1.294608571952975 2:0 3:19.96 4:27.41 5:130.8 6:1238 7:0.09075 8:0.1167 9:0.1355 10:0.08397 11:0.16 12:0.05461 13:0.5299 14:1.562 15:3.39 16:66.13 17:0.00573 18:0.02089 19:0.04279 20:0.01392 21:0.01051 22:0.0037 23:22.75 24:36.88 25:150.3 26:1603 27:0.1293 28:0.2513 29:0.4106 30:0.1638 31:0.2245 32:0.07842 33:4 
-1.29460587980632 2:1 3:19.22 4:27.18 5:128.8 6:1134 7:0.109 8:0.1777 9:0.2138 10:0.1116 11:0.1924 12:0.06389 13:0.497 14:2.403 15:4.493 16:61.18 17:0.00613 18:0.04109 19:0.05917 20:0.01756 21:0.0218 22:0.0043 23:22.57 24:44.6 25:161 26:1565 27:0.1501 28:0.513 29:0.6841 30:0.2099 31:0.3484 32:0.09774 33:0.8 
-1.294640956934941 2:21 3:14.72 4:25.26 5:99.28 6:657.5 7:0.1174 8:0.2112 9:0.1729 10:0.09465 11:0.2079 12:0.07496 13:0.3405 14:1.158 15:2.188 16:26.12 17:0.00496 18:0.04553 19:0.05166 20:0.01597 21:0.02539 22:0.00555 23:16.67 24:31.97 25:111.6 26:814.8 27:0.1464 28:0.5352 29:0.5655 30:0.1974 31:0.3778 32:0.1132 33:1.7 
-1.294608186258605 2:2 3:22.52 4:21.92 5:146.9 6:1597 7:0.07592 8:0.09162 9:0.06862 10:0.06367 11:0.1728 12:0.05262 13:1.374 14:2.312 15:9.938 16:192.4 17:0.00442 18:0.02679 19:0.02433 20:0.02036 21:0.02486 22:0.00392 23:24.67 24:24.81 25:162.1 26:1902 27:0.08191 28:0.1319 29:0.1056 30:0.09378 31:0.2061 32:0.05788 33:6 
-1.294624384519038 2:0 3:15.44 4:31.18 5:101 6:740.4 7:0.09399 8:0.1062 9:0.1375 10:0.065 11:0.1735 12:0.06105 13:0.3235 14:1.839 15:1.971 16:32.61 17:0.00618 18:0.02088 19:0.02834 20:0.01079 21:0.02122 22:0.00317 23:17.34 24:41.48 25:112.6 26:929 27:0.1272 28:0.2362 29:0.2975 30:0.1286 31:0.2914 32:0.08024 33:1.5 
-1.294713849564092 2:0 3:17.17 4:29.19 5:110 6:915.3 7:0.08952 8:0.06655 9:0.06583 10:0.05068 11:0.1793 12:0.05392 13:0.6101 14:1.425 15:3.827 16:63.02 17:0.00689 18:0.01556 19:0.03155 20:0.00971 21:0.02734 22:0.00138 23:20.76 24:36.66 25:132.5 26:1295 27:0.1261 28:0.1572 29:0.2141 30:0.0952 31:0.3362 32:0.06033 33:3.7 
-1.294660914430768 2:0 3:16.7 4:28.13 5:110.3 6:885.4 7:0.08896 8:0.1131 9:0.1012 10:0.04989 11:0.189 12:0.06035 13:0.6052 14:1.235 15:4.243 16:63.91 17:0.00777 18:0.02631 19:0.03957 20:0.01411 21:0.01957 22:0.00361 23:19.74 24:34.92 25:128.8 26:1213 27:0.133 28:0.2808 29:0.3455 30:0.1317 31:0.3035 32:0.08036 33:3.5 
-0.07519531052391087 2:13 3:14.25 4:21.72 5:93.63 6:633 7:0.09823 8:0.1098 9:0.1319 10:0.05598 11:0.1885 12:0.06125 13:0.286 14:1.019 15:2.657 16:24.91 17:0.00588 18:0.02995 19:0.04815 20:0.01161 21:0.02028 22:0.00402 23:15.89 24:30.36 25:116.2 26:799.6 27:0.1446 28:0.4238 29:0.5186 30:0.1447 31:0.3591 32:0.1014 33:3 
-0.07519531038959437 2:0 3:13.44 4:21.58 5:86.18 6:563 7:0.08162 8:0.06031 9:0.0311 10:0.02031 11:0.1784 12:0.05587 13:0.2385 14:0.8265 15:1.572 16:20.53 17:0.00328 18:0.01102 19:0.0139 20:0.00688 21:0.0138 22:0.00129 23:15.93 24:30.25 25:102.5 26:787.9 27:0.1094 28:0.2043 29:0.2085 30:0.1112 31:0.2994 32:0.07146 33:1.5 
-0.0751953105241428 2:2 3:13.8 4:15.79 5:90.43 6:584.1 7:0.1007 8:0.128 9:0.07789 10:0.05069 11:0.1662 12:0.06566 13:0.2787 14:0.6205 15:1.957 16:23.35 17:0.00472 18:0.02065 19:0.01759 20:0.00921 21:0.0122 22:0.00313 23:16.57 24:20.86 25:110.3 26:812.4 27:0.1411 28:0.3542 29:0.2779 30:0.1383 31:0.2589 32:0.103 33:3 
-0.07421875239857428 2:1 3:19.1 4:26.29 5:129.1 6:1132 7:0.1215 8:0.1791 9:0.1937 10:0.1469 11:0.1634 12:0.07224 13:0.519 14:2.91 15:5.801 16:67.1 17:0.00754 18:0.0605 19:0.02134 20:0.01843 21:0.03056 22:0.01039 23:20.33 24:32.72 25:141.3 26:1298 27:0.1392 28:0.2817 29:0.2432 30:0.1841 31:0.2311 32:0.09203 33:3 
-0.07519531038959426 2:4 3:14.87 4:16.67 5:98.64 6:682.5 7:0.1162 8:0.1649 9:0.169 10:0.08923 11:0.2157 12:0.06768 13:0.4266 14:0.9489 15:2.989 16:41.18 17:0.00698 18:0.02563 19:0.03011 20:0.01271 21:0.01602 22:0.00388 23:18.81 24:27.37 25:127.1 26:1095 27:0.1878 28:0.448 29:0.4704 30:0.2027 31:0.3585 32:0.1065 33:1.5 
-0.07519530963292886 2:1 3:17.95 4:20.01 5:114.2 6:982 7:0.08402 8:0.06722 9:0.07293 10:0.05596 11:0.2129 12:0.05025 13:0.5506 14:1.214 15:3.357 16:54.04 17:0.00402 18:0.00842 19:0.02291 20:0.00986 21:0.05014 22:0.0019 23:20.58 24:27.83 25:129.2 26:1261 27:0.1072 28:0.1202 29:0.2249 30:0.1185 31:0.4882 32:0.06111 33:3 
-0.07519531052406092 2:8 3:14.95 4:17.57 5:96.85 6:678.1 7:0.1167 8:0.1305 9:0.1539 10:0.08624 11:0.1957 12:0.06216 13:1.296 14:1.452 15:8.419 16:101.9 17:0.01 18:0.0348 19:0.06577 20:0.02801 21:0.05168 22:0.00289 23:18.55 24:21.43 25:121.4 26:971.4 27:0.1411 28:0.2164 29:0.3355 30:0.1667 31:0.3414 32:0.07147 33:1.2 
-0.07519531038959421 2:7 3:17.68 4:20.74 5:117.4 6:963.7 7:0.1115 8:0.1665 9:0.1855 10:0.1054 11:0.1971 12:0.06166 13:0.8113 14:1.4 15:5.54 16:93.91 17:0.00904 18:0.04954 19:0.05206 20:0.01841 21:0.01778 22:0.00497 23:20.47 24:25.11 25:132.9 26:1302 27:0.1418 28:0.3498 29:0.3583 30:0.1515 31:0.2463 32:0.07738 33:9 
-0.07421875239857423 2:0 3:13.81 4:23.75 5:91.56 6:597.8 7:0.1323 8:0.1768 9:0.1558 10:0.09176 11:0.2251 12:0.07421 13:0.5648 14:1.93 15:3.909 16:52.72 17:0.00882 18:0.03108 19:0.03112 20:0.01291 21:0.01998 22:0.00451 23:19.2 24:41.85 25:128.5 26:1153 27:0.2226 28:0.5209 29:0.4646 30:0.2013 31:0.4432 32:0.1086 33:1.5 
-0.07519529728122748 2:0 3:19.37 4:24.03 5:129.9 6:1174 7:0.09866 8:0.1629 9:0.1961 10:0.1054 11:0.212 12:0.06246 13:0.631 14:0.9409 15:4.794 16:75.93 17:0.0052 18:0.02804 19:0.03108 20:0.01319 21:0.019 22:0.00371 23:23.87 24:28.43 25:165.5 26:1725 27:0.1269 28:0.3535 29:0.3607 30:0.1832 31:0.3479 32:0.08793 33:3.2 
-0.07519531057849893 2:0 3:17.46 4:39.28 5:113.4 6:920.6 7:0.09812 8:0.1298 9:0.1417 10:0.08811 11:0.1809 12:0.05966 13:0.5366 14:0.8561 15:3.002 16:49 17:0.00486 18:0.02785 19:0.02602 20:0.01374 21:0.01226 22:0.00276 23:22.51 24:44.87 25:141.2 26:1408 27:0.1365 28:0.3735 29:0.3241 30:0.2066 31:0.2853 32:0.08496 33:2 
-0.07519531038959415 2:1 3:20.31 4:27.06 5:132.9 6:1288 7:0.1 8:0.1088 9:0.1519 10:0.09333 11:0.1814 12:0.05572 13:0.3977 14:1.033 15:2.587 16:52.34 17:0.00504 18:0.01578 19:0.02117 20:0.00818 21:0.01282 22:0.00189 23:24.33 24:39.16 25:162.3 26:1844 27:0.1522 28:0.2945 29:0.3788 30:0.1697 31:0.3151 32:0.07999 33:1.8 
-0.07421875216347795 2:6 3:17.19 4:22.07 5:111.6 6:928.3 7:0.09726 8:0.08995 9:0.09061 10:0.06527 11:0.1867 12:0.0558 13:0.4203 14:0.7383 15:2.819 16:45.42 17:0.00449 18:0.01206 19:0.02048 20:0.00988 21:0.01144 22:0.00158 23:21.58 24:29.33 25:140.5 26:1436 27:0.1558 28:0.2567 29:0.3889 30:0.1984 31:0.3216 32:0.0757 33:8.5 
-0.07519530986824624 2:11 3:20.09 4:23.86 5:134.7 6:1247 7:0.108 8:0.1838 9:0.2283 10:0.128 11:0.2249 12:0.07469 13:1.072 14:1.743 15:7.804 16:130.8 17:0.00796 18:0.04732 19:0.07649 20:0.01936 21:0.02736 22:0.00593 23:23.68 24:29.43 25:158.8 26:1696 27:0.1347 28:0.3391 29:0.4932 30:0.1923 31:0.3294 32:0.09469 33:5 
-0.07519531022372222 2:0 3:18.82 4:21.97 5:123.7 6:1110 7:0.1018 8:0.1389 9:0.1594 10:0.08744 11:0.1943 12:0.06132 13:0.8191 14:1.931 15:4.493 16:103.9 17:0.00807 18:0.04088 19:0.05321 20:0.01834 21:0.02383 22:0.00451 23:22.66 24:30.93 25:145.3 26:1603 27:0.139 28:0.3463 29:0.3912 30:0.1708 31:0.3007 32:0.08314 33:1 
-0.0742187521634779 2:0 3:21.1 4:20.52 5:138.1 6:1384 7:0.09684 8:0.1175 9:0.1572 10:0.1155 11:0.1554 12:0.0566 13:0.6643 14:1.361 15:4.542 16:81.89 17:0.00547 18:0.02075 19:0.03185 20:0.01466 21:0.01029 22:0.0022 23:25.68 24:32.07 25:168.2 26:2022 27:0.1368 28:0.3101 29:0.4399 30:0.228 31:0.2268 32:0.07425 33:2.8 
-0.07519531057849999 2:0 3:17.6 4:23.33 5:119 6:980.5 7:0.09289 8:0.2004 9:0.2136 10:0.1002 11:0.1696 12:0.07369 13:0.9289 14:1.465 15:5.801 16:104.9 17:0.00677 18:0.07025 19:0.06591 20:0.02311 21:0.01673 22:0.0113 23:21.57 24:28.87 25:143.6 26:1437 27:0.1207 28:0.4785 29:0.5165 30:0.1996 31:0.2301 32:0.1224 33:1 
-0.07519531038959421 2:0 3:16.69 4:20.2 5:107.1 6:857.6 7:0.07497 8:0.07112 9:0.03649 10:0.02307 11:0.1846 12:0.05325 13:0.2473 14:0.5679 15:1.775 16:22.95 17:0.00267 18:0.01446 19:0.01423 20:0.0053 21:0.01961 22:0.0017 23:19.18 24:26.56 25:127.3 26:1084 27:0.1009 28:0.292 29:0.2477 30:0.08737 31:0.4677 32:0.07623 33:2.5 
-0.07519531038959426 2:0 3:18.49 4:17.52 5:121.3 6:1068 7:0.1012 8:0.1317 9:0.1491 10:0.09183 11:0.1832 12:0.06697 13:0.7923 14:1.045 15:4.851 16:95.77 17:0.00797 18:0.03214 19:0.04435 20:0.01573 21:0.01617 22:0.00526 23:22.75 24:22.88 25:146.4 26:1600 27:0.1412 28:0.3089 29:0.3533 30:0.1663 31:0.251 32:0.09445 33:3 
-0.07519533705146614 2:0 3:13.82 4:24.49 5:92.33 6:595.9 7:0.1162 8:0.1681 9:0.1357 10:0.06759 11:0.2275 12:0.07237 13:0.4751 14:1.528 15:2.974 16:39.05 17:0.00968 18:0.03856 19:0.03476 20:0.01616 21:0.02434 22:0.007 23:16.01 24:32.94 25:106 26:788 27:0.1794 28:0.3966 29:0.3381 30:0.1521 31:0.3651 32:0.1183 33:1 
-0.07421872472989799 2:1 3:15.46 4:23.95 5:103.8 6:731.3 7:0.1183 8:0.187 9:0.203 10:0.0852 11:0.1807 12:0.07083 13:0.3331 14:1.961 15:2.937 16:32.52 17:0.00954 18:0.0494 19:0.06019 20:0.02041 21:0.02105 22:0.006 23:17.11 24:36.33 25:117.7 26:909.4 27:0.1732 28:0.4967 29:0.5911 30:0.2163 31:0.3013 32:0.1067 33:2.5 
-0.07421875215932006 2:4 3:19.89 4:20.26 5:130.5 6:1214 7:0.1037 8:0.131 9:0.1411 10:0.09431 11:0.1802 12:0.06188 13:0.5079 14:0.8737 15:3.654 16:59.7 17:0.00509 18:0.02303 19:0.03052 20:0.01178 21:0.01057 22:0.00339 23:23.73 24:25.23 25:160.5 26:1646 27:0.1417 28:0.3309 29:0.4185 30:0.1613 31:0.2549 32:0.09136 33:8 
-0.07519531055178474 2:1 3:24.63 4:21.6 5:165.5 6:1841 7:0.103 8:0.2106 9:0.231 10:0.1471 11:0.1991 12:0.06739 13:0.9915 14:0.9004 15:7.05 16:139.9 17:0.00499 18:0.03212 19:0.03571 20:0.01597 21:0.01879 22:0.00476 23:29.92 24:26.93 25:205.7 26:2642 27:0.1342 28:0.4188 29:0.4658 30:0.2475 31:0.3157 32:0.09671 33:1 
-0.07519530999307139 2:2 3:18.11 4:26.17 5:118.7 6:970.2 7:0.09867 8:0.1716 9:0.2177 10:0.09718 11:0.2063 12:0.06194 13:0.5854 14:1.386 15:4.066 16:48.23 17:0.0078 18:0.04768 19:0.1015 20:0.02349 21:0.02759 22:0.00412 23:21.88 24:35.4 25:145.1 26:1251 27:0.1464 28:0.5127 29:0.8774 30:0.2603 31:0.3941 32:0.09318 33:2.4 
0.7047492979633507 2:2 3:17.99 4:10.38 5:122.8 6:1001 7:0.1184 8:0.2776 9:0.3001 10:0.1471 11:0.2419 12:0.07871 13:1.095 14:0.9053 15:8.589 16:153.4 17:0.0064 18:0.04904 19:0.05373 20:0.01587 21:0.03003 22:0.00619 23:25.38 24:17.33 25:184.6 26:2019 27:0.1622 28:0.6656 29:0.7119 30:0.2654 31:0.4601 32:0.1189 33:3 
0.7047134192525647 2:0 3:19.27 4:26.47 5:127.9 6:1162 7:0.09401 8:0.1719 9:0.1657 10:0.07593 11:0.1853 12:0.06261 13:0.5558 14:0.6062 15:3.528 16:68.17 17:0.00502 18:0.03318 19:0.03497 20:0.00964 21:0.01543 22:0.0039 23:24.15 24:30.9 25:161.4 26:1813 27:0.1509 28:0.659 29:0.6091 30:0.1785 31:0.3672 32:0.1123 33:3.5 
0.7048177124824597 2:10 3:14.99 4:25.2 5:95.54 6:698.8 7:0.09387 8:0.05131 9:0.02398 10:0.02899 11:0.1565 12:0.05504 13:1.214 14:2.188 15:8.077 16:106 17:0.00688 18:0.01094 19:0.01818 20:0.01917 21:0.00788 22:0.00175 23:14.99 24:25.2 25:95.54 26:698.8 27:0.09387 28:0.05131 29:0.02398 30:0.02899 31:0.1565 32:0.05504 33:3.5 
0.7047632752471957 2:6 3:14.71 4:21.59 5:95.55 6:656.9 7:0.1137 8:0.1365 9:0.1293 10:0.08123 11:0.2027 12:0.06758 13:0.4226 14:1.15 15:2.735 16:40.09 17:0.00366 18:0.02855 19:0.02572 20:0.01272 21:0.01817 22:0.00411 23:17.87 24:30.7 25:115.7 26:985.5 27:0.1368 28:0.429 29:0.3587 30:0.1834 31:0.3698 32:0.1094 33:6.5 
0.704833639911989 2:4 3:17.2 4:24.52 5:114.2 6:929.4 7:0.1071 8:0.183 9:0.1692 10:0.07944 11:0.1927 12:0.06487 13:0.5907 14:1.041 15:3.705 16:69.47 17:0.00582 18:0.05616 19:0.04252 20:0.01127 21:0.01527 22:0.0063 23:23.32 24:33.82 25:151.6 26:1681 27:0.1585 28:0.7394 29:0.6566 30:0.1899 31:0.3313 32:0.1339 33:5 
0.704545973332147 2:0 3:14.19 4:26.02 5:96.29 6:632.4 7:0.105 8:0.1836 9:0.2013 10:0.07798 11:0.1894 12:0.06625 13:0.4634 14:1.416 15:5.357 16:43.65 17:0.00749 18:0.06696 19:0.06789 20:0.01714 21:0.01327 22:0.00569 23:17.05 24:35.37 25:126.8 26:905.4 27:0.1521 28:0.6461 29:0.6439 30:0.179 31:0.2655 32:0.1061 33:1.4 
0.7044199461327598 2:15 3:19 4:18.91 5:123.4 6:1138 7:0.08217 8:0.08028 9:0.09271 10:0.05627 11:0.1946 12:0.05044 13:0.6896 14:1.342 15:5.216 16:81.23 17:0.00443 18:0.02731 19:0.0404 20:0.01361 21:0.0203 22:0.00269 23:22.32 24:25.73 25:148.2 26:1538 27:0.1021 28:0.2264 29:0.3207 30:0.1218 31:0.2841 32:0.06541 33:3.5 
0.704612908013496 2:3 3:23.27 4:22.04 5:152.1 6:1686 7:0.08439 8:0.1145 9:0.1324 10:0.09702 11:0.1801 12:0.05553 13:0.6642 14:0.8561 15:4.603 16:97.85 17:0.00491 18:0.02544 19:0.02822 20:0.01623 21:0.01956 22:0.00374 23:28.01 24:28.22 25:184.2 26:2403 27:0.1228 28:0.3583 29:0.3948 30:0.2346 31:0.3589 32:0.09187 33:1 
0.704838928174391 2:2 3:18.98 4:24.12 5:122 6:1030 7:0.1198 8:0.1612 9:0.2119 10:0.1155 11:0.2375 12:0.06542 13:0.8541 14:1.283 15:4.972 16:76.81 17:0.00898 18:0.02448 19:0.04385 20:0.01547 21:0.03414 22:0.00449 23:21.77 24:27.44 25:140.9 26:1328 27:0.1481 28:0.2397 29:0.355 30:0.1638 31:0.34 32:0.08003 33:2 
0.7048131633227447 2:4 3:12.34 4:26.86 5:81.15 6:477.4 7:0.1034 8:0.1353 9:0.1085 10:0.04562 11:0.1943 12:0.06937 13:0.4053 14:1.809 15:2.642 16:34.44 17:0.0091 18:0.03845 19:0.03763 20:0.01321 21:0.01878 22:0.00567 23:15.65 24:39.34 25:101.7 26:768.9 27:0.1785 28:0.4706 29:0.4425 30:0.1459 31:0.3215 32:0.1205 33:1.2 
0.7047288810430443 2:9 3:14.86 4:23.21 5:100.4 6:671.4 7:0.1044 8:0.198 9:0.1697 10:0.08878 11:0.1737 12:0.06672 13:0.2796 14:0.9622 15:3.591 16:25.2 17:0.00808 18:0.05122 19:0.05551 20:0.01883 21:0.02545 22:0.00431 23:16.08 24:27.78 25:118.6 26:784.7 27:0.1316 28:0.4648 29:0.4589 30:0.1727 31:0.3 32:0.08701 33:8 
0.7046496112070866 2:1 3:17.42 4:25.56 5:114.5 6:948 7:0.1006 8:0.1146 9:0.1682 10:0.06597 11:0.1308 12:0.05866 13:0.5296 14:1.667 15:3.767 16:58.53 17:0.03113 18:0.08555 19:0.1438 20:0.03927 21:0.02175 22:0.01256 23:18.07 24:28.07 25:120.4 26:1021 27:0.1243 28:0.1793 29:0.2803 30:0.1099 31:0.1603 32:0.06818 33:1.5 
0.7047859376738701 2:1 3:19.4 4:23.5 5:129.1 6:1155 7:0.1027 8:0.1558 9:0.2049 10:0.08886 11:0.1978 12:0.06 13:0.5243 14:1.802 15:4.037 16:60.41 17:0.01061 18:0.03252 19:0.03915 20:0.01559 21:0.02186 22:0.00395 23:21.65 24:30.53 25:144.9 26:1417 27:0.1463 28:0.2968 29:0.3458 30:0.1564 31:0.292 32:0.07614 33:1.8 
0.7048580980510275 2:7 3:19.45 4:19.33 5:126.5 6:1169 7:0.1035 8:0.1188 9:0.1379 10:0.08591 11:0.1776 12:0.05647 13:0.5959 14:0.6342 15:3.797 16:71 17:0.00465 18:0.018 19:0.02749 20:0.01267 21:0.01365 22:0.00255 23:25.7 24:24.57 25:163.1 26:1972 27:0.1497 28:0.3161 29:0.4317 30:0.1999 31:0.3379 32:0.0895 33:9 
0.7048053796766456 2:0 3:15.32 4:17.27 5:103.2 6:713.3 7:0.1335 8:0.2284 9:0.2448 10:0.1242 11:0.2398 12:0.07596 13:0.6592 14:1.059 15:4.061 16:59.46 17:0.01015 18:0.04588 19:0.04983 20:0.02127 21:0.01884 22:0.00866 23:17.73 24:22.66 25:119.8 26:928.8 27:0.1765 28:0.4503 29:0.4429 30:0.2229 31:0.3258 32:0.1191 33:0.8 
0.7048598914053719 2:0 3:15.66 4:23.2 5:110.2 6:773.5 7:0.1109 8:0.3114 9:0.3176 10:0.1377 11:0.2495 12:0.08104 13:1.292 14:2.454 15:10.12 16:138.5 17:0.01236 18:0.05995 19:0.08232 20:0.03024 21:0.02337 22:0.00604 23:19.85 24:31.64 25:143.7 26:1226 27:0.1504 28:0.5172 29:0.6181 30:0.2462 31:0.3277 32:0.1019 33:0.6 
0.7047482717197706 2:0 3:15.61 4:19.38 5:100 6:758.6 7:0.0784 8:0.05616 9:0.04209 10:0.02847 11:0.1547 12:0.05443 13:0.2298 14:0.9988 15:1.534 16:22.18 17:0.00283 18:0.00911 19:0.01311 20:0.00517 21:0.01013 22:0.00135 23:17.91 24:31.67 25:115.9 26:988.6 27:0.1084 28:0.1807 29:0.226 30:0.08568 31:0.2683 32:0.06829 33:2 
0.7052501309180328 2:0 3:17.93 4:24.48 5:115.2 6:998.9 7:0.08855 8:0.07027 9:0.05699 10:0.04744 11:0.1538 12:0.0551 13:0.4212 14:1.433 15:2.765 16:45.81 17:0.00544 18:0.01169 19:0.01622 20:0.00852 21:0.01419 22:0.00275 23:20.92 24:34.69 25:135.1 26:1320 27:0.1315 28:0.1806 29:0.208 30:0.1136 31:0.2504 32:0.07948 33:1.5 
0.7047407810380731 2:0 3:19.16 4:26.6 5:126.2 6:1138 7:0.102 8:0.1453 9:0.1921 10:0.09664 11:0.1902 12:0.0622 13:0.6361 14:1.001 15:4.321 16:69.65 17:0.00739 18:0.02449 19:0.03988 20:0.01293 21:0.01435 22:0.00345 23:23.72 24:35.9 25:159.8 26:1724 27:0.1782 28:0.3841 29:0.5754 30:0.1872 31:0.3258 32:0.0972 33:1.5 
0.7047415590019424 2:0 3:19.53 4:18.9 5:129.5 6:1217 7:0.115 8:0.1642 9:0.2197 10:0.1062 11:0.1792 12:0.06552 13:1.111 14:1.161 15:7.237 16:133 17:0.00606 18:0.03203 19:0.05638 20:0.01733 21:0.01884 22:0.00479 23:25.93 24:26.24 25:171.1 26:2053 27:0.1495 28:0.4116 29:0.6121 30:0.198 31:0.2968 32:0.09929 33:2 
0.7045426282039291 2:0 3:18.22 4:18.87 5:118.7 6:1027 7:0.09746 8:0.1117 9:0.113 10:0.0795 11:0.1807 12:0.05664 13:0.4041 14:0.5503 15:2.547 16:48.9 17:0.00482 18:0.01659 19:0.02408 20:0.01143 21:0.01275 22:0.00245 23:21.84 24:25 25:140.9 26:1485 27:0.1434 28:0.2763 29:0.3853 30:0.1776 31:0.2812 32:0.08198 33:2 
0.7048520659411826 2:2 3:20.34 4:21.51 5:135.9 6:1264 7:0.117 8:0.1875 9:0.2565 10:0.1504 11:0.2569 12:0.0667 13:0.5702 14:1.023 15:4.012 16:69.06 17:0.00549 18:0.02431 19:0.0319 20:0.01369 21:0.02768 22:0.00334 23:25.3 24:31.86 25:171.1 26:1938 27:0.1592 28:0.4492 29:0.5344 30:0.2685 31:0.5558 32:0.1024 33:0.4 
0.7047969269024395 2:0 3:15.75 4:19.22 5:107.1 6:758.6 7:0.1243 8:0.2364 9:0.2914 10:0.1242 11:0.2375 12:0.07603 13:0.5204 14:1.324 15:3.477 16:51.22 17:0.00933 18:0.06559 19:0.09953 20:0.02283 21:0.05543 22:0.00733 23:17.36 24:24.17 25:119.4 26:915.3 27:0.155 28:0.5046 29:0.6872 30:0.2135 31:0.4245 32:0.105 33:1.8 
0.7047351126587801 2:2 3:20.2 4:26.83 5:133.7 6:1234 7:0.09905 8:0.1669 9:0.1641 10:0.1265 11:0.1875 12:0.0602 13:0.9761 14:1.892 15:7.128 16:103.6 17:0.00844 18:0.04674 19:0.05904 20:0.02536 21:0.0371 22:0.00429 23:24.19 24:33.81 25:160 26:1671 27:0.1278 28:0.3416 29:0.3703 30:0.2152 31:0.3271 32:0.07632 33:2.5 
0.7044524062244817 2:0 3:20.64 4:17.35 5:134.8 6:1335 7:0.09446 8:0.1076 9:0.1527 10:0.08941 11:0.1571 12:0.05478 13:0.6137 14:0.6575 15:4.119 16:77.02 17:0.00621 18:0.01895 19:0.02681 20:0.01232 21:0.01276 22:0.00171 23:25.37 24:23.17 25:166.8 26:1946 27:0.1562 28:0.3055 29:0.4159 30:0.2112 31:0.2689 32:0.07055 33:4 
0.7047527594361915 2:0 3:14.6 4:23.29 5:93.97 6:664.7 7:0.08682 8:0.06636 9:0.0839 10:0.05271 11:0.1627 12:0.05416 13:0.4157 14:1.627 15:2.914 16:33.01 17:0.00831 18:0.01742 19:0.03389 20:0.01576 21:0.0174 22:0.00287 23:15.79 24:31.71 25:102.2 26:758.2 27:0.1312 28:0.1581 29:0.2675 30:0.1359 31:0.2477 32:0.06836 33:3 
0.7048246972660869 2:16 3:21.61 4:22.28 5:144.4 6:1407 7:0.1167 8:0.2087 9:0.281 10:0.1562 11:0.2162 12:0.06606 13:0.6242 14:0.9209 15:4.158 16:80.99 17:0.00522 18:0.03726 19:0.04718 20:0.01288 21:0.02045 22:0.00403 23:26.23 24:28.74 25:172 26:2081 27:0.1502 28:0.5717 29:0.7053 30:0.2422 31:0.3828 32:0.1007 33:3.3 
0.7048378533967132 2:3 3:17.99 4:20.66 5:117.8 6:991.7 7:0.1036 8:0.1304 9:0.1201 10:0.08824 11:0.1992 12:0.06069 13:0.4537 14:0.8733 15:3.061 16:49.81 17:0.00723 18:0.02772 19:0.02509 20:0.0148 21:0.01414 22:0.00334 23:21.08 24:25.41 25:138.1 26:1349 27:0.1482 28:0.3735 29:0.3301 30:0.1974 31:0.306 32:0.08503 33:3 
0.7046870165947009 2:13 3:15.13 4:29.81 5:96.71 6:719.5 7:0.0832 8:0.04605 9:0.04686 10:0.02739 11:0.1852 12:0.05294 13:0.4681 14:1.627 15:3.043 16:45.38 17:0.00683 18:0.01427 19:0.02489 20:0.00909 21:0.03151 22:0.00175 23:17.26 24:36.91 25:110.1 26:931.4 27:0.1148 28:0.09866 29:0.1547 30:0.06575 31:0.3233 32:0.06165 33:4 
0.7053947606738945 2:1 3:17.29 4:21.43 5:112.7 6:938.6 7:0.1004 8:0.1124 9:0.1117 10:0.08377 11:0.1749 12:0.05822 13:0.9047 14:1.305 15:6.378 16:105.2 17:0.00561 18:0.02121 19:0.03387 20:0.01494 21:0.01537 22:0.00304 23:22.51 24:26.7 25:149.4 26:1558 27:0.1309 28:0.2352 29:0.327 30:0.1549 31:0.2609 32:0.07545 33:1.5 
0.7058289453885432 2:0 3:12.75 4:15.29 5:84.6 6:502.7 7:0.1189 8:0.1569 9:0.1664 10:0.07666 11:0.1995 12:0.07164 13:0.3877 14:0.7402 15:2.999 16:30.85 17:0.00777 18:0.02987 19:0.04561 20:0.01357 21:0.01774 22:0.00511 23:15.51 24:20.37 25:107.3 26:733.2 27:0.1706 28:0.4196 29:0.5999 30:0.1709 31:0.3485 32:0.1179 33:2.5 
0.7057747465595678 2:10 3:13.71 4:20.83 5:90.2 6:577.9 7:0.1189 8:0.1645 9:0.09366 10:0.05985 11:0.2196 12:0.07451 13:0.5835 14:1.377 15:3.856 16:50.96 17:0.00881 18:0.03029 19:0.02488 20:0.01448 21:0.01486 22:0.00541 23:17.06 24:28.14 25:110.6 26:897 27:0.1654 28:0.3682 29:0.2678 30:0.1556 31:0.3196 32:0.1151 33:4 
0.7052469940870851 2:0 3:16.65 4:21.38 5:110 6:904.6 7:0.1121 8:0.1457 9:0.1525 10:0.0917 11:0.1995 12:0.0633 13:0.8068 14:0.9017 15:5.455 16:102.6 17:0.00605 18:0.01882 19:0.02741 20:0.0113 21:0.01468 22:0.0028 23:26.46 24:31.56 25:177 26:2215 27:0.1805 28:0.3578 29:0.4695 30:0.2095 31:0.3613 32:0.09564 33:3 
0.7052842298148726 2:1 3:17.02 4:23.98 5:112.8 6:899.3 7:0.1197 8:0.1496 9:0.2417 10:0.1203 11:0.2248 12:0.06382 13:0.6009 14:1.398 15:3.999 16:67.78 17:0.00827 18:0.03082 19:0.05042 20:0.01112 21:0.02102 22:0.00385 23:20.88 24:32.09 25:136.1 26:1344 27:0.1634 28:0.3559 29:0.5588 30:0.1847 31:0.353 32:0.08482 33:1.3 
0.7052271725597682 2:0 3:13.48 4:20.82 5:88.4 6:559.2 7:0.1016 8:0.1255 9:0.1063 10:0.05439 11:0.172 12:0.06419 13:0.213 14:0.5914 15:1.545 16:18.52 17:0.00537 18:0.02239 19:0.03049 20:0.01262 21:0.01377 22:0.00319 23:15.53 24:26.02 25:107.3 26:740.4 27:0.161 28:0.4225 29:0.503 30:0.2258 31:0.2807 32:0.1071 33:2.5 
0.7132461574959188 2:0 3:10.95 4:21.35 5:71.9 6:371.1 7:0.1227 8:0.1218 9:0.1044 10:0.05669 11:0.1895 12:0.0687 13:0.2366 14:1.428 15:1.822 16:16.97 17:0.00806 18:0.01764 19:0.02595 20:0.01037 21:0.01357 22:0.00304 23:12.84 24:35.34 25:87.22 26:514 27:0.1909 28:0.2698 29:0.4023 30:0.1424 31:0.2964 32:0.09606 33:2.7 
0.7052776503645829 2:0 3:19.55 4:15.49 5:128 6:1156 7:0.1079 8:0.1747 9:0.2352 10:0.1196 11:0.2616 12:0.06752 13:1.223 14:0.4489 15:7.87 16:168.8 17:0.01101 18:0.04272 19:0.08624 20:0.02737 21:0.06041 22:0.0075 23:23.73 24:17.21 25:153.4 26:1633 27:0.1534 28:0.3391 29:0.5819 30:0.22 31:0.4714 32:0.09721 33:3 
0.7052848013113111 2:0 3:15.06 4:19.83 5:100.3 6:705.6 7:0.1039 8:0.1553 9:0.17 10:0.08815 11:0.1855 12:0.06284 13:0.4768 14:0.9644 15:3.706 16:47.14 17:0.00925 18:0.03715 19:0.04867 20:0.01851 21:0.01498 22:0.00352 23:18.23 24:24.23 25:123.5 26:1025 27:0.1551 28:0.4203 29:0.5203 30:0.2115 31:0.2834 32:0.08234 33:1.5 
0.7058182995847707 2:11 3:19.79 4:25.12 5:130.4 6:1192 7:0.1015 8:0.1589 9:0.2545 10:0.1149 11:0.2202 12:0.06113 13:0.4953 14:1.199 15:2.765 16:63.33 17:0.00503 18:0.03179 19:0.04755 20:0.01043 21:0.01578 22:0.00322 23:22.63 24:33.58 25:148.7 26:1589 27:0.1275 28:0.3861 29:0.5673 30:0.1732 31:0.3305 32:0.08465 33:3 
0.705271158493634 2:1 3:16.11 4:18.05 5:105.1 6:813 7:0.09721 8:0.1137 9:0.09447 10:0.05943 11:0.1861 12:0.06248 13:0.7049 14:1.332 15:4.533 16:74.08 17:0.00677 18:0.01938 19:0.03067 20:0.01167 21:0.01875 22:0.00343 23:19.92 24:25.27 25:129 26:1233 27:0.1314 28:0.2236 29:0.2802 30:0.1216 31:0.2792 32:0.08158 33:1.5 
0.7059046119724151 2:2 3:19.89 4:16.89 5:130.2 6:1229 7:0.1005 8:0.1134 9:0.1498 10:0.1121 11:0.173 12:0.06147 13:1.051 14:0.9349 15:7.382 16:121.9 17:0.00823 18:0.03082 19:0.0416 20:0.02785 21:0.03763 22:0.00379 23:22.25 24:19.08 25:147.5 26:1508 27:0.1197 28:0.1873 29:0.2487 30:0.1679 31:0.2643 32:0.07048 33:6 
0.7058238360096993 2:1 3:13.43 4:19.63 5:85.84 6:565.4 7:0.09048 8:0.06288 9:0.05858 10:0.03438 11:0.1598 12:0.05671 13:0.4697 14:1.147 15:3.142 16:43.4 17:0.006 18:0.01063 19:0.02151 20:0.00944 21:0.0152 22:0.00187 23:17.98 24:29.87 25:116.6 26:993.6 27:0.1401 28:0.1546 29:0.2644 30:0.116 31:0.2884 32:0.07371 33:2 
0.7053419160284993 2:0 3:13.77 4:22.29 5:90.63 6:588.9 7:0.12 8:0.1267 9:0.1385 10:0.06526 11:0.1834 12:0.06877 13:0.6191 14:2.112 15:4.906 16:49.7 17:0.0138 18:0.03348 19:0.04665 20:0.0206 21:0.02689 22:0.00431 23:16.39 24:34.01 25:111.6 26:806.9 27:0.1737 28:0.3122 29:0.3809 30:0.1673 31:0.308 32:0.09333 33:1.2 
0.7057745194054699 2:27 3:12.83 4:22.33 5:85.26 6:503.2 7:0.1088 8:0.1799 9:0.1695 10:0.06861 11:0.2123 12:0.07254 13:0.3061 14:1.069 15:2.257 16:25.13 17:0.00698 18:0.03858 19:0.04683 20:0.01499 21:0.0168 22:0.00562 23:15.2 24:30.15 25:105.3 26:706 27:0.1777 28:0.5343 29:0.6282 30:0.1977 31:0.3407 32:0.1243 33:3 
0.7053637764092691 2:1 3:23.21 4:26.97 5:153.5 6:1670 7:0.09509 8:0.1682 9:0.195 10:0.1237 11:0.1909 12:0.06309 13:1.058 14:0.9635 15:7.247 16:155.8 17:0.00643 18:0.02863 19:0.04497 20:0.01716 21:0.0159 22:0.00305 23:31.01 24:34.51 25:206 26:2944 27:0.1481 28:0.4126 29:0.582 30:0.2593 31:0.3103 32:0.08677 33:1.5 
0.7052501309180479 2:0 3:17.3 4:17.08 5:113 6:928.2 7:0.1008 8:0.1041 9:0.1266 10:0.08353 11:0.1813 12:0.05613 13:0.3093 14:0.8568 15:2.193 16:33.63 17:0.00476 18:0.01503 19:0.02332 20:0.01262 21:0.01394 22:0.00236 23:19.85 24:25.09 25:130.9 26:1222 27:0.1416 28:0.2405 29:0.3378 30:0.1857 31:0.3138 32:0.08113 33:1.2 
0.7053466869651518 2:2 3:16.27 4:20.71 5:106.9 6:813.7 7:0.1169 8:0.1319 9:0.1478 10:0.08488 11:0.1948 12:0.06277 13:0.4375 14:1.232 15:3.27 16:44.41 17:0.0067 18:0.02083 19:0.03248 20:0.01392 21:0.01536 22:0.00279 23:19.28 24:30.38 25:129.8 26:1121 27:0.159 28:0.2947 29:0.3597 30:0.1583 31:0.3103 32:0.082 33:2.5 
1.924804690131736 2:0 3:21.37 4:17.44 5:137.5 6:1373 7:0.08836 8:0.1189 9:0.1255 10:0.0818 11:0.2333 12:0.0601 13:0.5854 14:0.6105 15:3.928 16:82.15 17:0.00617 18:0.03449 19:0.033 20:0.01805 21:0.03094 22:0.00504 23:24.9 24:20.98 25:159.1 26:1949 27:0.1188 28:0.3449 29:0.3414 30:0.2032 31:0.4334 32:0.09067 33:2.5 
1.924804689406912 2:0 3:11.42 4:20.38 5:77.58 6:386.1 7:0.1425 8:0.2839 9:0.2414 10:0.1052 11:0.2597 12:0.09744 13:0.4956 14:1.156 15:3.445 16:27.23 17:0.00911 18:0.07458 19:0.05661 20:0.01867 21:0.05963 22:0.00921 23:14.91 24:26.5 25:98.87 26:567.7 27:0.2098 28:0.8663 29:0.6869 30:0.2575 31:0.6638 32:0.173 33:2 
1.92480462248778 2:1 3:13 4:21.82 5:87.5 6:519.8 7:0.1273 8:0.1932 9:0.1859 10:0.09353 11:0.235 12:0.07389 13:0.3063 14:1.002 15:2.406 16:24.32 17:0.00573 18:0.03502 19:0.03553 20:0.01226 21:0.02143 22:0.00375 23:15.49 24:30.73 25:106.2 26:739.3 27:0.1703 28:0.5401 29:0.539 30:0.206 31:0.4378 32:0.1072 33:2 
1.924804690110908 2:0 3:15.78 4:17.89 5:103.6 6:781 7:0.0971 8:0.1292 9:0.09954 10:0.06606 11:0.1842 12:0.06082 13:0.5058 14:0.9849 15:3.564 16:54.16 17:0.00577 18:0.04061 19:0.02791 20:0.01282 21:0.02008 22:0.00414 23:20.42 24:27.28 25:136.5 26:1299 27:0.1396 28:0.5609 29:0.3965 30:0.181 31:0.3792 32:0.1048 33:1.4 
1.924804690131736 2:0 3:15.85 4:23.95 5:103.7 6:782.7 7:0.08401 8:0.1002 9:0.09938 10:0.05364 11:0.1847 12:0.05338 13:0.4033 14:1.078 15:2.903 16:36.58 17:0.00977 18:0.03126 19:0.05051 20:0.01992 21:0.02981 22:0.003 23:16.84 24:27.66 25:112 26:876.5 27:0.1131 28:0.1924 29:0.2322 30:0.1119 31:0.2809 32:0.06287 33:1 
1.924804690128624 2:0 3:14.68 4:20.13 5:94.74 6:684.5 7:0.09867 8:0.072 9:0.07395 10:0.05259 11:0.1586 12:0.05922 13:0.4727 14:1.24 15:3.195 16:45.4 17:0.00572 18:0.01162 19:0.01998 20:0.01109 21:0.0141 22:0.00209 23:19.07 24:30.88 25:123.4 26:1138 27:0.1464 28:0.1871 29:0.2914 30:0.1609 31:0.3029 32:0.08216 33:1.1 
1.925781247836522 2:1 3:17.14 4:16.4 5:116 6:912.7 7:0.1186 8:0.2276 9:0.2229 10:0.1401 11:0.304 12:0.07413 13:1.046 14:0.976 15:7.276 16:111.4 17:0.00803 18:0.03799 19:0.03732 20:0.02397 21:0.02308 22:0.00744 23:22.25 24:21.4 25:152.4 26:1461 27:0.1545 28:0.3949 29:0.3853 30:0.255 31:0.4066 32:0.1059 33:4.4 
1.925781247576984 2:0 3:14.58 4:21.53 5:97.41 6:644.8 7:0.1054 8:0.1868 9:0.1425 10:0.08783 11:0.2252 12:0.06924 13:0.2545 14:0.9832 15:2.11 16:21.05 17:0.00445 18:0.03055 19:0.02681 20:0.01352 21:0.01454 22:0.00371 23:17.62 24:33.21 25:122.4 26:896.9 27:0.1525 28:0.6643 29:0.5539 30:0.2701 31:0.4264 32:0.1275 33:2.5 
1.924804689776278 2:2 3:11.84 4:18.7 5:77.93 6:440.6 7:0.1109 8:0.1516 9:0.1218 10:0.05182 11:0.2301 12:0.07799 13:0.4825 14:1.03 15:3.475 16:41 17:0.00555 18:0.03414 19:0.04205 20:0.01044 21:0.02273 22:0.00567 23:16.82 24:28.12 25:119.4 26:888.7 27:0.1637 28:0.5775 29:0.6956 30:0.1546 31:0.4761 32:0.1402 33:3 
1.924804689610406 2:0 3:16.13 4:17.88 5:107 6:807.2 7:0.104 8:0.1559 9:0.1354 10:0.07752 11:0.1998 12:0.06515 13:0.334 14:0.6857 15:2.183 16:35.03 17:0.00419 18:0.02868 19:0.02664 20:0.00907 21:0.01703 22:0.00382 23:20.21 24:27.26 25:132.7 26:1261 27:0.1446 28:0.5804 29:0.5274 30:0.1864 31:0.427 32:0.1233 33:2.5 
1.924804689610406 2:1 3:13.28 4:20.28 5:87.32 6:545.2 7:0.1041 8:0.1436 9:0.09847 10:0.06158 11:0.1974 12:0.06782 13:0.3704 14:0.8249 15:2.427 16:31.33 17:0.00507 18:0.02147 19:0.02185 20:0.00956 21:0.01719 22:0.00332 23:17.38 24:28 25:113.1 26:907.2 27:0.153 28:0.3724 29:0.3664 30:0.1492 31:0.3739 32:0.1027 33:2.6 
1.924804689441491 2:1 3:14.42 4:19.77 5:94.48 6:642.5 7:0.09752 8:0.1141 9:0.09388 10:0.05839 11:0.1879 12:0.0639 13:0.2895 14:1.851 15:2.376 16:26.85 17:0.00801 18:0.02895 19:0.03321 20:0.01424 21:0.01462 22:0.00445 23:16.33 24:30.86 25:109.5 26:826.4 27:0.1431 28:0.3026 29:0.3194 30:0.1565 31:0.2718 32:0.09353 33:0.4 
1.92480469012707 2:0 3:13.11 4:15.56 5:87.21 6:530.2 7:0.1398 8:0.1765 9:0.2071 10:0.09601 11:0.1925 12:0.07692 13:0.3908 14:0.9238 15:2.41 16:34.66 17:0.00716 18:0.02912 19:0.05473 20:0.01388 21:0.01547 22:0.0071 23:16.31 24:22.4 25:106.4 26:827.2 27:0.1862 28:0.4099 29:0.6376 30:0.1986 31:0.3147 32:0.1405 33:1.5 
1.924804690114029 2:2 3:15.78 4:22.91 5:105.7 6:782.6 7:0.1155 8:0.1752 9:0.2133 10:0.09479 11:0.2096 12:0.07331 13:0.552 14:1.072 15:3.598 16:58.63 17:0.0087 18:0.03976 19:0.0595 20:0.0139 21:0.01495 22:0.00598 23:20.19 24:30.5 25:130.3 26:1272 27:0.1855 28:0.4925 29:0.7356 30:0.2034 31:0.3274 32:0.1252 33:3.5 
1.924804689770066 2:17 3:18.66 4:17.12 5:121.4 6:1077 7:0.1054 8:0.11 9:0.1457 10:0.08665 11:0.1966 12:0.06213 13:0.7128 14:1.581 15:4.895 16:90.47 17:0.0081 18:0.02101 19:0.03342 20:0.01601 21:0.02045 22:0.00457 23:22.25 24:24.9 25:145.4 26:1549 27:0.1503 28:0.2291 29:0.3272 30:0.1674 31:0.2894 32:0.08456 33:7 
1.924804689421501 2:0 3:16.16 4:21.54 5:106.2 6:809.8 7:0.1008 8:0.1284 9:0.1043 10:0.05613 11:0.216 12:0.05891 13:0.4332 14:1.265 15:2.844 16:43.68 17:0.00488 18:0.01952 19:0.02219 20:0.00923 21:0.01535 22:0.00237 23:19.47 24:31.68 25:129.7 26:1175 27:0.1395 28:0.3055 29:0.2992 30:0.1312 31:0.348 32:0.07619 33:1.2 
